{
  "name": "graph_aic",
  "input_tensor": [
    "2Fmodel2Fneck2Fout_convs2E12Fcna2Factivate2FRelu_output_0"
  ],
  "input_shape": [
    {
      "dim": [1,64,26,26],
      "dtype": "f16",
      "pack": 0
    }
  ],
  "output_tensor": [
    "2Fmodel2Fperson2Fhead_module2FExp_1_output_0"
  ],
  "output_shape": [
    {
      "dim": [1,4,26,26],
      "dtype": "f16",
      "pack": 0
    }
  ],
  "layer": [
    {
      "inst_name": "/model/person/head_module/bbox_pred.1/Conv_im_0",
      "type_name": "Conv2d",
      "bottom": [
        "2Fmodel2Fneck2Fout_convs2E12Fcna2Factivate2FRelu_output_0"
      ],
      "top": [
        "2Fmodel2Fperson2Fhead_module2Fbbox_pred2E12FConv_output_0"
      ],
      "hw": 1,
      "hw_acc": [5,10,15],
      "param": {
        "num_output": 4,
        "bias_term": 1,
        "group": 1,
        "pad_h": 0,
        "pad_w": 0,
        "kernel_h": 1,
        "kernel_w": 1,
        "stride_h": 1,
        "stride_w": 1,
        "dilation_h": 1,
        "dilation_w": 1,
        "num_input": 64,
        "padding_mode": 0
      },
      "data": {
        "coef": [
          -0.00499896,
          0.00762365,
          -0.006074,
          -0.0157251,
          -0.0102003,
          0.0626241,
          -0.00160999,
          0.00768616,
          -0.00311316,
          0.0419132,
          -0.00973609,
          0.0542718,
          0.0210767,
          -0.00593886,
          -0.0446683,
          0.0166683,
          -0.0161565,
          0.026734,
          -0.00648135,
          0.346524,
          -0.0233893,
          0.0294684,
          -0.0244103,
          -0.0224795,
          0.0122437,
          0.0410955,
          0.0173369,
          -0.0582244,
          -0.000987918,
          -0.0347147,
          0.0107274,
          -0.00739183,
          0.0180962,
          -0.00491434,
          0.0232551,
          0.00702879,
          -0.00349786,
          0.0361055,
          0.033911,
          -0.00682587,
          0.0122158,
          -0.00180775,
          -0.00469564,
          0.00868068,
          0.00323261,
          -0.032652,
          -0.0174549,
          -0.369015,
          -0.0232507,
          -0.00453981,
          -0.00182603,
          -0.00653407,
          0.00614231,
          0.0137205,
          -0.00401076,
          -0.00255452,
          -0.000968368,
          -0.00965707,
          -0.00310669,
          0.0101162,
          -0.516216,
          -0.00714466,
          -0.0137488,
          -0.570883,
          0.00104548,
          0.00436663,
          -0.00952192,
          -0.451833,
          0.00208118,
          -0.266255,
          0.0179109,
          -0.00909743,
          0.0037762,
          -0.0139872,
          -0.015743,
          -0.0190802,
          -0.000144991,
          -0.00885918,
          0.0113796,
          0.00476065,
          -0.0412935,
          0.0252863,
          -0.00179836,
          0.0102269,
          0.0363422,
          0.0153387,
          0.00103468,
          -0.0697269,
          0.00948482,
          0.3247,
          -0.000278872,
          0.0078014,
          -0.000117443,
          -0.0197164,
          -0.00749336,
          -0.00641841,
          0.0160574,
          -0.00065039,
          -0.0310329,
          0.234237,
          -0.00110469,
          -0.00250044,
          0.285396,
          -0.00040996,
          0.00448362,
          -0.0297465,
          0.0124012,
          0.0556379,
          0.00214596,
          -0.0151688,
          -0.00624741,
          -0.00776912,
          -0.45171,
          -0.32351,
          -0.00705477,
          0.0295198,
          -0.00529688,
          -0.0189075,
          0.000760646,
          0.218875,
          -0.00240393,
          -0.0527122,
          -0.000168317,
          -0.037604,
          -0.0039379,
          -0.000663867,
          -0.68555,
          -0.00610164,
          -0.00356428,
          0.0062361,
          0.00939668,
          -0.0140241,
          -0.00634065,
          0.0234251,
          0.0292647,
          0.0145133,
          -0.00868505,
          0.0152632,
          -0.373735,
          0.00548338,
          -0.00733053,
          -0.480667,
          -0.0119392,
          0.00590183,
          0.00204702,
          0.0639287,
          -0.00951647,
          0.00465063,
          -0.00248095,
          0.348998,
          0.0303754,
          -0.0368656,
          0.35721,
          0.0155286,
          0.00810918,
          -0.0302686,
          -0.000953771,
          -0.0179208,
          0.0193844,
          -0.647131,
          -0.0215647,
          -0.0166504,
          -0.00495731,
          0.014976,
          -0.0045508,
          -0.00596921,
          0.035883,
          0.00334351,
          0.0054218,
          -0.0223639,
          0.00116481,
          0.00683211,
          -0.00224439,
          0.00493408,
          -0.0148785,
          -0.00914167,
          -0.0148402,
          -0.0234681,
          0.0401373,
          0.0154601,
          -0.00401231,
          -0.0133886,
          -0.000356356,
          0.00452814,
          -0.0145488,
          -0.0118266,
          -0.00651061,
          0.021862,
          -0.00473884,
          0.0111634,
          -0.0144157,
          -0.0031539,
          -0.000562639,
          0.000617918,
          0.00248729,
          0.00322707,
          0.362133,
          0.0727241,
          -0.00740919,
          0.0130163,
          -0.0154961,
          0.0109494,
          -0.00690419,
          0.0323696,
          -0.00164621,
          -0.00379847,
          -0.00438485,
          0.108867,
          0.00289902,
          -0.0795548,
          -0.0091966,
          -0.00347756,
          -0.0326517,
          0.0170991,
          -0.0167431,
          0.0128521,
          0.00202957,
          0.0137882,
          0.0319949,
          -0.0607953,
          -0.00214554,
          -0.00741012,
          0.00179245,
          -0.00444998,
          -0.020154,
          0.00427379,
          0.0115837,
          -0.00120789,
          -0.000387055,
          -0.00882923,
          0.0134281,
          -0.0115058,
          0.218218,
          0.0317101,
          -0.014757,
          0.0214954,
          -0.00363356,
          -0.00249962,
          -0.735221,
          -0.00296003,
          -0.011407,
          0.00496085,
          -0.00616731,
          -0.0156391,
          -0.00872592,
          -0.00158533,
          -0.00167144,
          0.00302479,
          -0.396333,
          0.00317874,
          0.00759218,
          -0.0166841,
          -0.000897191,
          0.00222742,
          -0.00349288,
          -0.00844771
        ],
        "bias": [0.794022,0.883924,0.349532,0.773981],
        "factor_scale": [15360,15360,15360,15360],
        "coef_dtype": 1,
        "coef_acc": [5,10,15],
        "input_dtype": 1,
        "input_acc": [5,10,15],
        "output_dtype": 1,
        "output_acc": [5,10,15]
      }
    },
    {
      "inst_name": "/model/person/head_module/Exp_1",
      "type_name": "Activation4",
      "bottom": [
        "2Fmodel2Fperson2Fhead_module2Fbbox_pred2E12FConv_output_0"
      ],
      "top": [
        "2Fmodel2Fperson2Fhead_module2FExp_1_output_0"
      ],
      "hw": 1,
      "hw_acc": [5,10,15],
      "param": {
        "function": "exp_x",
        "coeff": 1,
        "coeff2": 1,
        "num_input": 4,
        "num_output": 4
      },
      "data": {
        "input_dtype": 1,
        "input_acc": [5,10,15],
        "output_dtype": 1,
        "output_acc": [5,10,15]
      }
    }
  ]
}