{
  "name": "graph_aic",
  "input_tensor": [
    "2Fmodel2Fperson2Fhead_module2Fkpt_pred2E02Fkpt_pred2E02E12Fpointwise_conv2Fconv2FConv_output_0",
    "2Fmodel2Fperson2Fhead_module2Fkpt_pred2E02Fkpt_pred2E02E12Fpointwise_conv2Factivate2FSigmoid_output_0"
  ],
  "input_shape": [
    {
      "dim": [1,64,52,52],
      "dtype": "f16",
      "pack": 0
    },
    {
      "dim": [1,64,52,52],
      "dtype": "f16",
      "pack": 0
    }
  ],
  "output_tensor": [
    "2Fmodel2Fperson2Fhead_module2Fkpt_pred2E02Fkpt_pred2E02E42FMul_output_0"
  ],
  "output_shape": [
    {
      "dim": [1,51,52,52],
      "dtype": "f16",
      "pack": 0
    }
  ],
  "layer": [
    {
      "param": {
        "operation": 2,
        "num_channel": 64,
        "src_mode": "ONLINE",
        "brc_mode": "CHW"
      },
      "data": {
        "input0_dtype": 1,
        "input0_acc": [5,10,15],
        "input1_dtype": 1,
        "input1_acc": [5,10,15],
        "output_dtype": 1,
        "output_acc": [5,10,15],
        "coef": []
      },
      "inst_name": "/model/person/head_module/kpt_pred.0/kpt_pred.0.1/pointwise_conv/activate/Mul",
      "type_name": "Eltwise3",
      "bottom": [
        "2Fmodel2Fperson2Fhead_module2Fkpt_pred2E02Fkpt_pred2E02E12Fpointwise_conv2Fconv2FConv_output_0",
        "2Fmodel2Fperson2Fhead_module2Fkpt_pred2E02Fkpt_pred2E02E12Fpointwise_conv2Factivate2FSigmoid_output_0"
      ],
      "top": [
        "2Fmodel2Fperson2Fhead_module2Fkpt_pred2E02Fkpt_pred2E02E12Fpointwise_conv2Factivate2FMul_output_0"
      ],
      "hw": 1,
      "hw_acc": [5,10,15]
    },
    {
      "param": {
        "num_channel": 64
      },
      "data": {
        "coef": [
          1,
          1,
          1,
          1,
          1,
          1,
          1,
          1,
          1,
          1,
          1,
          1,
          1,
          1,
          1,
          1,
          1,
          1,
          1,
          1,
          1,
          1,
          1,
          1,
          1,
          1,
          1,
          1,
          1,
          1,
          1,
          1,
          1,
          1,
          1,
          1,
          1,
          1,
          1,
          1,
          1,
          1,
          1,
          1,
          1,
          1,
          1,
          1,
          1,
          1,
          1,
          1,
          1,
          1,
          1,
          1,
          1,
          1,
          1,
          1,
          1,
          1,
          1,
          1
        ],
        "bias": [
          -0.19582,
          -0.0377879,
          -0.117538,
          -0.180871,
          0.0844816,
          0.0984051,
          -0.039806,
          -0.194035,
          -0.185026,
          0.0618476,
          -0.0861731,
          0.0230755,
          -0.124586,
          0.0709541,
          0.0715773,
          -0.00826901,
          0.0324654,
          -0.0953608,
          -0.179257,
          0.0588256,
          -0.165892,
          0.0444072,
          -0.114156,
          -0.180669,
          0.119531,
          -0.0880317,
          -0.130535,
          -0.139656,
          0.00707774,
          0.130797,
          -0.185643,
          -0.141378,
          -0.0915632,
          -0.141816,
          0.101119,
          -0.198157,
          -0.17045,
          0.13713,
          0.0919723,
          0.0386363,
          0.072826,
          0.0903636,
          0.0299211,
          0.0487477,
          -0.00834206,
          -0.0667884,
          0.107834,
          -0.00994889,
          -0.0356451,
          -0.151376,
          0.0738934,
          0.0915256,
          0.0460638,
          -0.115786,
          0.0939703,
          -0.121233,
          -0.136031,
          -0.165271,
          0.0193511,
          -0.0464367,
          -0.102634,
          0.061494,
          0.0828621,
          -0.16074
        ],
        "coef_scale": [
          1,
          1,
          1,
          1,
          1,
          1,
          1,
          1,
          1,
          1,
          1,
          1,
          1,
          1,
          1,
          1,
          1,
          1,
          1,
          1,
          1,
          1,
          1,
          1,
          1,
          1,
          1,
          1,
          1,
          1,
          1,
          1,
          1,
          1,
          1,
          1,
          1,
          1,
          1,
          1,
          1,
          1,
          1,
          1,
          1,
          1,
          1,
          1,
          1,
          1,
          1,
          1,
          1,
          1,
          1,
          1,
          1,
          1,
          1,
          1,
          1,
          1,
          1,
          1
        ],
        "coef_zero_point": [
          0,
          0,
          0,
          0,
          0,
          0,
          0,
          0,
          0,
          0,
          0,
          0,
          0,
          0,
          0,
          0,
          0,
          0,
          0,
          0,
          0,
          0,
          0,
          0,
          0,
          0,
          0,
          0,
          0,
          0,
          0,
          0,
          0,
          0,
          0,
          0,
          0,
          0,
          0,
          0,
          0,
          0,
          0,
          0,
          0,
          0,
          0,
          0,
          0,
          0,
          0,
          0,
          0,
          0,
          0,
          0,
          0,
          0,
          0,
          0,
          0,
          0,
          0,
          0
        ],
        "bias_scale": [
          1,
          1,
          1,
          1,
          1,
          1,
          1,
          1,
          1,
          1,
          1,
          1,
          1,
          1,
          1,
          1,
          1,
          1,
          1,
          1,
          1,
          1,
          1,
          1,
          1,
          1,
          1,
          1,
          1,
          1,
          1,
          1,
          1,
          1,
          1,
          1,
          1,
          1,
          1,
          1,
          1,
          1,
          1,
          1,
          1,
          1,
          1,
          1,
          1,
          1,
          1,
          1,
          1,
          1,
          1,
          1,
          1,
          1,
          1,
          1,
          1,
          1,
          1,
          1
        ],
        "bias_zero_point": [
          0,
          0,
          0,
          0,
          0,
          0,
          0,
          0,
          0,
          0,
          0,
          0,
          0,
          0,
          0,
          0,
          0,
          0,
          0,
          0,
          0,
          0,
          0,
          0,
          0,
          0,
          0,
          0,
          0,
          0,
          0,
          0,
          0,
          0,
          0,
          0,
          0,
          0,
          0,
          0,
          0,
          0,
          0,
          0,
          0,
          0,
          0,
          0,
          0,
          0,
          0,
          0,
          0,
          0,
          0,
          0,
          0,
          0,
          0,
          0,
          0,
          0,
          0,
          0
        ],
        "input_scale": [
          1,
          1,
          1,
          1,
          1,
          1,
          1,
          1,
          1,
          1,
          1,
          1,
          1,
          1,
          1,
          1,
          1,
          1,
          1,
          1,
          1,
          1,
          1,
          1,
          1,
          1,
          1,
          1,
          1,
          1,
          1,
          1,
          1,
          1,
          1,
          1,
          1,
          1,
          1,
          1,
          1,
          1,
          1,
          1,
          1,
          1,
          1,
          1,
          1,
          1,
          1,
          1,
          1,
          1,
          1,
          1,
          1,
          1,
          1,
          1,
          1,
          1,
          1,
          1
        ],
        "input_zero_point": [
          0,
          0,
          0,
          0,
          0,
          0,
          0,
          0,
          0,
          0,
          0,
          0,
          0,
          0,
          0,
          0,
          0,
          0,
          0,
          0,
          0,
          0,
          0,
          0,
          0,
          0,
          0,
          0,
          0,
          0,
          0,
          0,
          0,
          0,
          0,
          0,
          0,
          0,
          0,
          0,
          0,
          0,
          0,
          0,
          0,
          0,
          0,
          0,
          0,
          0,
          0,
          0,
          0,
          0,
          0,
          0,
          0,
          0,
          0,
          0,
          0,
          0,
          0,
          0
        ],
        "output_scale": [
          1,
          1,
          1,
          1,
          1,
          1,
          1,
          1,
          1,
          1,
          1,
          1,
          1,
          1,
          1,
          1,
          1,
          1,
          1,
          1,
          1,
          1,
          1,
          1,
          1,
          1,
          1,
          1,
          1,
          1,
          1,
          1,
          1,
          1,
          1,
          1,
          1,
          1,
          1,
          1,
          1,
          1,
          1,
          1,
          1,
          1,
          1,
          1,
          1,
          1,
          1,
          1,
          1,
          1,
          1,
          1,
          1,
          1,
          1,
          1,
          1,
          1,
          1,
          1
        ],
        "output_zero_point": [
          0,
          0,
          0,
          0,
          0,
          0,
          0,
          0,
          0,
          0,
          0,
          0,
          0,
          0,
          0,
          0,
          0,
          0,
          0,
          0,
          0,
          0,
          0,
          0,
          0,
          0,
          0,
          0,
          0,
          0,
          0,
          0,
          0,
          0,
          0,
          0,
          0,
          0,
          0,
          0,
          0,
          0,
          0,
          0,
          0,
          0,
          0,
          0,
          0,
          0,
          0,
          0,
          0,
          0,
          0,
          0,
          0,
          0,
          0,
          0,
          0,
          0,
          0,
          0
        ],
        "input_dtype": 1,
        "input_acc": [5,10,15]
      },
      "inst_name": "/model/person/head_module/kpt_pred.0/kpt_pred.0.2/Add",
      "type_name": "Bn",
      "bottom": [
        "2Fmodel2Fperson2Fhead_module2Fkpt_pred2E02Fkpt_pred2E02E12Fpointwise_conv2Factivate2FMul_output_0"
      ],
      "top": [
        "2Fmodel2Fperson2Fhead_module2Fkpt_pred2E02Fkpt_pred2E02E22FAdd_output_0"
      ],
      "hw": 1,
      "hw_acc": [5,10,15]
    },
    {
      "inst_name": "/model/person/head_module/kpt_pred.0/kpt_pred.0.3/Conv_im_0",
      "type_name": "Conv2d",
      "bottom": [
        "2Fmodel2Fperson2Fhead_module2Fkpt_pred2E02Fkpt_pred2E02E22FAdd_output_0"
      ],
      "top": [
        "2Fmodel2Fperson2Fhead_module2Fkpt_pred2E02Fkpt_pred2E02E32FConv_output_0"
      ],
      "hw": 1,
      "hw_acc": [5,10,15],
      "param": {
        "num_output": 51,
        "bias_term": 1,
        "group": 1,
        "pad_h": 0,
        "pad_w": 0,
        "kernel_h": 1,
        "kernel_w": 1,
        "stride_h": 1,
        "stride_w": 1,
        "dilation_h": 1,
        "dilation_w": 1,
        "num_input": 64,
        "padding_mode": 0
      },
      "data": {
        "coef": [
          0.00447283,
          0.120136,
          0.350203,
          -0.0483836,
          -0.0555665,
          -0.0229669,
          0.0522189,
          0.00945709,
          0.0761336,
          -0.0134608,
          -0.102868,
          0.156654,
          0.125679,
          -0.0841818,
          -0.0233686,
          -0.046344,
          -0.127843,
          -0.0135928,
          0.00384939,
          0.355311,
          0.136032,
          0.00684516,
          0.173087,
          -0.0456798,
          0.029069,
          -0.00187524,
          0.00732919,
          0.011337,
          -0.0227876,
          0.0344146,
          -0.375305,
          -0.012948,
          -0.0244179,
          -0.045412,
          0.28507,
          0.0220363,
          -0.241892,
          -0.116458,
          0.0277575,
          0.144123,
          0.0539704,
          -0.0172242,
          -0.0135248,
          0.0396716,
          0.0988807,
          0.0568031,
          -0.0263046,
          0.0100906,
          -0.708642,
          -0.0243465,
          -0.171226,
          0.573466,
          0.369771,
          0.162603,
          0.00972267,
          0.0431636,
          -0.0404099,
          0.0288629,
          -0.565602,
          -0.0619727,
          -0.0046405,
          -0.05711,
          -0.00314921,
          -0.360985,
          0.0136462,
          0.0359655,
          -0.0296014,
          0.338209,
          0.0164437,
          -0.038314,
          -0.0144784,
          0.0348286,
          0.289098,
          0.00129895,
          0.0033112,
          0.131685,
          -0.266529,
          0.250882,
          0.137962,
          0.0033365,
          -0.0319077,
          0.000951827,
          -0.00335058,
          0.10063,
          0.0184338,
          -0.00989136,
          -0.333793,
          -0.0358974,
          0.0268786,
          -0.398261,
          0.00540011,
          -0.0286256,
          0.0551272,
          -0.0390663,
          0.110831,
          -0.0223724,
          0.361218,
          0.00145849,
          -0.473147,
          -0.01518,
          -0.286484,
          0.114286,
          0.00593599,
          -0.0554835,
          0.391321,
          0.0285296,
          -0.0657253,
          -0.0170246,
          -0.100235,
          0.00358948,
          0.0244499,
          0.00499819,
          -0.0168892,
          0.00766232,
          -0.472183,
          -0.0843494,
          0.0715884,
          -0.0530197,
          0.132893,
          -0.190339,
          0.0108895,
          -0.010996,
          -0.00472932,
          -0.0290649,
          0.00486179,
          -0.0151624,
          -0.0169438,
          -0.254967,
          0.722214,
          -0.0250091,
          0.0735963,
          0.201048,
          -0.186128,
          0.0427429,
          -0.0357389,
          1.06398,
          -0.267328,
          -0.00555067,
          0.305206,
          0.394156,
          -0.427809,
          0.170938,
          -0.370531,
          0.139696,
          0.23193,
          0.0885488,
          0.0360187,
          -0.0418102,
          0.0854765,
          0.0526715,
          0.0945488,
          0.144873,
          -0.159638,
          0.0460302,
          -0.0369645,
          0.0490812,
          0.0486805,
          0.103071,
          0.0202754,
          -0.559954,
          -0.0196448,
          0.00649481,
          -0.0299404,
          0.335129,
          0.474297,
          0.116069,
          0.0392127,
          0.214551,
          0.00878786,
          -0.0654381,
          -0.068293,
          -0.00643608,
          -0.000589813,
          -0.410332,
          -0.216315,
          -0.0278583,
          0.0297793,
          -0.137565,
          -0.00931043,
          -0.0231382,
          -0.245806,
          0.0669636,
          -0.0876502,
          -0.0084362,
          -0.0393816,
          -0.0328097,
          0.0119295,
          -0.0746587,
          -0.00166971,
          0.10385,
          -1.01039,
          -0.171542,
          -0.000871093,
          0.170772,
          0.39196,
          -0.030568,
          -0.108574,
          -0.0319955,
          0.0233273,
          0.0258281,
          0.0536825,
          0.0171771,
          -0.0655862,
          0.253819,
          0.042132,
          -0.121734,
          -0.0210291,
          0.0334544,
          -0.0385996,
          0.0117968,
          0.00619036,
          0.185221,
          0.148918,
          -0.0201165,
          0.189759,
          -0.0537713,
          -0.00905467,
          0.00985437,
          -0.00253319,
          0.00291168,
          0.0335274,
          0.0436803,
          -0.396694,
          -0.0282424,
          -0.0284955,
          -0.0420285,
          0.308448,
          0.0266405,
          -0.196631,
          -0.045222,
          -0.0171909,
          0.0574656,
          0.0599281,
          0.00137082,
          -0.0345302,
          -0.00800093,
          0.0659139,
          0.0374713,
          0.0328048,
          -0.00566783,
          -0.624458,
          0.00438964,
          -0.185176,
          0.603062,
          0.263488,
          0.0992908,
          0.145042,
          0.0691485,
          -0.0125546,
          0.00714727,
          -0.600708,
          0.00802899,
          0.00567482,
          0.0478013,
          -0.0153072,
          -0.39493,
          0.014598,
          -0.0291103,
          -0.0326521,
          0.342771,
          0.0296599,
          -0.0269048,
          -0.0135793,
          0.0249398,
          0.302117,
          -0.0150334,
          -0.0547918,
          0.078164,
          -0.254839,
          0.193772,
          0.173452,
          0.0380083,
          -0.0455824,
          -0.0441845,
          -0.0131334,
          0.0604078,
          0.0303611,
          -0.0306225,
          -0.348076,
          -0.048878,
          0.0276887,
          -0.403466,
          0.000688361,
          -0.0115661,
          0.0144437,
          -0.0299811,
          0.119038,
          0.019176,
          0.362661,
          -0.00478494,
          -0.473403,
          -0.0211431,
          -0.304036,
          0.130176,
          0.015994,
          -0.0271801,
          0.381057,
          0.00132838,
          -0.0475589,
          -0.0144699,
          -0.0709567,
          0.000242933,
          -0.00764108,
          0.000544721,
          -0.0172016,
          -0.0264594,
          -0.477425,
          -0.073395,
          0.0363767,
          -0.0233359,
          0.00555868,
          -0.224096,
          -0.00258378,
          -0.0094704,
          -0.00933937,
          0.00945478,
          -0.0162357,
          -0.0768419,
          -0.00769333,
          -0.251863,
          0.735759,
          -0.0011835,
          0.0828413,
          0.156202,
          -0.167395,
          0.105139,
          -0.122005,
          0.95393,
          -0.208839,
          -0.000696534,
          0.294195,
          0.376327,
          -0.482485,
          0.0541252,
          -0.2277,
          0.252508,
          0.281962,
          0.161266,
          0.0369174,
          -0.0365763,
          0.0661412,
          0.0136581,
          0.090588,
          0.0880296,
          -0.120944,
          0.0591256,
          -0.0232198,
          0.0246667,
          0.0478036,
          0.110387,
          0.019536,
          -0.702057,
          -0.00861414,
          0.0109272,
          -0.0436288,
          0.25559,
          0.448339,
          -0.0406494,
          0.0547177,
          0.203641,
          0.00255695,
          0.00868983,
          -0.0456548,
          -0.0376956,
          -0.0257835,
          -0.318085,
          -0.223516,
          -0.0359901,
          0.031598,
          -0.200534,
          0.0008471,
          -0.01645,
          -0.379711,
          -0.404206,
          -0.0893588,
          -0.01207,
          -0.0284083,
          -0.0159523,
          0.025424,
          -0.150704,
          0.0245115,
          0.0375678,
          -0.941688,
          -0.0988294,
          0.00341788,
          -0.0848478,
          0.346586,
          -0.0598849,
          -0.0116929,
          -0.00802996,
          0.0221925,
          0.00174402,
          0.0909695,
          -0.0294496,
          -0.0995655,
          0.0193223,
          0.154446,
          -0.142546,
          0.0128692,
          -0.0453654,
          -0.0883684,
          -0.101278,
          -0.0018583,
          0.416027,
          0.19351,
          0.0353518,
          0.171054,
          -0.0678956,
          0.0978615,
          0.000242435,
          -0.00435327,
          0.0197652,
          -0.0517136,
          0.0479482,
          -0.383883,
          0.00589408,
          -0.0216954,
          -0.0277802,
          0.290254,
          0.0203538,
          -0.275669,
          -0.0635145,
          0.0408364,
          0.111559,
          0.0404809,
          -0.0163168,
          0.0212478,
          0.04742,
          0.0716951,
          0.0264271,
          0.0183933,
          0.0149642,
          -0.523143,
          -0.0285116,
          -0.198961,
          0.615648,
          0.34572,
          0.162878,
          -0.139562,
          -0.0106487,
          -0.0246735,
          0.0257836,
          -0.594606,
          -0.0432886,
          -0.022357,
          -0.149533,
          -0.00240422,
          -0.355308,
          0.0156079,
          -0.0250977,
          -0.0384113,
          0.352446,
          0.0182014,
          -0.0219996,
          -0.0115067,
          0.0280894,
          0.289229,
          -0.0103555,
          -0.0401173,
          0.0654566,
          -0.248767,
          0.211515,
          0.157442,
          -0.0257645,
          -0.034481,
          0.0272017,
          -0.0138079,
          0.074118,
          0.0359313,
          -0.0309479,
          -0.344849,
          -0.0512883,
          0.0250148,
          -0.403221,
          0.00374928,
          -0.0115622,
          0.0104221,
          -0.0176137,
          0.120935,
          0.022216,
          0.364396,
          0.00226254,
          -0.47381,
          -0.0384619,
          -0.293518,
          0.111583,
          0.00304555,
          -0.0643254,
          0.385779,
          -0.000203921,
          -0.0604174,
          -0.0177638,
          -0.0786619,
          -0.00282252,
          0.0150943,
          4.91595e-05,
          -0.0258006,
          -0.0195067,
          -0.477537,
          -0.0794234,
          0.0685193,
          -0.0495895,
          -0.0103404,
          -0.218304,
          0.00303156,
          -0.0145133,
          -0.00224918,
          -0.044904,
          -0.0117753,
          -0.0802594,
          -0.00472059,
          -0.256645,
          0.719034,
          0.034669,
          0.0852214,
          0.157776,
          -0.142231,
          -0.0925819,
          0.0578222,
          1.02346,
          -0.20602,
          0.0542994,
          0.128773,
          0.351641,
          -0.362274,
          0.144179,
          -0.239613,
          0.327515,
          0.145615,
          0.187307,
          0.0261789,
          -0.145662,
          0.0310822,
          0.000334079,
          0.0771997,
          0.189419,
          -0.118618,
          0.0271713,
          -0.0268027,
          0.0601074,
          0.0538061,
          0.057462,
          -0.011851,
          -0.881684,
          -0.011599,
          -0.00646811,
          -0.0344541,
          0.310639,
          0.378648,
          0.159851,
          0.0591419,
          0.195051,
          -4.22832e-05,
          -0.0244082,
          -0.035755,
          -0.0591871,
          0.0959465,
          -0.311142,
          -0.168485,
          -0.0583422,
          -0.0222712,
          -0.175805,
          -0.00139,
          -0.0130621,
          -0.167159,
          0.414531,
          -0.0802256,
          0.00376285,
          -0.0593544,
          -0.0342608,
          0.00390809,
          -0.124283,
          0.0152796,
          0.0266219,
          -0.982832,
          -0.202997,
          -0.0134347,
          -0.0790007,
          0.350525,
          0.0294549,
          -0.0224971,
          0.0487053,
          -0.0776516,
          0.0030084,
          -0.0239798,
          -0.113368,
          0.112932,
          0.279837,
          -0.223787,
          -0.109017,
          -0.0477679,
          0.107452,
          -0.626376,
          0.144949,
          0.00118838,
          -0.0575258,
          0.232632,
          -0.0038011,
          0.20471,
          -0.11157,
          -0.145303,
          0.0361466,
          0.0346651,
          0.00499859,
          0.101179,
          -0.00250785,
          -0.347893,
          -0.0236993,
          -0.0285127,
          -0.0203517,
          0.277308,
          0.234348,
          -0.0752061,
          0.175751,
          -0.0720378,
          -0.12224,
          -0.0435425,
          0.0565718,
          -0.0659803,
          -0.00858493,
          -0.0661004,
          -0.114377,
          0.240558,
          0.00265314,
          -0.00017206,
          0.0286715,
          -0.186028,
          0.569311,
          -0.195061,
          -0.0261605,
          0.333322,
          -0.00386661,
          0.0279576,
          0.0105195,
          -0.537457,
          0.151095,
          0.0131451,
          0.220992,
          -0.00683314,
          -0.297702,
          -0.00535011,
          -0.0650842,
          -0.0183232,
          0.360225,
          0.0251695,
          -0.010037,
          0.019403,
          0.016746,
          0.295132,
          0.0187445,
          0.0201012,
          0.0863869,
          -0.247711,
          0.0217093,
          0.0755857,
          0.141134,
          -0.104304,
          -0.113721,
          -0.0170664,
          -0.0774385,
          0.0191833,
          0.0450007,
          -0.343736,
          -0.0246477,
          0.00456688,
          -0.41129,
          0.00394196,
          -0.0228452,
          -0.0758374,
          0.0250132,
          0.118379,
          0.0189443,
          0.356153,
          -0.0366135,
          -0.462466,
          0.028704,
          -0.294783,
          -0.0130869,
          0.0555259,
          0.0345743,
          0.345201,
          0.0150456,
          -0.0354568,
          0.00668295,
          0.0882366,
          0.0349621,
          -0.0655908,
          -0.0539846,
          -0.0247351,
          -0.0124954,
          -0.463371,
          -0.0647076,
          -0.0301142,
          0.0194538,
          -0.0528987,
          -0.194436,
          -0.0357094,
          0.0122987,
          0.00540805,
          0.0847688,
          -0.016994,
          0.0616941,
          -0.00693302,
          -0.233231,
          0.997273,
          -0.216192,
          0.0273612,
          0.0273778,
          -0.0513581,
          0.10922,
          -0.227151,
          0.877797,
          -0.115116,
          -0.0235119,
          0.240697,
          0.00352095,
          -0.0846331,
          -0.07544,
          -0.180278,
          0.115821,
          0.365523,
          0.150688,
          0.0339855,
          -0.00745412,
          0.157799,
          0.0379119,
          0.0398336,
          -0.0298565,
          -0.013469,
          0.0300399,
          0.00695014,
          0.0281282,
          0.157255,
          0.0146621,
          0.100468,
          -0.710653,
          0.0242877,
          0.0845346,
          -0.0828527,
          0.0115315,
          0.33302,
          -0.118726,
          -0.0159513,
          -0.12333,
          -0.0937895,
          -0.0653478,
          -0.0785433,
          -0.168823,
          -0.0769722,
          0.142749,
          -0.185138,
          -0.0361616,
          0.00457797,
          -0.0562693,
          -0.0171664,
          -0.0538384,
          -0.332269,
          -0.991685,
          -0.0824648,
          -0.122762,
          0.0617885,
          0.042596,
          0.0134073,
          -0.110758,
          0.0110001,
          0.103028,
          -0.913423,
          -0.0490532,
          0.00939603,
          -0.443031,
          0.256846,
          -0.0616805,
          0.159314,
          -0.0102836,
          -0.0634872,
          -0.0178155,
          0.0762733,
          0.178058,
          -0.0911456,
          -0.197295,
          0.0943358,
          -0.205586,
          0.0585583,
          -0.075612,
          -0.0692377,
          -0.127121,
          -0.0134386,
          0.0517214,
          0.349633,
          0.0455004,
          0.149944,
          -0.162238,
          -0.046263,
          0.0316872,
          -0.00573541,
          0.0221962,
          -0.0417396,
          -0.0186726,
          -0.314824,
          0.0223764,
          -0.0353067,
          0.0376508,
          0.276137,
          -0.203862,
          -0.240231,
          0.127962,
          0.0518483,
          0.708752,
          0.0552445,
          -0.00978173,
          0.0319955,
          -0.035264,
          0.000861849,
          0.0699862,
          0.137686,
          0.00943989,
          0.100108,
          -0.0200577,
          -0.241227,
          0.561301,
          0.0690989,
          -0.0346624,
          -0.335401,
          -0.0538523,
          -0.0397246,
          -0.00353183,
          -0.540485,
          -0.106969,
          -0.00652997,
          -0.254436,
          -0.0151801,
          -0.32149,
          0.000234829,
          -0.0329952,
          -0.0282353,
          0.383245,
          0.00587644,
          0.0214406,
          -0.00737658,
          0.0220769,
          0.263737,
          0.0251862,
          0.0586598,
          0.0305116,
          -0.233045,
          -0.0352577,
          0.0604985,
          -0.0981745,
          0.0331221,
          0.13761,
          -0.0215653,
          -0.0431934,
          0.0408143,
          0.0403893,
          -0.331499,
          -0.0355932,
          0.0193178,
          -0.413558,
          -0.00757689,
          -0.0249409,
          -0.0733216,
          0.0205515,
          0.112278,
          0.0431707,
          0.360935,
          0.0103318,
          -0.460743,
          -0.0626969,
          -0.287274,
          0.0481319,
          -0.00399245,
          -0.143601,
          0.343083,
          0.0137763,
          -0.0416256,
          -0.010242,
          0.0519377,
          -0.00504057,
          0.0387497,
          -0.0613064,
          -0.0157529,
          0.00516434,
          -0.474318,
          -0.0618418,
          0.0842784,
          -0.0910149,
          -0.087356,
          -0.180517,
          0.0181179,
          -0.0292024,
          0.016271,
          -0.093213,
          -0.007551,
          0.0314671,
          -0.00838191,
          -0.243745,
          0.927252,
          0.177929,
          0.00279654,
          -0.0443079,
          0.0163844,
          -0.287292,
          0.0407863,
          0.929989,
          -0.0395238,
          0.0509853,
          -0.304768,
          0.197959,
          0.117353,
          0.0679868,
          -0.177914,
          0.167781,
          -0.197286,
          0.164357,
          0.00758742,
          -0.220798,
          0.0680279,
          -0.00202497,
          0.00766583,
          0.165244,
          -0.054572,
          -0.0250348,
          0.00196264,
          0.0990044,
          0.210514,
          -0.0675952,
          0.0210083,
          -1.00411,
          -0.00567359,
          0.0611034,
          -0.0422743,
          0.0855522,
          0.133295,
          0.127371,
          0.0464944,
          0.139292,
          -0.0878801,
          -0.169936,
          -0.0516624,
          -0.0333763,
          0.27853,
          0.220898,
          -0.0827807,
          -0.0442406,
          -0.0364371,
          -0.107647,
          -0.040424,
          -0.0345224,
          0.110154,
          0.830317,
          -0.0110633,
          -0.0831459,
          -0.0834941,
          -0.0180985,
          -0.0679646,
          -0.0653835,
          0.0120341,
          0.0235834,
          -0.890193,
          -0.252702,
          0.00226937,
          -0.111306,
          0.222573,
          0.0196807,
          0.131944,
          0.0958364,
          -0.0263717,
          -0.0971175,
          -0.0315559,
          -0.423917,
          0.0769686,
          0.264391,
          -0.263108,
          0.0712092,
          -0.0459175,
          0.187961,
          -0.398634,
          0.400472,
          0.0117592,
          -0.270145,
          0.270809,
          0.0399387,
          0.173194,
          -0.294258,
          -0.446802,
          0.0450045,
          0.101617,
          0.00478431,
          0.0458134,
          -0.165312,
          -0.182862,
          0.030005,
          -0.0147505,
          -0.0684274,
          0.183221,
          0.246611,
          0.0189684,
          0.0773127,
          -0.00622684,
          -0.0104069,
          -0.000844146,
          0.157775,
          -0.0264137,
          -0.0606676,
          -0.0839317,
          -0.328559,
          0.17867,
          0.0055332,
          -0.0398831,
          0.102252,
          -0.120885,
          0.390195,
          -0.315442,
          -0.246716,
          0.0326462,
          -0.0173123,
          0.116608,
          0.176149,
          -0.386041,
          0.263641,
          -0.00263127,
          0.322132,
          0.0106456,
          -0.176893,
          -0.0223312,
          -0.0194767,
          0.0187803,
          0.329323,
          0.0222685,
          -0.00911502,
          0.0206673,
          -0.0134802,
          0.194908,
          0.111904,
          0.339638,
          0.145234,
          -0.257727,
          -0.09292,
          -0.30425,
          0.21987,
          -0.0814747,
          -0.0990794,
          0.0272471,
          -0.109595,
          -0.0148239,
          0.156368,
          -0.267146,
          0.021025,
          -0.00150837,
          -0.343033,
          -0.00920459,
          -0.108813,
          -0.175297,
          -0.0023622,
          0.0712942,
          -0.0246843,
          0.295342,
          -0.0195223,
          -0.359207,
          0.0222086,
          -0.230447,
          -0.0847237,
          0.0948366,
          0.0607255,
          0.124763,
          0.160526,
          -0.0872308,
          0.0114779,
          0.421604,
          0.102642,
          -0.010872,
          -0.0708669,
          0.00592774,
          0.158664,
          -0.386028,
          -0.0378987,
          -0.0650112,
          0.0179321,
          0.0446869,
          -0.00353386,
          -0.0337344,
          0.0352967,
          0.0390907,
          0.154148,
          0.0366565,
          0.314875,
          -0.0355783,
          -0.14947,
          1.10084,
          -0.138004,
          0.0442034,
          0.116775,
          0.00606257,
          0.0130876,
          -0.229246,
          1.18159,
          -0.193384,
          -0.0592783,
          0.134005,
          0.163702,
          0.0847457,
          -0.0896533,
          -0.437507,
          0.0279731,
          -0.0569331,
          0.0674325,
          0.0622557,
          -0.00373895,
          0.12923,
          0.0557372,
          0.082032,
          0.0422161,
          0.149719,
          -0.0245862,
          -0.0432767,
          0.125705,
          0.169046,
          -0.0869987,
          0.10225,
          0.596909,
          0.00242625,
          0.135919,
          -0.0256966,
          0.177001,
          0.355768,
          -0.0310624,
          -0.0722492,
          0.0615971,
          -0.163156,
          -0.756661,
          -0.100244,
          0.0305506,
          -0.0581609,
          0.0446115,
          -0.707939,
          -0.0320359,
          0.00785357,
          0.106693,
          -0.016339,
          -0.0153711,
          -0.0293127,
          -0.203084,
          -0.144529,
          -0.079039,
          -0.00674669,
          0.062994,
          0.00677418,
          -0.100176,
          -0.00643953,
          0.0744351,
          -1.19554,
          -0.08542,
          -0.0266763,
          -0.632764,
          0.0947417,
          -0.00842414,
          0.385725,
          0.0850518,
          -0.0168731,
          0.00994263,
          -0.0050985,
          0.456191,
          0.158807,
          -0.327076,
          0.0769711,
          -0.0104397,
          0.0103259,
          -0.201591,
          0.0421534,
          -0.209118,
          -0.0254015,
          -0.0244071,
          0.449143,
          0.00673831,
          0.113082,
          -0.36285,
          -0.229968,
          0.0384479,
          -0.10504,
          0.0222225,
          -0.136082,
          -0.207137,
          -0.137662,
          0.0127012,
          -0.0411394,
          0.0162712,
          0.217372,
          -0.108197,
          -0.184815,
          0.0610498,
          0.176923,
          0.373179,
          0.0825882,
          -0.073082,
          -0.00360549,
          0.00017312,
          -0.122268,
          0.301585,
          0.173281,
          0.0198298,
          0.0769567,
          -0.0657718,
          -0.174052,
          0.372558,
          -0.0669426,
          -0.208748,
          0.0446281,
          -0.0416357,
          -0.0453891,
          0.15502,
          -0.343822,
          -0.345874,
          0.0117772,
          -0.37061,
          -0.0164489,
          -0.142396,
          -0.0201153,
          0.105697,
          -0.00329803,
          0.348627,
          -0.00854396,
          0.00484637,
          0.00626352,
          0.00347128,
          0.163451,
          0.112706,
          0.331943,
          0.0834161,
          -0.241868,
          -0.158047,
          -0.321113,
          -0.0969489,
          0.0697483,
          0.234949,
          0.0251824,
          -0.0115358,
          0.0181699,
          0.152246,
          -0.251729,
          -0.000128443,
          0.026416,
          -0.345082,
          -0.00400029,
          -0.106956,
          -0.161036,
          0.0420507,
          0.0706571,
          0.000137281,
          0.297659,
          0.0300414,
          -0.367543,
          -0.0945492,
          -0.216369,
          -0.0427896,
          0.0096553,
          -0.178125,
          0.141411,
          0.163429,
          -0.0917103,
          0.00615697,
          0.418189,
          0.0579245,
          0.0885,
          -0.0792728,
          0.026966,
          0.16932,
          -0.389076,
          -0.0461352,
          0.0770918,
          -0.0792142,
          -0.0149384,
          0.0185979,
          0.000527551,
          -0.0167859,
          0.0452048,
          -0.0911528,
          0.0397208,
          0.288948,
          -0.0384552,
          -0.169536,
          1.0488,
          -0.228129,
          0.0614389,
          0.15903,
          0.0299416,
          -0.166872,
          -0.102613,
          1.24655,
          -0.228085,
          -0.0254986,
          0.00524619,
          0.0744647,
          0.16868,
          -0.0101833,
          -0.451387,
          0.0769707,
          0.0894658,
          0.0901115,
          0.0338646,
          -0.0135115,
          0.113382,
          0.0449639,
          0.0530029,
          0.0684314,
          -0.140356,
          -0.0745405,
          0.0193616,
          0.148971,
          0.0704904,
          -0.0750896,
          0.0970358,
          0.528944,
          0.0163041,
          0.105993,
          -0.0426258,
          0.177604,
          0.416132,
          -0.0514725,
          0.00578114,
          0.0298839,
          -0.186778,
          -0.791443,
          -0.095039,
          -0.0366802,
          -0.0202543,
          0.0589253,
          0.163236,
          -0.0380909,
          0.0858403,
          0.140942,
          -0.00709187,
          -0.00577461,
          0.0411171,
          0.365491,
          -0.130253,
          -0.157578,
          -0.06601,
          0.0511796,
          -0.0316363,
          0.0920294,
          -0.0865061,
          0.0344669,
          -1.17715,
          -0.206255,
          0.0299273,
          0.213339,
          0.0810116,
          0.00240296,
          0.433502,
          -0.031199,
          0.196401,
          -0.0251442,
          0.00595695,
          -0.348454,
          0.119409,
          0.152766,
          -0.105355,
          0.135035,
          -0.0922205,
          -0.150261,
          -0.276637,
          0.402485,
          0.0115704,
          -0.162216,
          0.186477,
          0.0265121,
          0.108436,
          -0.289693,
          -0.536741,
          0.026595,
          0.753987,
          0.00514562,
          0.0750053,
          -0.274674,
          -0.0855014,
          0.0173249,
          -0.00149337,
          -0.174489,
          0.0801667,
          0.659139,
          -0.0969162,
          -0.112636,
          0.0342589,
          -0.15984,
          0.0404131,
          0.142458,
          -0.0314984,
          0.0240584,
          -0.0752804,
          -0.514359,
          -0.131336,
          -0.0197956,
          -0.0394853,
          0.0106795,
          -0.0467944,
          0.198394,
          -0.0879714,
          -0.262642,
          -0.27306,
          0.0554193,
          0.0967387,
          0.338001,
          -0.216843,
          0.173874,
          -0.0668417,
          0.160451,
          -0.0173146,
          0.0337947,
          -0.0279766,
          -0.101178,
          -0.0102053,
          0.15236,
          0.0620763,
          -0.0370866,
          -0.0691851,
          0.0757783,
          0.213501,
          0.0308109,
          0.461454,
          0.186057,
          -0.179278,
          0.0976219,
          -0.333802,
          0.164138,
          0.028919,
          -0.213743,
          0.134517,
          0.00713379,
          -0.00570003,
          -0.531763,
          -0.202972,
          0.00744275,
          -0.0402778,
          -0.213059,
          -0.0670594,
          -0.207203,
          0.160478,
          -0.154804,
          0.0703702,
          -0.00921137,
          0.186314,
          0.0406571,
          -0.228215,
          0.0921497,
          -0.226211,
          -0.0501912,
          0.0149137,
          0.132395,
          -0.0428817,
          0.118917,
          0.36093,
          -0.0193873,
          0.464529,
          0.0504058,
          0.0419167,
          0.108738,
          0.0178397,
          0.413294,
          -0.19341,
          -0.00703609,
          -0.0521751,
          0.0256673,
          0.0748137,
          0.210598,
          -0.00770898,
          0.0486698,
          0.0416591,
          0.294952,
          -0.157263,
          0.0656731,
          -0.0116222,
          -0.0624031,
          0.985601,
          0.0264481,
          -0.0467367,
          -0.0707619,
          0.00105176,
          0.110544,
          -0.209039,
          0.752139,
          -0.0111168,
          -0.0683915,
          0.069759,
          0.0988409,
          -0.145782,
          -0.239486,
          0.0335351,
          -0.0823463,
          -0.156103,
          0.0781729,
          0.0164881,
          0.097277,
          0.154104,
          -0.0106918,
          0.0585266,
          0.018733,
          0.300896,
          0.0461761,
          -0.00692403,
          0.137988,
          0.307487,
          -0.108573,
          0.115462,
          0.528961,
          0.0441643,
          0.138599,
          -0.0617261,
          -0.0842548,
          0.162303,
          -0.154764,
          0.0803062,
          -0.00272438,
          -0.141404,
          -1.11581,
          0.0468116,
          0.127036,
          -0.144541,
          0.0121906,
          -0.595407,
          0.00683394,
          -0.0102751,
          -0.0864223,
          0.0325385,
          -0.0255424,
          -0.255768,
          -0.675906,
          -0.135056,
          -0.0877347,
          0.0257541,
          0.135033,
          -0.000442217,
          -0.208761,
          0.0496162,
          0.0351865,
          -0.870172,
          0.0266505,
          0.0152308,
          -0.32001,
          0.026194,
          -0.0130408,
          0.533037,
          0.132633,
          0.306789,
          -0.0683411,
          0.0043857,
          0.287877,
          0.123248,
          -0.217977,
          -0.0138546,
          0.117621,
          0.00778045,
          -0.0882192,
          0.226971,
          -0.0961429,
          -0.015927,
          -0.175746,
          0.301838,
          -0.0393074,
          0.0974842,
          -0.354813,
          -0.433624,
          0.0212119,
          -0.0948584,
          0.0176566,
          -0.0942545,
          -0.190229,
          -0.0683834,
          0.0396663,
          -0.0203892,
          -0.104015,
          0.116635,
          -0.523427,
          -0.159291,
          0.0491767,
          0.0874509,
          0.070327,
          0.0378474,
          -0.0515447,
          0.00381017,
          0.121407,
          -0.113668,
          0.401859,
          -0.0819458,
          0.0487754,
          0.000472206,
          -0.107867,
          -0.0512752,
          0.186625,
          -0.107282,
          -0.255292,
          0.387314,
          0.0153218,
          -0.695217,
          0.275453,
          -0.149759,
          -0.429956,
          -0.014972,
          -0.228325,
          0.00764085,
          0.0115424,
          -0.0221786,
          0.158196,
          -0.0396763,
          0.155298,
          0.0313529,
          -0.050276,
          -0.0602764,
          0.0929786,
          0.200663,
          0.0466639,
          0.36378,
          0.0958816,
          -0.158134,
          -0.0168646,
          -0.345814,
          -0.340454,
          0.0107487,
          0.279609,
          0.132255,
          0.16822,
          0.0386948,
          -0.519147,
          -0.174637,
          0.00138406,
          0.0553318,
          -0.213755,
          -0.0155615,
          -0.194404,
          0.23742,
          -0.0398908,
          0.0559591,
          0.00496191,
          0.186551,
          0.110576,
          -0.227577,
          -0.111143,
          -0.236302,
          -0.0180619,
          -0.141024,
          -0.0576926,
          -0.0222154,
          0.13136,
          0.343744,
          0.0312449,
          0.531159,
          0.00251876,
          0.0838099,
          0.097752,
          0.0335385,
          0.387346,
          -0.195854,
          -0.015648,
          0.126042,
          -0.0117243,
          -0.0543817,
          0.253916,
          -0.0159337,
          -0.0624692,
          0.0399308,
          -0.0721688,
          -0.148811,
          0.0460056,
          -0.0159294,
          -0.0875945,
          0.883148,
          -0.510713,
          -0.0252114,
          -0.00281226,
          0.136133,
          -0.227415,
          0.0713496,
          0.787859,
          -0.0624392,
          0.0426172,
          -0.0714864,
          -0.0581248,
          0.110006,
          -0.041637,
          0.0792865,
          0.224377,
          0.077886,
          0.0638407,
          -0.0341029,
          -0.133808,
          0.0899596,
          -0.0586551,
          -0.00545088,
          0.160291,
          -0.139811,
          -0.0374659,
          0.0430775,
          0.204391,
          0.205258,
          -0.126949,
          0.0900173,
          0.252427,
          0.0455399,
          0.0978444,
          -0.0199446,
          0.155882,
          0.130035,
          -0.10206,
          0.249319,
          -0.141136,
          -0.159805,
          -1.17024,
          0.0506286,
          -0.0907371,
          -0.126387,
          0.0828709,
          0.523781,
          -0.0167874,
          0.0372615,
          0.0793848,
          -0.00345326,
          -0.0106741,
          -0.0123255,
          0.92273,
          -0.00623161,
          -0.209879,
          -0.0202289,
          0.15549,
          -0.0617117,
          0.0517023,
          -0.0171974,
          -0.0481815,
          -0.871201,
          -0.145879,
          0.0394637,
          0.368063,
          0.0122033,
          -0.0396388,
          0.144063,
          -0.128044,
          0.33355,
          -0.0441443,
          0.0754131,
          -0.0213414,
          0.00569396,
          0.0551373,
          -0.0350142,
          -0.0242696,
          -0.0845358,
          0.201719,
          -0.285148,
          0.244526,
          -0.00171536,
          -0.0852488,
          0.124867,
          0.0520704,
          0.0861811,
          -0.235538,
          -0.079505,
          -0.0101679,
          0.964176,
          0.0291706,
          -0.0319693,
          -0.236558,
          -0.0723408,
          -0.0134683,
          -0.0081087,
          -0.254255,
          0.085678,
          0.523532,
          -0.231783,
          -0.00751628,
          0.117995,
          0.0314058,
          -0.0670699,
          0.0291649,
          -0.037394,
          0.155369,
          -0.0095641,
          -0.449092,
          -0.162806,
          0.00938246,
          -0.0236094,
          -0.196501,
          -0.0231253,
          0.0954774,
          -0.0153601,
          0.146708,
          0.0598454,
          0.0855534,
          -0.0962375,
          0.368865,
          -0.137714,
          -0.331463,
          -0.120003,
          0.0829494,
          0.0291593,
          0.142602,
          -0.0317183,
          -0.0168533,
          -0.040459,
          -0.0292703,
          -0.0226471,
          -0.046412,
          -0.245076,
          0.0665693,
          0.325755,
          -0.0934428,
          0.437782,
          0.124719,
          -0.115097,
          0.232089,
          -0.108129,
          0.398332,
          0.0284862,
          -0.132427,
          0.188431,
          0.0516172,
          -0.00294923,
          -0.0410442,
          -0.171892,
          0.00207568,
          -0.0411056,
          -0.111219,
          -0.0334973,
          -0.252451,
          0.163385,
          -0.123338,
          0.0521632,
          0.0216396,
          0.103914,
          0.0748546,
          -0.0869615,
          -0.0155885,
          -0.313657,
          0.0442701,
          0.0548623,
          0.051934,
          -0.0451267,
          -0.0425374,
          0.124337,
          0.00512039,
          0.223716,
          0.0287268,
          0.118838,
          0.213992,
          -0.0375909,
          0.0997555,
          -0.00707207,
          0.00965982,
          -0.0379187,
          -0.0419083,
          0.0316654,
          0.503308,
          -0.00764948,
          0.0115722,
          0.0553732,
          -0.0596432,
          -0.70966,
          0.0185785,
          -0.0740978,
          0.0277205,
          0.88266,
          0.0718498,
          -0.0572166,
          -0.0284526,
          -0.0715322,
          0.179738,
          -0.0800521,
          0.512353,
          -0.0151021,
          -0.0277986,
          0.189791,
          0.204751,
          -0.258727,
          -0.163495,
          0.0640477,
          -0.187114,
          -0.0192916,
          0.00948256,
          -0.0321799,
          0.100118,
          0.177429,
          0.0414984,
          0.0380565,
          0.0826617,
          0.141458,
          0.0717683,
          -0.0364239,
          0.179365,
          0.267388,
          0.0547376,
          0.122219,
          0.68592,
          0.02589,
          0.104976,
          -0.0685487,
          -0.00817482,
          0.156147,
          -0.115484,
          0.0253417,
          0.0261367,
          -0.0419547,
          -1.17782,
          0.0483554,
          0.1466,
          -0.181348,
          -0.167388,
          -0.318057,
          -0.126937,
          0.0239382,
          -0.184469,
          0.0394939,
          -0.0121433,
          -0.351607,
          -0.500458,
          -0.0435307,
          0.0510196,
          0.0252181,
          0.139753,
          -0.00431249,
          0.0044724,
          0.0373915,
          0.0535365,
          -0.822257,
          -0.00852563,
          0.0431949,
          0.0840008,
          0.0323315,
          -0.0470827,
          0.197037,
          -0.0164296,
          0.521951,
          0.00117917,
          0.0614725,
          0.055472,
          -0.0635384,
          -0.0617691,
          0.00480879,
          0.066734,
          0.0092362,
          -0.580447,
          0.0224354,
          -0.0659615,
          5.46442e-05,
          -0.147302,
          0.167331,
          -0.120919,
          0.0853315,
          -0.279183,
          -0.191105,
          -0.0068436,
          0.0402564,
          0.0159047,
          0.131752,
          -0.176429,
          -0.0748865,
          -0.0204103,
          -0.00719891,
          -0.211886,
          0.0941496,
          -0.410793,
          -0.17459,
          0.101293,
          -0.0485186,
          0.140814,
          0.136372,
          -0.0517873,
          0.00536211,
          0.212619,
          0.0693022,
          0.378944,
          -0.166769,
          0.0274679,
          -0.0226605,
          -0.0659708,
          -0.0439368,
          0.0870237,
          -0.0180744,
          0.0415231,
          0.291148,
          -0.00388095,
          -0.971747,
          0.360592,
          -0.122461,
          0.196694,
          -0.0836144,
          -0.130634,
          0.0118092,
          0.0242891,
          -0.038808,
          0.143144,
          -0.0575739,
          -0.0163061,
          0.0726346,
          -0.00457795,
          -0.306297,
          0.0749921,
          0.303676,
          -0.0305119,
          0.383338,
          0.0761065,
          -0.109455,
          0.119926,
          -0.0908606,
          0.0424254,
          -0.0670003,
          0.195801,
          0.184138,
          0.138421,
          0.0489868,
          -0.0493532,
          -0.150267,
          0.0140472,
          0.0138056,
          -0.11177,
          0.0185783,
          -0.243021,
          0.252036,
          -0.0378663,
          0.0292552,
          0.00757837,
          0.0980458,
          0.145343,
          -0.0727881,
          -0.141242,
          -0.326001,
          0.123566,
          -0.0720605,
          -0.0657756,
          -0.0440587,
          -0.010672,
          0.11663,
          -0.0644212,
          0.277154,
          0.0173732,
          0.0847332,
          0.197767,
          -0.00418202,
          0.115487,
          -0.0280983,
          0.025787,
          0.0563829,
          0.0416287,
          -0.0493922,
          0.538842,
          -0.0271412,
          -0.100529,
          0.0257528,
          -0.307862,
          -0.678666,
          0.0295957,
          -0.0622374,
          -0.0048009,
          0.80597,
          -0.409824,
          -0.0423607,
          0.00749768,
          0.0602984,
          -0.0881679,
          0.108085,
          0.523813,
          -0.0558154,
          0.092697,
          0.128325,
          0.0976817,
          -0.036617,
          -0.0265103,
          0.123636,
          0.0295617,
          0.0534369,
          0.030161,
          -0.0725803,
          -0.153442,
          0.116622,
          -0.00776856,
          -0.0104701,
          0.222377,
          -0.179102,
          0.0138042,
          -0.0185237,
          0.23331,
          0.215495,
          0.0268055,
          0.0883451,
          0.432147,
          0.0191476,
          0.0841405,
          -0.00378416,
          0.217015,
          0.0764162,
          0.0169305,
          0.142924,
          -0.0449583,
          -0.0305377,
          -1.23095,
          0.0491367,
          -0.03999,
          -0.220688,
          -0.0965826,
          0.415798,
          -0.139823,
          0.00963165,
          -0.011499,
          -0.0163924,
          -0.00390319,
          -0.0903497,
          0.894604,
          0.0665942,
          -0.031989,
          0.0209066,
          0.147199,
          -0.0387397,
          0.131274,
          0.025187,
          -0.0140001,
          -0.827823,
          -0.125936,
          -0.00330404,
          -0.116515,
          0.110016,
          0.0214889,
          0.0724917,
          0.141336,
          0.0493652,
          -0.0984736,
          -0.0300327,
          -0.270389,
          -0.0623448,
          0.166123,
          -0.224929,
          0.586924,
          -0.0875437,
          0.0459473,
          -0.22758,
          0.521224,
          0.0247964,
          -0.0586257,
          0.269619,
          0.00506949,
          0.130468,
          -0.425623,
          -0.282676,
          0.0292969,
          -0.0412198,
          0.0108161,
          -0.0387243,
          0.109679,
          -0.0614882,
          0.0282593,
          -0.0110566,
          -0.260716,
          0.118132,
          -0.0167446,
          0.0963293,
          -0.707381,
          0.12414,
          0.0287487,
          0.0827658,
          0.122274,
          -0.0147668,
          -0.0554142,
          0.0145283,
          -0.190058,
          0.344817,
          0.0117389,
          -0.0944368,
          0.0222941,
          -0.0715179,
          0.226719,
          -0.198951,
          -0.0177604,
          -0.117488,
          -0.0156818,
          -0.00566795,
          0.373537,
          -0.212268,
          0.133907,
          -0.0276637,
          0.148975,
          0.0264323,
          -0.166166,
          -0.0165014,
          -0.0387557,
          0.00578559,
          0.0767075,
          0.022677,
          0.0606758,
          0.0276308,
          0.118651,
          0.198326,
          0.0920202,
          0.496374,
          0.115949,
          -0.156738,
          -0.141851,
          -0.463221,
          0.0990326,
          0.0276131,
          -0.0185233,
          0.26181,
          0.00419126,
          -0.00454948,
          -0.614245,
          -0.154277,
          0.0307135,
          -0.0193193,
          -0.162502,
          0.00163684,
          -0.297223,
          -0.0409661,
          -0.118275,
          0.0476275,
          0.0210362,
          0.170237,
          0.114555,
          -0.176032,
          -0.0606582,
          -0.206427,
          -0.171995,
          -0.0888744,
          0.049871,
          -0.270319,
          0.0299357,
          0.221448,
          0.0819304,
          0.485578,
          0.0651461,
          0.129793,
          0.348964,
          0.0405014,
          0.458495,
          -0.136576,
          -0.0251188,
          -0.0848889,
          0.0203165,
          -0.130321,
          0.240885,
          0.000565439,
          0.0302706,
          0.0290559,
          0.1807,
          0.1295,
          0.313609,
          -0.00529698,
          -0.0163751,
          1.21578,
          0.0092118,
          0.0094559,
          0.0344163,
          -0.00967109,
          -0.062822,
          -0.161442,
          0.169727,
          -0.100089,
          -0.112087,
          0.067785,
          0.0791539,
          0.0650979,
          -0.11836,
          0.171062,
          -0.105251,
          0.037994,
          0.013986,
          0.0173255,
          -0.195301,
          0.143113,
          0.116281,
          0.0650175,
          -0.00178446,
          0.0520396,
          0.0114955,
          -0.0367373,
          0.186117,
          0.0557026,
          0.0904662,
          0.121094,
          1.12412,
          -0.0117005,
          0.153811,
          -0.0243719,
          0.0976464,
          0.291141,
          0.0300519,
          0.0337219,
          -0.0149315,
          -0.150291,
          -1.30711,
          -0.114675,
          -0.0522536,
          -0.0615733,
          0.099681,
          -0.406214,
          0.0353519,
          -0.0472684,
          -0.126067,
          -0.0199093,
          0.0114447,
          -0.154151,
          -0.0328463,
          -0.053514,
          -0.119445,
          0.0181362,
          0.0846775,
          -0.0320002,
          0.00061739,
          -0.133955,
          0.114713,
          -1.03243,
          -0.100776,
          -0.0450195,
          -0.383394,
          0.0124237,
          -0.0151059,
          0.162215,
          0.189944,
          -0.0114547,
          0.0333754,
          0.0156358,
          0.267328,
          -0.0354046,
          -0.257063,
          0.104013,
          0.564706,
          -0.141308,
          -0.260328,
          0.012806,
          0.0189683,
          0.0142754,
          0.065024,
          0.401241,
          0.00250703,
          0.0809271,
          -0.51391,
          -0.154522,
          0.0212881,
          -0.0496591,
          0.00142828,
          -0.226658,
          0.0210056,
          -0.0177491,
          -0.00740009,
          -0.0339504,
          -0.211544,
          0.176496,
          0.133501,
          -0.103312,
          -0.666085,
          0.109472,
          0.178744,
          0.0321495,
          -0.0241912,
          -0.0192935,
          -0.0156612,
          0.049467,
          0.216462,
          0.267137,
          0.0326065,
          -0.035111,
          -0.0777316,
          -0.134658,
          0.197476,
          -0.0408393,
          -0.020888,
          0.249905,
          -0.048816,
          0.0641053,
          0.39334,
          -0.203521,
          -0.435237,
          -0.0192569,
          -0.491351,
          0.0173241,
          -0.10296,
          -0.0126454,
          0.0632238,
          -0.00243936,
          0.0764166,
          0.00687988,
          0.0318555,
          0.0345526,
          0.124428,
          0.198562,
          0.0944298,
          0.446135,
          0.10352,
          -0.150388,
          -0.157852,
          -0.475352,
          -0.059555,
          0.0387496,
          0.133781,
          0.261342,
          0.0879028,
          0.00272777,
          -0.612204,
          -0.144878,
          0.0361502,
          0.0291402,
          -0.16412,
          0.00475957,
          -0.292332,
          -0.0180231,
          -0.0653896,
          0.0425542,
          0.031105,
          0.171538,
          0.128741,
          -0.172089,
          -0.125339,
          -0.205532,
          -0.186127,
          -0.145879,
          -0.0372721,
          -0.257235,
          0.0137836,
          0.2278,
          0.124554,
          0.527809,
          0.0493235,
          0.15868,
          0.345242,
          0.0481048,
          0.447302,
          -0.145466,
          -0.0284294,
          -0.0158323,
          0.0118109,
          -0.172933,
          0.257006,
          0.00240055,
          -0.00565275,
          0.0326142,
          0.0688787,
          0.125787,
          0.303952,
          -0.00249551,
          -0.0348785,
          1.20431,
          -0.0496726,
          0.0208647,
          0.0577193,
          -0.0265316,
          -0.122535,
          -0.0789473,
          0.214091,
          -0.125229,
          -0.0675823,
          0.0617138,
          -0.00417782,
          0.116514,
          -0.125459,
          0.166795,
          -0.0786657,
          0.110349,
          0.0315282,
          0.00151144,
          -0.185433,
          0.126609,
          0.103388,
          0.0445377,
          0.0142457,
          -0.079014,
          -0.0157712,
          0.00833513,
          0.196897,
          0.0310336,
          0.07913,
          0.113878,
          1.07392,
          -0.00456908,
          0.132058,
          -0.0116772,
          0.111664,
          0.311712,
          0.0545842,
          0.05844,
          -0.0458825,
          -0.16721,
          -1.31192,
          -0.118483,
          -0.149828,
          -0.103457,
          0.105761,
          -0.00677794,
          0.0220498,
          0.0227047,
          -0.0807408,
          -0.0353969,
          0.0182812,
          -0.105555,
          0.288776,
          -0.0353194,
          -0.169011,
          -0.0221164,
          0.107544,
          -0.0424266,
          0.0961165,
          -0.175969,
          0.0876443,
          -1.03534,
          -0.138609,
          0.00146161,
          0.138233,
          0.0551778,
          0.00717887,
          0.0126165,
          -0.867005,
          -0.118671,
          -0.0690322,
          -0.0274281,
          -0.243269,
          -0.108772,
          0.116797,
          -0.189656,
          0.0136475,
          0.00747994,
          0.00344116,
          -0.0929451,
          0.453222,
          0.0639622,
          -0.110761,
          0.1369,
          0.0055684,
          0.0948832,
          -0.41224,
          -0.14089,
          0.00457641,
          0.0249036,
          -0.0177799,
          0.0509548,
          0.135684,
          -0.0166206,
          -0.0478412,
          0.00245779,
          -0.471412,
          0.100529,
          -0.0530878,
          0.0501543,
          -0.195245,
          0.620322,
          0.0369769,
          0.048281,
          0.00673129,
          0.0382668,
          0.603193,
          -0.00795636,
          -0.191393,
          0.221343,
          0.0477169,
          0.0141213,
          -0.0575642,
          -0.0583579,
          0.151885,
          -0.153411,
          0.280154,
          -0.0182317,
          -0.0202348,
          -0.0472399,
          0.55794,
          -0.148219,
          0.0311913,
          0.0195431,
          0.00864788,
          0.025277,
          -0.0370393,
          0.059471,
          -0.116169,
          0.00239843,
          0.0636713,
          -0.0189139,
          -0.163903,
          0.0100621,
          -0.0161242,
          0.0237684,
          -0.102605,
          0.254097,
          0.0756403,
          -0.0714842,
          -0.000295014,
          -0.0427303,
          0.0750039,
          0.00748734,
          -0.0272965,
          0.521462,
          -0.027749,
          0.0224123,
          -0.326119,
          -0.0561592,
          -0.0155444,
          -0.0302616,
          -0.0384535,
          -0.00633448,
          -0.380724,
          -0.501766,
          0.0291637,
          0.0176028,
          0.00994503,
          0.076168,
          0.228875,
          -0.0666503,
          0.0171956,
          -0.0603282,
          0.0217917,
          0.0389233,
          -0.0326662,
          0.00213004,
          -0.120603,
          -0.40248,
          -0.325575,
          0.114607,
          0.00202388,
          0.0684222,
          0.819445,
          0.00883032,
          -0.371678,
          -0.045163,
          -0.0110772,
          -0.0514022,
          0.0586024,
          -0.0477371,
          0.0722052,
          -0.0059527,
          -0.00118662,
          0.0320776,
          0.155786,
          0.0593754,
          0.307723,
          -0.0314401,
          0.0190282,
          1.32274,
          0.0765259,
          -0.00748551,
          0.107107,
          -0.0219575,
          0.105258,
          -0.208794,
          -0.583723,
          -0.193005,
          0.00688582,
          0.128632,
          0.0246566,
          -0.000592533,
          -0.0199484,
          0.344964,
          -0.113492,
          0.00127102,
          0.000994999,
          -0.0137748,
          -0.112394,
          0.187408,
          0.0850075,
          0.0669141,
          -0.0108454,
          0.0908481,
          0.0266676,
          0.00491611,
          0.245459,
          0.268794,
          0.141214,
          0.093515,
          0.944134,
          -0.0258956,
          0.220659,
          -0.0225135,
          -0.0400126,
          0.233399,
          0.000550586,
          0.127889,
          -0.0475966,
          -0.014422,
          -1.09656,
          0.0182805,
          0.0202266,
          -0.0265173,
          0.0261712,
          -0.313502,
          -0.362648,
          -0.0442129,
          -0.341591,
          -0.0140895,
          0.0348218,
          -0.122768,
          0.0452144,
          0.00199739,
          -0.0836913,
          -0.0110765,
          0.0942705,
          0.0176562,
          0.00163294,
          -0.118516,
          -0.108367,
          -0.75659,
          -0.0602455,
          -0.0429724,
          -0.00182995,
          -0.00453049,
          -0.0453301,
          0.10158,
          -0.235844,
          -0.0477548,
          0.0240637,
          0.0664655,
          0.109617,
          -0.184585,
          -0.183031,
          0.162378,
          0.143078,
          -0.13738,
          -0.178927,
          -0.0511085,
          -0.0921835,
          0.0510412,
          -0.0536331,
          0.180383,
          0.00448342,
          0.0367609,
          -0.477294,
          -0.0894304,
          -0.00741984,
          -0.00255859,
          -0.0334575,
          -0.181982,
          0.227731,
          0.0333252,
          -0.00989703,
          -0.0107215,
          -0.492544,
          0.134066,
          0.104705,
          -0.130993,
          0.220943,
          -0.425198,
          0.0781741,
          -0.00663104,
          -0.110079,
          0.0197364,
          0.820906,
          0.197777,
          0.207201,
          0.264169,
          0.019984,
          0.0205133,
          -0.214001,
          -0.0918608,
          0.147899,
          0.0603089,
          0.173162,
          0.205066,
          -0.0284855,
          -0.0188576,
          0.657909,
          -0.137815,
          -0.320948,
          0.0124419,
          -0.261475,
          -0.0131513,
          -0.00973124,
          0.0606516,
          -0.00444114,
          -0.00437246,
          0.0684558,
          -0.0205388,
          -0.150896,
          0.00641845,
          -0.0124299,
          0.0159761,
          -0.0632676,
          0.223867,
          0.0536898,
          -0.0671159,
          -0.0406752,
          -0.0546156,
          -0.0601014,
          -0.0466143,
          0.113123,
          0.519849,
          0.0157248,
          0.0369548,
          -0.327592,
          -0.0474839,
          -0.0119044,
          0.0278647,
          -0.0399839,
          -0.00778817,
          -0.377598,
          -0.473353,
          0.0505489,
          0.0115384,
          0.0129901,
          0.0763303,
          0.248188,
          -0.0591262,
          -0.0555484,
          -0.0607178,
          0.0594761,
          -0.0355778,
          -0.0623084,
          0.00277646,
          -0.133699,
          -0.392694,
          -0.267927,
          0.157597,
          -0.0101943,
          0.0230887,
          0.814119,
          0.0211166,
          -0.391737,
          -0.0547127,
          -0.00278264,
          -0.00908457,
          0.05657,
          -0.0558332,
          0.0871019,
          -0.00122885,
          -0.0327133,
          0.0302254,
          0.0284355,
          0.0710376,
          0.268574,
          -0.0273841,
          0.00226037,
          1.30244,
          -0.146562,
          -0.00437999,
          0.133219,
          -0.00259819,
          -0.105803,
          -0.0985116,
          -0.586834,
          -0.211484,
          0.0472589,
          0.171207,
          -0.0340444,
          0.061618,
          -0.041042,
          0.362293,
          -0.0273825,
          0.0875714,
          -0.00130111,
          -0.0331111,
          -0.192655,
          0.160968,
          0.0831936,
          0.0513829,
          0.00401162,
          -0.0715818,
          0.00117951,
          0.00963597,
          0.263589,
          0.21862,
          0.118841,
          0.0952323,
          0.875527,
          -0.0234453,
          0.194125,
          -0.00531347,
          0.0496711,
          0.220188,
          0.120257,
          0.213107,
          -0.0615007,
          -0.0232608,
          -1.13687,
          0.0179783,
          0.0417968,
          -0.0914916,
          0.0578776,
          0.0599434,
          -0.359399,
          -0.0467126,
          -0.291261,
          -0.0318843,
          0.0250949,
          -0.0765095,
          0.380177,
          0.0673798,
          -0.126433,
          -0.00361671,
          0.130253,
          0.00678805,
          0.0867965,
          -0.14695,
          -0.128878,
          -0.770512,
          -0.0570234,
          0.0350542,
          0.129898,
          0.0524998,
          0.00732702,
          0.0747304,
          -0.831263,
          -0.410323,
          -0.0457194,
          -0.0321349,
          -0.0220233,
          -0.0429685,
          -0.0113889,
          -0.152026,
          -0.166072,
          0.0522039,
          -0.0864646,
          0.061321,
          0.318725,
          0.11559,
          0.0275377,
          0.0110454,
          -0.0367458,
          0.0660769,
          -0.340033,
          -0.181662,
          0.0121922,
          0.0314588,
          -0.0800481,
          0.0933538,
          0.716127,
          0.00866002,
          -0.0112851,
          0.0176774,
          -0.668382,
          -0.00401822,
          -0.060112,
          0.0512378,
          -0.294711,
          0.487275,
          0.0813875,
          0.0559266,
          -0.0368746,
          -0.00178948,
          0.307656,
          -0.0582956,
          -0.201268,
          0.0995214,
          0.0298247,
          0.0432761,
          0.0275578,
          0.010456,
          0.0851102,
          -0.0960968,
          0.0876859,
          -0.0645886,
          -0.0565468,
          0.0207495,
          0.6515,
          -0.06792,
          0.0505954,
          0.0649904,
          0.0456994,
          0.0289284,
          0.0486983,
          0.0943047,
          -0.12713,
          0.00995524,
          0.11226,
          -0.0156593,
          -0.0537182,
          0.0623547,
          -0.18903,
          -0.133466,
          0.0264609,
          0.116144,
          0.0373258,
          0.0208673,
          0.0299115,
          0.0673792,
          0.0207497,
          0.010663,
          -0.0275594,
          0.782771,
          0.0426101,
          0.0318527,
          -0.00301655,
          0.0165029,
          -0.0590225,
          -0.047532,
          0.0143118,
          -0.00898361,
          -0.486218,
          0.121694,
          -0.0673054,
          -0.0075364,
          0.0497607,
          0.0256755,
          0.337142,
          -0.00816204,
          0.0506937,
          0.0840072,
          -0.0723846,
          -0.00399164,
          0.0309599,
          -0.0247479,
          0.0155166,
          -0.0743654,
          -0.13513,
          0.154227,
          -0.019276,
          0.0794336,
          0.271561,
          0.0193926,
          -0.497268,
          -0.00214102,
          0.0125706,
          -0.0126259,
          0.0366877,
          0.0522196,
          -0.107671,
          -0.00527551,
          0.004156,
          0.0100792,
          0.106987,
          0.0332985,
          -0.0643238,
          -0.0162465,
          0.0351804,
          1.269,
          0.0361858,
          0.00101537,
          0.178721,
          -0.0107894,
          0.107663,
          -0.134331,
          -0.859443,
          -0.256794,
          0.0193886,
          0.0739973,
          -0.0202905,
          0.0177456,
          -0.0122759,
          0.361303,
          -0.025764,
          -0.0142413,
          -0.0326302,
          0.00442086,
          -0.178156,
          0.189959,
          0.0468263,
          0.067087,
          -0.0137897,
          0.0815942,
          0.00146386,
          0.0140381,
          0.2677,
          0.469139,
          0.172849,
          0.0965001,
          0.739374,
          -0.0276652,
          0.199413,
          -0.0215476,
          -0.042708,
          0.275323,
          0.0607858,
          0.178174,
          -0.0887336,
          -0.0313614,
          -0.868091,
          0.0542814,
          0.0606239,
          0.0286636,
          0.0496658,
          -0.212946,
          -0.537885,
          -0.0866643,
          -0.278208,
          -0.00857751,
          0.0432127,
          -0.0981402,
          0.0249433,
          -0.0369205,
          -0.128607,
          -0.0060216,
          0.0952077,
          0.0149952,
          -0.120247,
          -0.160589,
          -0.0555845,
          -0.571118,
          -0.080744,
          -0.03292,
          -0.0146128,
          -0.00516227,
          -0.0386407,
          0.140063,
          -0.175887,
          -0.354401,
          0.10601,
          0.0420994,
          -0.0641453,
          -0.0790686,
          -0.209176,
          0.1341,
          -0.0397827,
          -0.0977773,
          -0.093245,
          0.00366926,
          -0.151183,
          0.0977365,
          0.0864714,
          0.0521935,
          -0.0124941,
          0.0216707,
          -0.414892,
          -0.13343,
          -0.0111043,
          -0.013168,
          -0.0944158,
          0.0461871,
          0.719292,
          0.0616134,
          -0.0150924,
          -0.000302606,
          -0.661565,
          0.0224079,
          0.0431637,
          -0.0666519,
          0.0157967,
          -0.708032,
          -0.0615119,
          -0.0163546,
          0.00503382,
          -0.00171955,
          0.557035,
          0.0319228,
          0.173715,
          0.142227,
          0.0638764,
          0.0359058,
          -0.108243,
          -0.00992118,
          0.0623972,
          0.0626383,
          0.0251966,
          0.210749,
          -0.0745685,
          0.0025179,
          0.713772,
          -0.0613126,
          -0.189534,
          0.0771337,
          -0.206832,
          -0.00166684,
          0.0734132,
          0.0910181,
          -0.04495,
          0.0021771,
          0.108613,
          -0.0234301,
          -0.0705939,
          0.100075,
          -0.180799,
          -0.132864,
          0.059044,
          0.0764484,
          0.00428908,
          0.0372197,
          -0.00468007,
          0.0657121,
          -0.0854206,
          -0.0185899,
          0.0713309,
          0.784432,
          0.0673068,
          0.0450589,
          -0.00211164,
          0.0189231,
          -0.0567492,
          0.00726824,
          0.0129801,
          -0.00880308,
          -0.480763,
          0.149782,
          -0.0388203,
          -0.00714049,
          0.0410757,
          0.0275577,
          0.348133,
          -0.00150268,
          0.00531925,
          0.0738157,
          -0.025388,
          -0.0556593,
          -0.0250172,
          -0.0316518,
          0.00744616,
          -0.0893038,
          -0.133081,
          0.212647,
          -0.0292283,
          0.00906191,
          0.262245,
          0.0176743,
          -0.491478,
          -0.00700573,
          0.0161431,
          0.0248398,
          0.0960458,
          0.013186,
          -0.0904559,
          -0.0129904,
          -0.0256205,
          0.00874324,
          0.0165009,
          0.0322179,
          -0.0807819,
          -0.0149877,
          0.0169287,
          1.25242,
          -0.135738,
          0.00163239,
          0.194238,
          -0.00681581,
          -0.0695382,
          -0.0435124,
          -0.858181,
          -0.268671,
          0.0492627,
          0.111507,
          -0.0522892,
          0.0602167,
          -0.0167197,
          0.372099,
          0.03909,
          0.0158155,
          -0.0308619,
          -0.0123249,
          -0.253728,
          0.163408,
          0.0470453,
          0.0554341,
          -0.000455107,
          -0.058321,
          -0.0174288,
          0.0197436,
          0.28192,
          0.430551,
          0.141355,
          0.0944858,
          0.682498,
          -0.0249461,
          0.179268,
          -0.00315017,
          0.0420793,
          0.260631,
          0.146256,
          0.242657,
          -0.0645128,
          -0.0390913,
          -0.906951,
          0.0506801,
          0.088401,
          -0.0340081,
          0.0846754,
          0.093104,
          -0.535314,
          -0.0856238,
          -0.233536,
          -0.0273843,
          0.0331916,
          -0.0673897,
          0.308785,
          0.0168453,
          -0.158859,
          -0.0152516,
          0.120804,
          0.00604174,
          -0.056079,
          -0.184079,
          -0.0763713,
          -0.579889,
          -0.0821817
        ],
        "bias": [
          1.06429,
          -1.36187,
          0.17394,
          1.27557,
          -1.63582,
          0.0493848,
          0.959764,
          -1.64904,
          0.0724375,
          1.18745,
          -1.58817,
          -0.0480796,
          0.874891,
          -1.6232,
          0.0661,
          1.16929,
          -0.366403,
          0.479486,
          0.55337,
          -0.391531,
          0.505504,
          0.967572,
          0.709597,
          -0.0468801,
          0.390893,
          0.675597,
          -0.0612172,
          0.703271,
          1.00704,
          -0.354146,
          0.587213,
          0.98216,
          -0.390504,
          1.09483,
          1.56558,
          -0.044319,
          0.659067,
          1.56041,
          -0.0356603,
          0.997012,
          1.5903,
          -0.531436,
          0.715177,
          1.58464,
          -0.546675,
          0.883009,
          2.40216,
          -0.822231,
          0.600184,
          2.39006,
          -0.83196
        ],
        "factor_scale": [
          15360,
          15360,
          15360,
          15360,
          15360,
          15360,
          15360,
          15360,
          15360,
          15360,
          15360,
          15360,
          15360,
          15360,
          15360,
          15360,
          15360,
          15360,
          15360,
          15360,
          15360,
          15360,
          15360,
          15360,
          15360,
          15360,
          15360,
          15360,
          15360,
          15360,
          15360,
          15360,
          15360,
          15360,
          15360,
          15360,
          15360,
          15360,
          15360,
          15360,
          15360,
          15360,
          15360,
          15360,
          15360,
          15360,
          15360,
          15360,
          15360,
          15360,
          15360
        ],
        "coef_dtype": 1,
        "coef_acc": [5,10,15],
        "input_dtype": 1,
        "input_acc": [5,10,15],
        "output_dtype": 1,
        "output_acc": [5,10,15]
      }
    },
    {
      "param": {
        "num_channel": 51
      },
      "data": {
        "coef": [
          0.210424,
          0.218981,
          1.06006,
          0.200413,
          0.218918,
          1.1277,
          0.201361,
          0.219318,
          1.07753,
          0.210587,
          0.218837,
          1.13488,
          0.211778,
          0.217567,
          1.12752,
          0.229709,
          0.239502,
          0.915355,
          0.235728,
          0.239546,
          0.937811,
          0.283393,
          0.278295,
          0.976939,
          0.30628,
          0.282141,
          0.995723,
          0.328905,
          0.315396,
          0.923004,
          0.320231,
          0.316945,
          0.925809,
          0.224173,
          0.278014,
          1.01577,
          0.218542,
          0.279363,
          1.01865,
          0.241503,
          0.328591,
          1.14255,
          0.229452,
          0.330136,
          1.14684,
          0.25565,
          0.323996,
          1.25765,
          0.25338,
          0.324271,
          1.2641
        ],
        "bias": [
          0,
          0,
          0,
          0,
          0,
          0,
          0,
          0,
          0,
          0,
          0,
          0,
          0,
          0,
          0,
          0,
          0,
          0,
          0,
          0,
          0,
          0,
          0,
          0,
          0,
          0,
          0,
          0,
          0,
          0,
          0,
          0,
          0,
          0,
          0,
          0,
          0,
          0,
          0,
          0,
          0,
          0,
          0,
          0,
          0,
          0,
          0,
          0,
          0,
          0,
          0
        ],
        "coef_scale": [
          1,
          1,
          1,
          1,
          1,
          1,
          1,
          1,
          1,
          1,
          1,
          1,
          1,
          1,
          1,
          1,
          1,
          1,
          1,
          1,
          1,
          1,
          1,
          1,
          1,
          1,
          1,
          1,
          1,
          1,
          1,
          1,
          1,
          1,
          1,
          1,
          1,
          1,
          1,
          1,
          1,
          1,
          1,
          1,
          1,
          1,
          1,
          1,
          1,
          1,
          1
        ],
        "coef_zero_point": [
          0,
          0,
          0,
          0,
          0,
          0,
          0,
          0,
          0,
          0,
          0,
          0,
          0,
          0,
          0,
          0,
          0,
          0,
          0,
          0,
          0,
          0,
          0,
          0,
          0,
          0,
          0,
          0,
          0,
          0,
          0,
          0,
          0,
          0,
          0,
          0,
          0,
          0,
          0,
          0,
          0,
          0,
          0,
          0,
          0,
          0,
          0,
          0,
          0,
          0,
          0
        ],
        "bias_scale": [
          1,
          1,
          1,
          1,
          1,
          1,
          1,
          1,
          1,
          1,
          1,
          1,
          1,
          1,
          1,
          1,
          1,
          1,
          1,
          1,
          1,
          1,
          1,
          1,
          1,
          1,
          1,
          1,
          1,
          1,
          1,
          1,
          1,
          1,
          1,
          1,
          1,
          1,
          1,
          1,
          1,
          1,
          1,
          1,
          1,
          1,
          1,
          1,
          1,
          1,
          1
        ],
        "bias_zero_point": [
          0,
          0,
          0,
          0,
          0,
          0,
          0,
          0,
          0,
          0,
          0,
          0,
          0,
          0,
          0,
          0,
          0,
          0,
          0,
          0,
          0,
          0,
          0,
          0,
          0,
          0,
          0,
          0,
          0,
          0,
          0,
          0,
          0,
          0,
          0,
          0,
          0,
          0,
          0,
          0,
          0,
          0,
          0,
          0,
          0,
          0,
          0,
          0,
          0,
          0,
          0
        ],
        "input_scale": [
          1,
          1,
          1,
          1,
          1,
          1,
          1,
          1,
          1,
          1,
          1,
          1,
          1,
          1,
          1,
          1,
          1,
          1,
          1,
          1,
          1,
          1,
          1,
          1,
          1,
          1,
          1,
          1,
          1,
          1,
          1,
          1,
          1,
          1,
          1,
          1,
          1,
          1,
          1,
          1,
          1,
          1,
          1,
          1,
          1,
          1,
          1,
          1,
          1,
          1,
          1
        ],
        "input_zero_point": [
          0,
          0,
          0,
          0,
          0,
          0,
          0,
          0,
          0,
          0,
          0,
          0,
          0,
          0,
          0,
          0,
          0,
          0,
          0,
          0,
          0,
          0,
          0,
          0,
          0,
          0,
          0,
          0,
          0,
          0,
          0,
          0,
          0,
          0,
          0,
          0,
          0,
          0,
          0,
          0,
          0,
          0,
          0,
          0,
          0,
          0,
          0,
          0,
          0,
          0,
          0
        ],
        "output_scale": [
          1,
          1,
          1,
          1,
          1,
          1,
          1,
          1,
          1,
          1,
          1,
          1,
          1,
          1,
          1,
          1,
          1,
          1,
          1,
          1,
          1,
          1,
          1,
          1,
          1,
          1,
          1,
          1,
          1,
          1,
          1,
          1,
          1,
          1,
          1,
          1,
          1,
          1,
          1,
          1,
          1,
          1,
          1,
          1,
          1,
          1,
          1,
          1,
          1,
          1,
          1
        ],
        "output_zero_point": [
          0,
          0,
          0,
          0,
          0,
          0,
          0,
          0,
          0,
          0,
          0,
          0,
          0,
          0,
          0,
          0,
          0,
          0,
          0,
          0,
          0,
          0,
          0,
          0,
          0,
          0,
          0,
          0,
          0,
          0,
          0,
          0,
          0,
          0,
          0,
          0,
          0,
          0,
          0,
          0,
          0,
          0,
          0,
          0,
          0,
          0,
          0,
          0,
          0,
          0,
          0
        ],
        "input_dtype": 1,
        "input_acc": [5,10,15]
      },
      "inst_name": "/model/person/head_module/kpt_pred.0/kpt_pred.0.4/Mul",
      "type_name": "Bn",
      "bottom": [
        "2Fmodel2Fperson2Fhead_module2Fkpt_pred2E02Fkpt_pred2E02E32FConv_output_0"
      ],
      "top": [
        "2Fmodel2Fperson2Fhead_module2Fkpt_pred2E02Fkpt_pred2E02E42FMul_output_0"
      ],
      "hw": 1,
      "hw_acc": [5,10,15]
    }
  ]
}