{
  "name": "graph_aic",
  "input_tensor": [
    "2Fmodel2Fneck2Fout_convs2E22Fcna2Factivate2FRelu_output_0"
  ],
  "input_shape": [
    {
      "dim": [1,64,13,13],
      "dtype": "f16",
      "pack": 0
    }
  ],
  "output_tensor": [
    "2Fmodel2Fpet2Fhead_module2FExp_2_output_0"
  ],
  "output_shape": [
    {
      "dim": [1,4,13,13],
      "dtype": "f16",
      "pack": 0
    }
  ],
  "layer": [
    {
      "inst_name": "/model/pet/head_module/bbox_pred.2/Conv_im_0",
      "type_name": "Conv2d",
      "bottom": [
        "2Fmodel2Fneck2Fout_convs2E22Fcna2Factivate2FRelu_output_0"
      ],
      "top": [
        "2Fmodel2Fpet2Fhead_module2Fbbox_pred2E22FConv_output_0"
      ],
      "hw": 1,
      "hw_acc": [5,10,15],
      "param": {
        "num_output": 4,
        "bias_term": 1,
        "group": 1,
        "pad_h": 0,
        "pad_w": 0,
        "kernel_h": 1,
        "kernel_w": 1,
        "stride_h": 1,
        "stride_w": 1,
        "dilation_h": 1,
        "dilation_w": 1,
        "num_input": 64,
        "padding_mode": 0
      },
      "data": {
        "coef": [
          -0.00252223,
          0.00208694,
          0.00481333,
          0.00187336,
          0.00192546,
          0.28539,
          -0.000569153,
          0.00111382,
          -0.00067767,
          -0.671181,
          -0.00140924,
          -0.000192703,
          -0.000107523,
          0.00405697,
          -0.000234681,
          -0.000350768,
          0.0153809,
          -0.00160564,
          -0.000221792,
          0.00559266,
          0.000206891,
          0.000107613,
          -0.424086,
          -0.00107487,
          -0.000308871,
          -0.00297575,
          0.224461,
          4.14218e-05,
          0.00305793,
          -0.000157173,
          0.00680759,
          -0.000134123,
          -8.21525e-05,
          -0.00574943,
          0.00437929,
          -0.0126831,
          -0.459671,
          0.000490917,
          0.00293161,
          -0.000965466,
          0.000289338,
          0.00498667,
          -0.00101759,
          -0.00278299,
          0.00262958,
          0.00168471,
          -0.00033371,
          -0.000390902,
          0.30449,
          0.00615626,
          0.000559668,
          0.000617264,
          -0.000184329,
          -0.000796384,
          3.55702e-06,
          0.000473588,
          -0.00956278,
          -0.000277088,
          -0.00241155,
          0.0111062,
          0.00269186,
          0.00871678,
          -0.000375067,
          -0.000849842,
          0.000217677,
          0.0021108,
          0.0106543,
          0.00312478,
          0.00381835,
          6.5127e-05,
          2.35284e-05,
          0.00452499,
          -0.00193613,
          -0.000854376,
          0.00951923,
          0.00197975,
          -0.00130075,
          0.00705503,
          -0.00226611,
          0.00205316,
          0.00909938,
          -0.00072008,
          -0.596343,
          -0.000409539,
          0.00128177,
          0.289102,
          -0.000589648,
          -0.000796902,
          -0.00247731,
          0.00552614,
          0.000980084,
          0.0156126,
          -0.0196517,
          -0.377479,
          0.0104545,
          0.0043432,
          -0.00223723,
          0.0112452,
          -0.00846785,
          0.0191148,
          -0.0030918,
          -0.000631077,
          -0.00457182,
          0.000182859,
          0.00770251,
          -0.00487899,
          0.00348187,
          0.0233733,
          0.0125874,
          0.00621124,
          -0.00681976,
          0.000123441,
          0.0059004,
          0.00634971,
          0.00135843,
          0.001049,
          -0.00294143,
          0.00415379,
          0.00218669,
          -0.000769017,
          -0.00299284,
          -0.000266852,
          -0.00449371,
          0.00894295,
          0.000931923,
          -0.00922166,
          -0.000161114,
          -0.00241397,
          0.00584158,
          0.00283418,
          -0.00271941,
          0.00167929,
          -0.00520833,
          0.00528348,
          -0.00243759,
          -0.00245088,
          -0.000636303,
          -0.00116671,
          0.00534983,
          -5.97022e-05,
          -0.548761,
          -1.18092e-05,
          -0.00213821,
          -0.00202639,
          0.0156218,
          -0.00810211,
          -0.00410547,
          0.00491405,
          0.00267394,
          0.00987072,
          -0.00231093,
          0.00288733,
          -0.441467,
          0.00405092,
          0.00173678,
          0.0119266,
          -0.00525542,
          -0.00371806,
          0.0065274,
          0.302249,
          -0.361801,
          -0.00143097,
          -0.00388878,
          0.00789275,
          -0.00333307,
          -0.000801625,
          -0.00507344,
          -0.00292173,
          0.0243128,
          0.00886854,
          -0.00583812,
          0.00347652,
          0.024414,
          0.000145238,
          -0.0025266,
          0.000188998,
          0.00847619,
          -0.000149291,
          0.268086,
          0.00863122,
          -0.000328824,
          -0.0012726,
          0.00362737,
          0.00440193,
          -0.00448433,
          -0.00065598,
          -0.000302615,
          -0.00550417,
          -0.00293811,
          0.00388159,
          0.000806717,
          0.0137807,
          -0.00478765,
          -0.00250355,
          0.00582296,
          -0.00267796,
          0.00124168,
          -0.00236048,
          -0.00400759,
          -0.00490028,
          -0.00219554,
          -0.000799484,
          0.0107319,
          -0.00108889,
          1.76675e-05,
          0.0128279,
          -0.564827,
          -0.000458873,
          -0.00187455,
          -0.00889038,
          -0.00518015,
          0.00782872,
          0.00315737,
          0.00435078,
          -0.00217537,
          -0.000519158,
          -0.0010512,
          -0.0179939,
          -0.00021864,
          0.00305143,
          -0.0198089,
          -0.0035056,
          0.00739813,
          0.00104198,
          -0.00100095,
          0.00932555,
          -0.00402014,
          0.0282566,
          -0.000241549,
          -0.000523602,
          -0.0126399,
          -0.000593986,
          0.0144016,
          0.00912607,
          0.00370134,
          0.0055867,
          -0.00954532,
          0.00478294,
          -0.000322878,
          -0.000793613,
          0.00441663,
          0.00385452,
          0.000272916,
          -0.00507871,
          -0.409563,
          0.00220755,
          0.287807,
          0.00119337,
          0.00758833,
          -0.000121194,
          0.0061533,
          -0.00126763,
          -0.00322881,
          -0.00499118,
          0.000664588,
          0.00182807
        ],
        "bias": [0.405695,1.05124,0.812066,0.787694],
        "factor_scale": [15360,15360,15360,15360],
        "coef_dtype": 1,
        "coef_acc": [5,10,15],
        "input_dtype": 1,
        "input_acc": [5,10,15],
        "output_dtype": 1,
        "output_acc": [5,10,15]
      }
    },
    {
      "inst_name": "/model/pet/head_module/Exp_2",
      "type_name": "Activation4",
      "bottom": [
        "2Fmodel2Fpet2Fhead_module2Fbbox_pred2E22FConv_output_0"
      ],
      "top": [
        "2Fmodel2Fpet2Fhead_module2FExp_2_output_0"
      ],
      "hw": 1,
      "hw_acc": [5,10,15],
      "param": {
        "function": "exp_x",
        "coeff": 1,
        "coeff2": 1,
        "num_input": 4,
        "num_output": 4
      },
      "data": {
        "input_dtype": 1,
        "input_acc": [5,10,15],
        "output_dtype": 1,
        "output_acc": [5,10,15]
      }
    }
  ]
}