{
  "name": "graph_aic",
  "input_tensor": [
    "2Fmodel2Fneck2Fout_convs2E02Fcna2Factivate2FRelu_output_0"
  ],
  "input_shape": [
    {
      "dim": [1,64,52,52],
      "dtype": "f16",
      "pack": 0
    }
  ],
  "output_tensor": [
    "2Fmodel2Fperson2Fhead_module2Fkpt_pred2E02Fkpt_pred2E02E02Fdepthwise_conv2Fconv2FConv_output_0"
  ],
  "output_shape": [
    {
      "dim": [1,64,52,52],
      "dtype": "f16",
      "pack": 0
    }
  ],
  "layer": [
    {
      "inst_name": "/model/person/head_module/kpt_pred.0/kpt_pred.0.0/depthwise_conv/conv/Conv_im_0",
      "type_name": "Wino2d",
      "bottom": [
        "2Fmodel2Fneck2Fout_convs2E02Fcna2Factivate2FRelu_output_0"
      ],
      "top": [
        "2Fmodel2Fperson2Fhead_module2Fkpt_pred2E02Fkpt_pred2E02E02Fdepthwise_conv2Fconv2FConv_output_0"
      ],
      "hw": 1,
      "hw_acc": [5,10,15],
      "param": {
        "num_output": 64,
        "bias_term": 1,
        "group": 64,
        "pad_h": 1,
        "pad_w": 1,
        "kernel_h": 3,
        "kernel_w": 3,
        "stride_h": 1,
        "stride_w": 1,
        "dilation_h": 1,
        "dilation_w": 1,
        "num_input": 64,
        "padding_mode": 0
      },
      "data": {
        "coef": [
          -2.07217,
          0.761033,
          -0.230041,
          -0.317292,
          4.66971,
          0.257446,
          -0.706302,
          -0.913877,
          0.602401,
          -0.0190352,
          -1.41862,
          0.245842,
          -0.125826,
          3.27768,
          -0.732395,
          -0.192029,
          1.01244,
          -0.167723,
          0.682379,
          7.61379,
          4.83849,
          0.537831,
          2.49778,
          1.10805,
          0.651715,
          3.97789,
          2.5481,
          -0.198343,
          1.27723,
          0.00286555,
          0.0555935,
          1.41034,
          0.225298,
          0.150812,
          0.497769,
          0.0590495,
          -0.0432799,
          -0.0191783,
          -0.142203,
          -0.00303378,
          -0.474801,
          -0.0493403,
          -0.150557,
          -1.05582,
          -0.0650375,
          0.426332,
          1.4197,
          -0.406951,
          -0.0920532,
          0.921723,
          0.155457,
          -0.778597,
          -0.767496,
          0.0201374,
          0.0555631,
          -0.101115,
          -0.00398851,
          -0.0112176,
          3.09842,
          -0.334098,
          0.104442,
          2.02962,
          -0.0219262,
          -0.919023,
          -1.49404,
          -1.53151,
          0.0559017,
          -0.786237,
          0.762488,
          -0.560521,
          0.315977,
          0.898547,
          -0.0660574,
          -1.65149,
          -0.0711911,
          0.0202058,
          -1.70706,
          0.293891,
          -0.0174788,
          -0.322668,
          -0.000424429,
          -0.0780455,
          -0.336203,
          0.0409448,
          0.000572206,
          -0.884203,
          0.00310254,
          -0.0249809,
          -0.0794888,
          0.00420607,
          1.49032,
          -3.70034,
          0.164834,
          -0.0543684,
          -7.1227,
          0.242702,
          -1.82812,
          0.645714,
          0.161993,
          0.0541451,
          -0.093695,
          0.00871985,
          -0.0846771,
          -0.730212,
          0.0137823,
          0.0274353,
          -0.619865,
          0.069426,
          0.0504428,
          -0.68528,
          0.0850094,
          0.13177,
          -1.25948,
          0.0986284,
          0.0281623,
          -0.608423,
          0.0925711,
          0.111189,
          0.740154,
          -0.110471,
          -0.379024,
          2.61274,
          -0.258654,
          -0.0556519,
          -1.40239,
          0.0347699,
          0.496624,
          -0.183033,
          -0.00329523,
          0.383391,
          -0.242551,
          -0.086156,
          0.392142,
          -0.29535,
          -0.0927047,
          -0.17967,
          0.0834589,
          0.00991276,
          -0.0754517,
          2.19554,
          0.0861241,
          -0.0457833,
          -0.196941,
          -0.0616549,
          -0.25173,
          2.2757,
          0.687091,
          0.0435203,
          4.49327,
          -0.410616,
          0.295115,
          2.83848,
          -0.842263,
          0.0841157,
          0.0539074,
          -0.408018,
          -0.0394183,
          1.44235,
          0.146795,
          -0.190866,
          0.171837,
          0.128299,
          -0.548376,
          -2.09668,
          -0.378459,
          -0.703256,
          -1.71433,
          -0.207369,
          -0.706753,
          -1.16558,
          -0.109081,
          -0.018155,
          -0.0952509,
          -0.111834,
          -0.0085518,
          1.95788,
          -0.107053,
          0.00983414,
          0.0321191,
          -0.148681,
          0.766034,
          -2.24283,
          -0.421368,
          -0.763028,
          7.88268,
          -1.71232,
          0.213012,
          2.35055,
          -2.9541,
          -0.0513322,
          -0.6263,
          0.0292558,
          0.0979105,
          -0.981848,
          0.105308,
          -0.0158137,
          -0.254516,
          -0.185267,
          -0.18047,
          0.0222981,
          -0.445196,
          0.0250702,
          0.0264475,
          -0.0880454,
          0.171736,
          0.34947,
          0.214338,
          0.608476,
          -5.74602,
          -0.595331,
          0.109286,
          10.3703,
          0.0636413,
          0.0970981,
          0.865957,
          0.0119533,
          0.549202,
          0.76112,
          0.378093,
          0.146852,
          0.270714,
          0.194832,
          0.196703,
          0.378773,
          0.320885,
          0.481967,
          -3.41661,
          -0.684013,
          1.12648,
          16.5348,
          2.02083,
          0.834722,
          2.90529,
          1.21559,
          0.048539,
          -0.325663,
          -0.141922,
          0.0591972,
          -0.86134,
          -0.0108058,
          0.000859611,
          -0.424002,
          -0.236976,
          0.532486,
          0.0747016,
          0.166165,
          0.133566,
          -0.370043,
          -0.0105157,
          0.30051,
          -0.114843,
          0.398766,
          0.249905,
          4.82337,
          3.98692,
          0.224949,
          -0.0778723,
          -0.391969,
          0.252059,
          3.5085,
          2.74532,
          -0.525418,
          4.68391,
          0.0643685,
          -0.0865559,
          -0.730275,
          -0.482253,
          0.0520824,
          0.137057,
          -0.0619998,
          0.0871834,
          0.497632,
          0.0161734,
          0.0573654,
          0.29695,
          -0.013293,
          -0.0390435,
          -0.0406989,
          0.00745181,
          -0.354157,
          -1.49179,
          -0.411592,
          -0.00931451,
          -0.385995,
          -0.137013,
          -0.0455582,
          -0.419975,
          -0.296805,
          0.00892733,
          -0.0945843,
          -0.0101066,
          0.00176076,
          -0.101037,
          -0.0171167,
          0.00324506,
          -0.0197259,
          0.00946595,
          0.10521,
          -0.750412,
          -4.50815,
          0.104766,
          0.591491,
          0.101968,
          -0.0180587,
          -0.181913,
          -2.52304,
          0.267961,
          0.234891,
          0.0632575,
          0.138466,
          0.588535,
          -0.00299218,
          0.109933,
          0.149536,
          0.1823,
          -0.264996,
          -3.80574,
          -2.38702,
          -0.158133,
          -1.28207,
          -0.700994,
          -0.741196,
          -2.62259,
          -1.82023,
          -0.144901,
          -0.803472,
          0.011305,
          -0.176504,
          -1.33171,
          0.226942,
          -0.0578967,
          -0.339192,
          -0.177202,
          -0.103667,
          0.526653,
          0.000324044,
          -0.257492,
          1.13554,
          0.161866,
          -0.18752,
          2.05111,
          0.0045402,
          0.141714,
          -0.12163,
          -0.285952,
          0.0490328,
          0.272202,
          -0.0694964,
          0.0406153,
          0.126215,
          0.00267426,
          0.0654105,
          -0.211416,
          -0.0517058,
          0.110029,
          -1.49728,
          -0.0211945,
          -0.0603663,
          -0.365757,
          -0.162886,
          0.891046,
          -3.32192,
          -1.05789,
          0.37811,
          2.866,
          0.0116421,
          0.0046128,
          0.331209,
          -0.119363,
          -0.530346,
          0.855386,
          0.423696,
          -0.266406,
          0.986744,
          0.0501222,
          0.369904,
          0.515921,
          0.0417604,
          0.0013095,
          4.02801,
          -1.03986,
          -0.751331,
          4.4791,
          -0.386116,
          -0.194714,
          2.33834,
          -0.637764,
          0.175654,
          2.76493,
          0.326801,
          0.265304,
          2.05254,
          -0.00218284,
          0.168736,
          0.0099471,
          -0.0840387,
          -0.071616,
          0.884685,
          0.0970341,
          0.269594,
          1.74278,
          -0.234292,
          -0.166342,
          0.587342,
          -0.0774904,
          0.253658,
          -2.42601,
          -0.174074,
          0.0449691,
          -0.693502,
          -0.355372,
          -0.0407149,
          0.833865,
          0.0908948,
          0.9916,
          14.3517,
          -1.97576,
          -0.490503,
          -1.16967,
          0.504221,
          -0.14973,
          0.282341,
          0.39804,
          -0.0059949,
          -0.0629648,
          0.153184,
          -0.30629,
          -1.27875,
          -0.645153,
          -0.217931,
          -0.314614,
          -0.0630948,
          0.0499448,
          1.90287,
          0.444413,
          0.132348,
          -0.266277,
          0.141874,
          -0.0716254,
          0.0130743,
          0.0222141,
          -0.279742,
          3.19867,
          -0.093942,
          0.0425031,
          4.67459,
          0.35556,
          0.727989,
          1.14778,
          0.256419,
          -0.159662,
          -0.436296,
          -0.0207573,
          -0.354317,
          -2.63584,
          0.349924,
          -0.225818,
          -2.01047,
          0.0471752,
          -0.311701,
          -1.09258,
          -1.01584,
          -0.0930765,
          -0.689864,
          -0.635767,
          -0.00173415,
          -0.0923543,
          -0.15565,
          -0.112437,
          -1.18016,
          -0.256314,
          0.0622726,
          -0.515617,
          0.00222725,
          -0.0601058,
          0.0564481,
          -0.0664755,
          -0.245543,
          -0.715142,
          -0.005232,
          0.24177,
          -1.58502,
          -0.117814,
          -0.159678,
          -0.543072,
          -0.38248,
          -0.033065,
          0.00195224,
          0.0689098,
          -0.00367565,
          0.0546835,
          0.0996443,
          -0.0244351,
          -0.0252809,
          0.0698501,
          0.495302,
          13.7506,
          0.849191,
          -0.79768,
          0.0174638,
          -0.36443,
          0.25289,
          0.0290158,
          0.19329,
          -0.305794,
          3.12995,
          1.1104,
          0.327526,
          2.85708,
          1.99805,
          0.35699,
          0.589946,
          0.565601,
          -0.658719,
          1.44704,
          0.236391,
          -0.148528,
          10.4712,
          -0.125963,
          -0.108024,
          -1.95806,
          -0.519322,
          1.21619,
          5.1807,
          -1.09575,
          0.167368,
          10.1963,
          -1.05362,
          -1.18787,
          2.30967,
          0.9668,
          -0.174533,
          -0.568147,
          -0.209087,
          0.00656892,
          -0.190628,
          0.00383407,
          0.0425493,
          -0.375228,
          0.0547812,
          0.0057865,
          0.324143,
          -0.0413613,
          -0.0171312,
          0.443428,
          -0.0830057,
          -0.248923,
          2.11299,
          -0.302938,
          -0.211131,
          3.7251,
          -0.409768,
          0.0891657,
          0.486438,
          0.147736,
          0.0828654,
          1.18869,
          -0.103145,
          -0.0579497,
          1.63038,
          -0.110865,
          0.0998111,
          0.173999,
          0.134887,
          -0.021729,
          0.0130652,
          -0.00644095,
          -0.0737406,
          0.396529,
          -0.0159357,
          0.0531355,
          0.782759,
          -0.104105,
          0.0137468,
          0.302664,
          0.078385
        ],
        "bias": [
          -1.53098,
          -0.982305,
          1.25112,
          2.10838,
          3.83822,
          -0.890962,
          0.737491,
          -1.01328,
          5.9272,
          2.28878,
          2.23489,
          3.20377,
          1.88821,
          -0.492368,
          0.736494,
          0.243174,
          -0.758839,
          -0.230083,
          3.86852,
          0.620087,
          -1.39744,
          5.20608,
          -1.01635,
          -0.265161,
          -3.40125,
          -1.62219,
          3.7771,
          -4.3303,
          1.38401,
          -0.538706,
          2.63202,
          3.44457,
          0.846306,
          2.72241,
          2.42438,
          3.1556,
          5.21128,
          0.794475,
          0.113919,
          2.62615,
          0.912024,
          0.050717,
          0.608248,
          3.49881,
          -0.0234101,
          -1.36734,
          -1.31656,
          2.48781,
          -0.0950964,
          2.55355,
          2.19235,
          3.51446,
          6.61518,
          2.18421,
          -0.293219,
          -1.02255,
          1.51576,
          -3.4744,
          -0.850615,
          5.86729,
          -0.585605,
          -3.15849,
          0.183208,
          1.28168
        ],
        "factor_scale": [
          15360,
          15360,
          15360,
          15360,
          15360,
          15360,
          15360,
          15360,
          15360,
          15360,
          15360,
          15360,
          15360,
          15360,
          15360,
          15360,
          15360,
          15360,
          15360,
          15360,
          15360,
          15360,
          15360,
          15360,
          15360,
          15360,
          15360,
          15360,
          15360,
          15360,
          15360,
          15360,
          15360,
          15360,
          15360,
          15360,
          15360,
          15360,
          15360,
          15360,
          15360,
          15360,
          15360,
          15360,
          15360,
          15360,
          15360,
          15360,
          15360,
          15360,
          15360,
          15360,
          15360,
          15360,
          15360,
          15360,
          15360,
          15360,
          15360,
          15360,
          15360,
          15360,
          15360,
          15360
        ],
        "coef_dtype": 1,
        "coef_acc": [5,10,15],
        "input_dtype": 1,
        "input_acc": [5,10,15],
        "output_dtype": 1,
        "output_acc": [5,10,15]
      }
    }
  ]
}