{
  "name": "graph_aic",
  "input_tensor": [
    "2Fmodel2Fperson2Fhead_module2Fkpt_pred2E12Fkpt_pred2E12E12Fpointwise_conv2Fconv2FConv_output_0",
    "2Fmodel2Fperson2Fhead_module2Fkpt_pred2E12Fkpt_pred2E12E12Fpointwise_conv2Factivate2FSigmoid_output_0"
  ],
  "input_shape": [
    {
      "dim": [1,64,26,26],
      "dtype": "f16",
      "pack": 0
    },
    {
      "dim": [1,64,26,26],
      "dtype": "f16",
      "pack": 0
    }
  ],
  "output_tensor": [
    "2Fmodel2Fperson2Fhead_module2Fkpt_pred2E12Fkpt_pred2E12E42FMul_output_0"
  ],
  "output_shape": [
    {
      "dim": [1,51,26,26],
      "dtype": "f16",
      "pack": 0
    }
  ],
  "layer": [
    {
      "param": {
        "operation": 2,
        "num_channel": 64,
        "src_mode": "ONLINE",
        "brc_mode": "CHW"
      },
      "data": {
        "input0_dtype": 1,
        "input0_acc": [5,10,15],
        "input1_dtype": 1,
        "input1_acc": [5,10,15],
        "output_dtype": 1,
        "output_acc": [5,10,15],
        "coef": []
      },
      "inst_name": "/model/person/head_module/kpt_pred.1/kpt_pred.1.1/pointwise_conv/activate/Mul",
      "type_name": "Eltwise3",
      "bottom": [
        "2Fmodel2Fperson2Fhead_module2Fkpt_pred2E12Fkpt_pred2E12E12Fpointwise_conv2Fconv2FConv_output_0",
        "2Fmodel2Fperson2Fhead_module2Fkpt_pred2E12Fkpt_pred2E12E12Fpointwise_conv2Factivate2FSigmoid_output_0"
      ],
      "top": [
        "2Fmodel2Fperson2Fhead_module2Fkpt_pred2E12Fkpt_pred2E12E12Fpointwise_conv2Factivate2FMul_output_0"
      ],
      "hw": 1,
      "hw_acc": [5,10,15]
    },
    {
      "param": {
        "num_channel": 64
      },
      "data": {
        "coef": [
          1,
          1,
          1,
          1,
          1,
          1,
          1,
          1,
          1,
          1,
          1,
          1,
          1,
          1,
          1,
          1,
          1,
          1,
          1,
          1,
          1,
          1,
          1,
          1,
          1,
          1,
          1,
          1,
          1,
          1,
          1,
          1,
          1,
          1,
          1,
          1,
          1,
          1,
          1,
          1,
          1,
          1,
          1,
          1,
          1,
          1,
          1,
          1,
          1,
          1,
          1,
          1,
          1,
          1,
          1,
          1,
          1,
          1,
          1,
          1,
          1,
          1,
          1,
          1
        ],
        "bias": [
          0.0586588,
          -0.110179,
          0.0242393,
          -0.147925,
          0.144335,
          0.0745265,
          -0.117525,
          0.0811682,
          -0.0318842,
          0.0365155,
          0.0571097,
          0.0316027,
          -0.0437273,
          -0.12799,
          0.0370478,
          0.0189487,
          -0.116202,
          -0.129806,
          -0.0474165,
          0.109558,
          0.0295837,
          -0.0773246,
          -0.145684,
          -0.0620567,
          -0.0171148,
          -0.0724322,
          0.0533459,
          -0.0307958,
          0.12523,
          0.0889792,
          0.101582,
          0.00509647,
          -0.187563,
          -0.0886314,
          -0.200035,
          -0.154576,
          0.0490444,
          -0.158163,
          -0.00966307,
          -0.0678448,
          0.0395115,
          0.103866,
          0.129561,
          -0.218977,
          0.0731728,
          0.150935,
          0.0991486,
          -0.102843,
          0.0828575,
          -0.172427,
          0.0405737,
          0.0820833,
          -0.138408,
          0.00327378,
          -0.20945,
          -0.0933378,
          0.104265,
          0.0375033,
          -0.365149,
          -0.0843474,
          -0.190432,
          0.0610977,
          -0.0618273,
          -0.195506
        ],
        "coef_scale": [
          1,
          1,
          1,
          1,
          1,
          1,
          1,
          1,
          1,
          1,
          1,
          1,
          1,
          1,
          1,
          1,
          1,
          1,
          1,
          1,
          1,
          1,
          1,
          1,
          1,
          1,
          1,
          1,
          1,
          1,
          1,
          1,
          1,
          1,
          1,
          1,
          1,
          1,
          1,
          1,
          1,
          1,
          1,
          1,
          1,
          1,
          1,
          1,
          1,
          1,
          1,
          1,
          1,
          1,
          1,
          1,
          1,
          1,
          1,
          1,
          1,
          1,
          1,
          1
        ],
        "coef_zero_point": [
          0,
          0,
          0,
          0,
          0,
          0,
          0,
          0,
          0,
          0,
          0,
          0,
          0,
          0,
          0,
          0,
          0,
          0,
          0,
          0,
          0,
          0,
          0,
          0,
          0,
          0,
          0,
          0,
          0,
          0,
          0,
          0,
          0,
          0,
          0,
          0,
          0,
          0,
          0,
          0,
          0,
          0,
          0,
          0,
          0,
          0,
          0,
          0,
          0,
          0,
          0,
          0,
          0,
          0,
          0,
          0,
          0,
          0,
          0,
          0,
          0,
          0,
          0,
          0
        ],
        "bias_scale": [
          1,
          1,
          1,
          1,
          1,
          1,
          1,
          1,
          1,
          1,
          1,
          1,
          1,
          1,
          1,
          1,
          1,
          1,
          1,
          1,
          1,
          1,
          1,
          1,
          1,
          1,
          1,
          1,
          1,
          1,
          1,
          1,
          1,
          1,
          1,
          1,
          1,
          1,
          1,
          1,
          1,
          1,
          1,
          1,
          1,
          1,
          1,
          1,
          1,
          1,
          1,
          1,
          1,
          1,
          1,
          1,
          1,
          1,
          1,
          1,
          1,
          1,
          1,
          1
        ],
        "bias_zero_point": [
          0,
          0,
          0,
          0,
          0,
          0,
          0,
          0,
          0,
          0,
          0,
          0,
          0,
          0,
          0,
          0,
          0,
          0,
          0,
          0,
          0,
          0,
          0,
          0,
          0,
          0,
          0,
          0,
          0,
          0,
          0,
          0,
          0,
          0,
          0,
          0,
          0,
          0,
          0,
          0,
          0,
          0,
          0,
          0,
          0,
          0,
          0,
          0,
          0,
          0,
          0,
          0,
          0,
          0,
          0,
          0,
          0,
          0,
          0,
          0,
          0,
          0,
          0,
          0
        ],
        "input_scale": [
          1,
          1,
          1,
          1,
          1,
          1,
          1,
          1,
          1,
          1,
          1,
          1,
          1,
          1,
          1,
          1,
          1,
          1,
          1,
          1,
          1,
          1,
          1,
          1,
          1,
          1,
          1,
          1,
          1,
          1,
          1,
          1,
          1,
          1,
          1,
          1,
          1,
          1,
          1,
          1,
          1,
          1,
          1,
          1,
          1,
          1,
          1,
          1,
          1,
          1,
          1,
          1,
          1,
          1,
          1,
          1,
          1,
          1,
          1,
          1,
          1,
          1,
          1,
          1
        ],
        "input_zero_point": [
          0,
          0,
          0,
          0,
          0,
          0,
          0,
          0,
          0,
          0,
          0,
          0,
          0,
          0,
          0,
          0,
          0,
          0,
          0,
          0,
          0,
          0,
          0,
          0,
          0,
          0,
          0,
          0,
          0,
          0,
          0,
          0,
          0,
          0,
          0,
          0,
          0,
          0,
          0,
          0,
          0,
          0,
          0,
          0,
          0,
          0,
          0,
          0,
          0,
          0,
          0,
          0,
          0,
          0,
          0,
          0,
          0,
          0,
          0,
          0,
          0,
          0,
          0,
          0
        ],
        "output_scale": [
          1,
          1,
          1,
          1,
          1,
          1,
          1,
          1,
          1,
          1,
          1,
          1,
          1,
          1,
          1,
          1,
          1,
          1,
          1,
          1,
          1,
          1,
          1,
          1,
          1,
          1,
          1,
          1,
          1,
          1,
          1,
          1,
          1,
          1,
          1,
          1,
          1,
          1,
          1,
          1,
          1,
          1,
          1,
          1,
          1,
          1,
          1,
          1,
          1,
          1,
          1,
          1,
          1,
          1,
          1,
          1,
          1,
          1,
          1,
          1,
          1,
          1,
          1,
          1
        ],
        "output_zero_point": [
          0,
          0,
          0,
          0,
          0,
          0,
          0,
          0,
          0,
          0,
          0,
          0,
          0,
          0,
          0,
          0,
          0,
          0,
          0,
          0,
          0,
          0,
          0,
          0,
          0,
          0,
          0,
          0,
          0,
          0,
          0,
          0,
          0,
          0,
          0,
          0,
          0,
          0,
          0,
          0,
          0,
          0,
          0,
          0,
          0,
          0,
          0,
          0,
          0,
          0,
          0,
          0,
          0,
          0,
          0,
          0,
          0,
          0,
          0,
          0,
          0,
          0,
          0,
          0
        ],
        "input_dtype": 1,
        "input_acc": [5,10,15]
      },
      "inst_name": "/model/person/head_module/kpt_pred.1/kpt_pred.1.2/Add",
      "type_name": "Bn",
      "bottom": [
        "2Fmodel2Fperson2Fhead_module2Fkpt_pred2E12Fkpt_pred2E12E12Fpointwise_conv2Factivate2FMul_output_0"
      ],
      "top": [
        "2Fmodel2Fperson2Fhead_module2Fkpt_pred2E12Fkpt_pred2E12E22FAdd_output_0"
      ],
      "hw": 1,
      "hw_acc": [5,10,15]
    },
    {
      "inst_name": "/model/person/head_module/kpt_pred.1/kpt_pred.1.3/Conv_im_0",
      "type_name": "Conv2d",
      "bottom": [
        "2Fmodel2Fperson2Fhead_module2Fkpt_pred2E12Fkpt_pred2E12E22FAdd_output_0"
      ],
      "top": [
        "2Fmodel2Fperson2Fhead_module2Fkpt_pred2E12Fkpt_pred2E12E32FConv_output_0"
      ],
      "hw": 1,
      "hw_acc": [5,10,15],
      "param": {
        "num_output": 51,
        "bias_term": 1,
        "group": 1,
        "pad_h": 0,
        "pad_w": 0,
        "kernel_h": 1,
        "kernel_w": 1,
        "stride_h": 1,
        "stride_w": 1,
        "dilation_h": 1,
        "dilation_w": 1,
        "num_input": 64,
        "padding_mode": 0
      },
      "data": {
        "coef": [
          -0.101627,
          -0.00669415,
          -0.386677,
          -0.00082815,
          0.0380822,
          0.00255873,
          -0.0103079,
          0.0333384,
          -0.0356028,
          0.0117614,
          0.0509354,
          -0.0002914,
          -0.0396128,
          -0.13963,
          0.00777328,
          0.109664,
          0.0379036,
          -0.316146,
          0.0175538,
          -0.049516,
          -0.0118417,
          0.00312822,
          -0.443078,
          0.0432585,
          0.0139698,
          -0.102763,
          -0.552479,
          -0.00696367,
          0.476759,
          -0.0264398,
          -0.0374314,
          0.0397418,
          0.030501,
          0.0117259,
          0.00636094,
          -0.030171,
          0.0230127,
          0.413521,
          -0.536394,
          0.0284699,
          0.00727835,
          0.0085103,
          -0.0213355,
          0.0598133,
          0.0717043,
          -0.00169308,
          0.0436669,
          0.358176,
          0.0436494,
          -0.0645678,
          -0.00305636,
          -0.0302542,
          -0.0350487,
          0.0396014,
          0.00763358,
          -0.0169658,
          -0.00861837,
          0.110187,
          0.011286,
          0.0266267,
          0.00338732,
          0.321376,
          -0.0259165,
          0.00965018,
          0.0817428,
          -0.0315823,
          -0.00472223,
          -0.0130793,
          -0.0104153,
          -0.0122926,
          -0.0932585,
          0.0601295,
          -0.01151,
          -0.00878581,
          0.0585925,
          0.00392567,
          -0.0275058,
          -0.385134,
          0.177511,
          -0.0155122,
          -0.0443834,
          -0.227435,
          -0.00598894,
          0.044795,
          5.80952e-05,
          0.0220763,
          0.0189922,
          0.0128713,
          -0.00982357,
          -0.0184054,
          -0.0175636,
          -0.00141755,
          -0.0586302,
          -0.0094958,
          0.118951,
          -0.00668574,
          -0.352631,
          -0.0123246,
          -0.351439,
          0.354306,
          0.476977,
          0.064879,
          -0.0425422,
          -0.448468,
          0.03825,
          0.0523926,
          0.0374528,
          -0.0249812,
          -0.0842731,
          0.0167176,
          -0.0285101,
          -0.232992,
          0.0282567,
          0.0051921,
          -0.273467,
          0.0287666,
          0.0159802,
          -0.00145471,
          0.0166468,
          0.013219,
          0.125254,
          0.0942537,
          0.00849057,
          0.0747647,
          0.00228477,
          -0.114809,
          0.0328233,
          -0.0177331,
          0.299519,
          -0.0495227,
          0.0353683,
          -0.139541,
          -0.410913,
          -0.0178054,
          0.0718695,
          0.0191373,
          -0.0334693,
          0.060302,
          0.15856,
          0.195907,
          0.0540872,
          -0.339228,
          -0.138965,
          0.14577,
          0.54573,
          -0.0183069,
          -0.123537,
          0.166052,
          0.013213,
          -0.0719257,
          0.0811164,
          -0.0423423,
          -0.57154,
          0.433222,
          -0.0309663,
          -0.00979111,
          0.0281476,
          -0.174061,
          0.116822,
          0.0994227,
          0.189523,
          -0.107649,
          0.242306,
          -0.0624983,
          0.00689513,
          0.0682128,
          0.0119472,
          0.0483509,
          -0.0418244,
          -0.0554478,
          -0.28948,
          0.00814875,
          -0.0284117,
          -0.0112487,
          0.1258,
          -0.10909,
          0.0747543,
          0.12806,
          0.00112011,
          -0.34294,
          0.324669,
          -0.0256253,
          0.164538,
          0.0332937,
          0.249287,
          -0.16503,
          0.749298,
          -0.20055,
          0.690921,
          0.115888,
          0.0871767,
          -1.44419,
          -0.116575,
          -0.028211,
          -0.284076,
          -0.00645206,
          0.00826072,
          0.00271739,
          -0.0368828,
          -0.042474,
          -0.0293742,
          -0.00859118,
          0.0548624,
          0.00859894,
          0.00174002,
          -0.168878,
          -0.0301237,
          0.0542946,
          0.0167705,
          -0.299768,
          0.00709377,
          0.0460512,
          0.0188404,
          0.0129697,
          -0.453438,
          0.040587,
          -0.0372478,
          -0.0824999,
          -0.508483,
          0.00821087,
          0.488989,
          0.0136996,
          0.0311627,
          0.000216774,
          0.023494,
          0.00428644,
          0.0439384,
          -0.0330562,
          0.0151964,
          0.425497,
          -0.549133,
          0.0383456,
          0.0208913,
          0.0191393,
          -0.00146105,
          0.0660569,
          -0.0160912,
          0.0154227,
          -0.0370166,
          0.374314,
          0.0768072,
          -0.0622142,
          0.0607233,
          0.166506,
          0.058777,
          0.0238222,
          0.0202164,
          -0.00795036,
          0.183998,
          0.0907318,
          -0.0013256,
          0.0526933,
          0.00266442,
          0.0037988,
          -0.00523684,
          0.00127621,
          0.0277282,
          -0.00358763,
          -0.0350204,
          -0.0104292,
          -0.0142082,
          0.00424122,
          -0.0248609,
          -0.0356646,
          -0.00941122,
          -0.00792102,
          0.104557,
          0.0031916,
          -0.0146844,
          -0.396932,
          0.179232,
          -0.0175506,
          -0.0268835,
          -0.232893,
          -0.00420375,
          0.0134249,
          -0.00724317,
          -0.00154165,
          0.0141447,
          0.0138678,
          0.00878045,
          -0.00611728,
          -0.0176016,
          0.00337455,
          -0.0483505,
          0.0193806,
          -0.108323,
          0.0189883,
          -0.338707,
          -0.0153838,
          -0.38784,
          0.359975,
          0.476781,
          0.0612034,
          -0.0504114,
          -0.461993,
          0.0251732,
          0.0492211,
          0.00877026,
          -0.0212233,
          -0.0972093,
          0.00148805,
          0.0397047,
          -0.236727,
          0.00510184,
          0.00141071,
          -0.145098,
          -0.0164528,
          -0.0122365,
          -0.0042918,
          -0.00741224,
          0.00550375,
          0.165974,
          0.0460535,
          0.0171711,
          -0.00973864,
          -0.00146476,
          -0.122828,
          -0.0157475,
          0.00340369,
          0.176579,
          -0.0410509,
          -0.136622,
          -0.093124,
          -0.195382,
          -0.00942125,
          0.0250364,
          0.00378676,
          -0.0368497,
          -0.053417,
          0.0768847,
          0.142382,
          0.159492,
          -0.203783,
          -0.136011,
          0.179309,
          0.0960306,
          -0.00147595,
          -0.0855726,
          0.154945,
          -0.0111832,
          -0.0104379,
          0.117055,
          0.0084953,
          -0.431406,
          0.898844,
          -0.0522199,
          0.000810703,
          0.0584898,
          -0.0793801,
          0.0898428,
          -0.0855155,
          0.189979,
          -0.0696924,
          0.169651,
          -0.0476081,
          0.0143779,
          0.00775817,
          0.059983,
          0.0238243,
          0.00850836,
          -0.0706448,
          -0.189907,
          0.0754942,
          0.100977,
          -0.0241112,
          0.0357937,
          -0.106412,
          0.0912566,
          0.0621886,
          0.096764,
          -0.2045,
          0.606623,
          -0.124801,
          0.156115,
          0.0986555,
          0.187574,
          -0.278642,
          0.634771,
          -0.189587,
          0.321665,
          -0.12274,
          0.107636,
          -1.70765,
          -0.128351,
          0.0272698,
          -0.145198,
          0.0051086,
          0.00464891,
          0.00292709,
          0.0232283,
          0.0701073,
          -0.00444619,
          0.0235649,
          0.143449,
          -0.0140084,
          0.0119014,
          -0.120892,
          0.0144899,
          0.124529,
          0.0459821,
          -0.348719,
          0.00668992,
          -0.0149625,
          -0.0130274,
          -0.0385002,
          -0.433225,
          0.0312273,
          0.0860315,
          -0.088095,
          -0.534946,
          0.000128562,
          0.466973,
          0.00409732,
          -0.252158,
          0.0594034,
          0.0306916,
          0.0156662,
          -0.027302,
          -0.0209934,
          0.0241848,
          0.40943,
          -0.545897,
          0.0161867,
          -0.00724088,
          0.00363959,
          0.0151272,
          0.08301,
          0.128455,
          -0.0101955,
          -0.0209926,
          0.348494,
          0.000434719,
          -0.0811843,
          -0.0252773,
          -0.219042,
          -0.103837,
          0.0148343,
          -0.0135159,
          -0.0205546,
          -0.0475794,
          0.120446,
          0.0102402,
          0.00156418,
          -0.00787046,
          0.198725,
          -0.0780434,
          0.0328456,
          0.0895693,
          -0.00588084,
          -0.0385856,
          -0.00697704,
          -0.0194413,
          -0.00115661,
          -0.0220752,
          -0.0316321,
          -0.00551426,
          -0.00671371,
          0.0432957,
          0.000961366,
          -0.0436021,
          -0.39469,
          0.161857,
          0.00136897,
          -0.0581501,
          -0.229421,
          5.94717e-05,
          0.107133,
          -0.00122152,
          0.00381621,
          0.0191547,
          0.0083658,
          0.00553065,
          -0.0126947,
          -0.0126398,
          -0.00171912,
          -0.0558936,
          0.013459,
          0.134627,
          -0.0236546,
          -0.336925,
          -0.0147753,
          -0.391614,
          0.360048,
          0.480116,
          0.0537221,
          -0.0416392,
          -0.462701,
          0.0238985,
          0.0508335,
          -0.0118158,
          -0.0135339,
          -0.0392694,
          0.00959183,
          -0.072187,
          -0.241993,
          0.00246522,
          -0.00559906,
          -0.166287,
          -0.0229899,
          0.00494377,
          -0.0125596,
          -0.00480643,
          0.0104665,
          -0.0708706,
          0.0107275,
          0.0188993,
          -0.0220621,
          0.00291187,
          0.0226896,
          -0.00646447,
          0.00189921,
          0.270297,
          -0.0453628,
          -0.124163,
          -0.147514,
          -0.4487,
          -0.0082159,
          0.0520766,
          0.0355093,
          -0.122102,
          -0.0137695,
          0.0750067,
          0.153513,
          0.0569186,
          -0.294176,
          -0.155818,
          0.0999215,
          0.320846,
          0.00321348,
          -0.116723,
          0.0847154,
          -0.007723,
          -0.0829238,
          0.037309,
          0.0210406,
          -0.529729,
          -0.245369,
          0.0137579,
          -0.0259644,
          0.00987062,
          -0.171641,
          0.0816315,
          0.0989885,
          0.183734,
          -0.110751,
          0.241449,
          -0.0590753,
          0.0085988,
          0.0797372,
          0.000857162,
          0.0572228,
          -0.0271959,
          -0.0688271,
          -0.224687,
          -0.0119689,
          -0.0102215,
          0.0616772,
          0.159649,
          -0.0738248,
          0.110739,
          0.148513,
          -0.00786716,
          -0.178117,
          0.458728,
          0.0217861,
          0.181385,
          0.00547823,
          0.1789,
          -0.154601,
          0.793803,
          -0.131816,
          0.642643,
          0.161439,
          0.0698812,
          -1.57528,
          -0.0632655,
          -0.00663791,
          0.258146,
          -0.0132891,
          -0.0843214,
          0.0604263,
          -0.0398528,
          -0.0566007,
          0.0284232,
          -0.0236141,
          0.000284977,
          0.0492936,
          0.299078,
          -0.110793,
          -0.0790712,
          -0.0228713,
          0.179949,
          -0.268564,
          -0.0295377,
          0.130121,
          0.026648,
          0.0245165,
          -0.317459,
          -0.00796582,
          -0.112744,
          0.00733983,
          0.0325124,
          0.0162833,
          0.444018,
          0.0509985,
          0.390373,
          -0.379551,
          0.0138676,
          0.00463797,
          0.0426176,
          -0.0202192,
          0.0136701,
          0.313646,
          -0.439567,
          0.0190476,
          0.0395338,
          0.0270877,
          -0.0906141,
          0.179427,
          -0.652221,
          -0.037833,
          -0.0125396,
          0.281617,
          -0.222334,
          -0.157315,
          0.088058,
          0.231571,
          0.191364,
          0.00328382,
          0.0127341,
          0.00022104,
          0.141221,
          -0.0735939,
          -0.0120743,
          0.0357414,
          -0.00464517,
          -0.415472,
          -0.0110495,
          -0.00359122,
          -0.0382644,
          -0.0242762,
          -0.0368859,
          -0.0521792,
          -0.00866119,
          0.0227344,
          -0.00470276,
          0.0285319,
          -0.0147934,
          0.00761183,
          0.0594634,
          -0.000216031,
          0.0686964,
          -0.375964,
          -0.16103,
          -0.0603043,
          -0.00267197,
          -0.212873,
          0.00194287,
          -0.247,
          0.00266631,
          -0.00794359,
          0.0116898,
          -0.00777161,
          0.00708336,
          -0.0156256,
          0.0179406,
          0.00574837,
          -0.0656641,
          -0.0699476,
          -0.403567,
          0.0796741,
          -0.32876,
          -0.0329946,
          -0.375923,
          0.347197,
          0.441058,
          0.0483998,
          -0.0417262,
          -0.461419,
          0.0668415,
          0.0373295,
          0.136435,
          -0.0131174,
          -0.084718,
          -0.0140509,
          0.180525,
          -0.226623,
          -0.0089067,
          -0.00301683,
          0.31226,
          0.0166633,
          -0.0200321,
          -0.000934082,
          0.00615695,
          -0.0164786,
          0.352511,
          -0.0263,
          0.00600632,
          -0.0181388,
          -0.00609713,
          -0.126732,
          0.0197034,
          0.0256014,
          0.0331152,
          -0.0493536,
          -0.0172904,
          -0.0621182,
          -0.0928198,
          0.00686911,
          -0.0876163,
          -0.0237002,
          0.153027,
          -0.153066,
          0.0943738,
          -0.12251,
          -0.0429904,
          -0.0850061,
          0.0023886,
          0.209875,
          -0.41312,
          -0.0556512,
          -0.0311175,
          0.0961354,
          -0.103339,
          0.0913909,
          0.178569,
          0.102443,
          0.388178,
          1.22057,
          -0.258604,
          0.0549879,
          0.0458519,
          -0.100858,
          -0.076517,
          -0.187066,
          0.198607,
          0.0388244,
          0.0609753,
          -0.0509877,
          0.0351266,
          -0.0447195,
          0.0672608,
          0.0286714,
          0.074479,
          -0.0565849,
          -0.167109,
          0.1187,
          0.328572,
          -0.195192,
          -0.093484,
          -0.099292,
          -0.0784775,
          -0.0197578,
          -0.0358267,
          0.2192,
          0.40376,
          -0.23834,
          0.132624,
          0.187853,
          0.0498979,
          -0.195972,
          0.589464,
          -0.0655539,
          -0.107622,
          -0.45565,
          0.0223396,
          -1.6159,
          0.0206731,
          0.0518376,
          0.312694,
          0.0450557,
          -0.0700908,
          -0.0406538,
          0.0450414,
          0.077074,
          -0.00117959,
          0.00409046,
          0.198947,
          0.00366597,
          0.245941,
          0.0316784,
          -0.0588341,
          0.409027,
          -0.389825,
          -0.391427,
          0.00315269,
          0.0560904,
          -0.017863,
          -0.102814,
          -0.315366,
          -0.0237606,
          0.125015,
          -0.0165894,
          0.0404705,
          0.00389768,
          0.381759,
          0.0183748,
          -0.274104,
          -0.0284473,
          0.0199861,
          0.000690821,
          -0.0558812,
          -0.0146533,
          0.0053688,
          0.307807,
          -0.507035,
          -0.00094011,
          -0.0334956,
          -0.0597884,
          0.148218,
          0.218534,
          0.039632,
          -0.0214762,
          0.30061,
          0.272587,
          0.297249,
          -0.196248,
          -0.0287338,
          -0.262461,
          -0.131627,
          -0.0463738,
          -0.012706,
          -0.0411079,
          -0.363341,
          -0.0406512,
          -0.0177485,
          -0.0391765,
          -0.0356368,
          -0.258916,
          0.0426246,
          0.0356289,
          0.0206961,
          -0.0299703,
          -0.0374763,
          -0.0403935,
          -0.0186374,
          0.0118382,
          0.000392874,
          0.00672705,
          -0.0126703,
          0.0148284,
          -0.039176,
          -0.00514635,
          -0.0658361,
          -0.393914,
          -0.179645,
          0.0573789,
          -0.0599002,
          -0.191775,
          0.00528301,
          0.115051,
          0.0147144,
          0.0118082,
          0.0105328,
          0.00197965,
          0.00285324,
          0.0119469,
          -0.016723,
          0.00436995,
          -0.0526448,
          -0.0467608,
          0.376664,
          -0.0678375,
          -0.319679,
          -0.0288715,
          -0.383006,
          0.34494,
          0.449711,
          0.0423405,
          -0.0275854,
          -0.459541,
          0.0615573,
          0.0352393,
          0.138869,
          -0.0103449,
          0.119901,
          -0.0124279,
          -0.244608,
          -0.22849,
          0.0126765,
          -0.00764574,
          0.27168,
          0.00990014,
          0.0230354,
          -0.0112557,
          0.00742069,
          0.000437824,
          -0.408742,
          -0.119323,
          0.000419406,
          -0.0461197,
          -0.0024415,
          0.210381,
          0.0150812,
          0.0237818,
          0.131059,
          -0.0658988,
          -0.355993,
          -0.13533,
          -0.554775,
          -0.00537693,
          -0.0532219,
          0.11822,
          -0.206514,
          -0.0776062,
          -0.0393297,
          -0.0743307,
          -0.100489,
          -0.141239,
          -0.141469,
          0.063161,
          -0.180377,
          -0.056314,
          -0.0129483,
          0.133218,
          -0.0366785,
          -0.00688386,
          -0.0207942,
          0.114918,
          0.181363,
          -0.755423,
          0.134244,
          -0.0641292,
          -0.0250158,
          -0.278909,
          -0.251179,
          0.0605114,
          0.173577,
          -0.0533192,
          0.214406,
          -0.0832658,
          0.0021792,
          0.122603,
          -0.0498786,
          0.0941279,
          0.00657777,
          -0.079912,
          -0.188406,
          -0.0884788,
          -0.296925,
          -0.046544,
          0.337695,
          -0.052904,
          -0.0221441,
          0.192854,
          -0.191338,
          0.207434,
          0.209659,
          0.152668,
          0.198315,
          0.046026,
          0.151851,
          -0.00177924,
          0.929667,
          0.045477,
          0.427946,
          0.405335,
          0.141557,
          -1.50774,
          0.151023,
          0.013874,
          0.280344,
          0.00162258,
          0.0477315,
          0.041052,
          -0.0354535,
          0.100723,
          0.0763657,
          -0.0647713,
          -0.110471,
          0.00470487,
          0.360465,
          0.0229606,
          0.0356481,
          -0.0834481,
          0.325906,
          -0.280347,
          0.049692,
          -0.0548055,
          -0.0696219,
          -0.00830545,
          -0.126019,
          0.00538163,
          -0.265275,
          0.0810668,
          -0.0737059,
          0.0462181,
          0.334905,
          -0.0117922,
          0.185538,
          -0.360206,
          0.0129756,
          0.0257258,
          0.0216535,
          -0.0116899,
          0.0221448,
          0.170213,
          -0.263675,
          0.00518276,
          0.0493599,
          0.0316201,
          -0.0872086,
          0.327398,
          -0.288431,
          -0.350787,
          0.114532,
          0.154269,
          -0.575501,
          -0.310526,
          -0.127317,
          0.690702,
          0.340339,
          -0.0381966,
          0.00814321,
          0.0204184,
          -0.342137,
          -0.438582,
          0.000601752,
          -0.0222584,
          0.00228727,
          -0.178432,
          0.0862749,
          0.0159789,
          -0.135128,
          -0.145383,
          0.122086,
          -0.115836,
          0.0332102,
          -0.016283,
          -0.117931,
          0.473396,
          0.0097527,
          -0.000221403,
          -0.024858,
          -0.00269594,
          0.0546063,
          -0.190225,
          -0.420057,
          -0.111097,
          0.153295,
          -0.209919,
          0.0854193,
          -0.409389,
          -0.0212836,
          -0.0184491,
          -0.011568,
          0.0354896,
          0.0276446,
          0.0171574,
          -0.0169717,
          -0.0578336,
          -0.033239,
          -0.243951,
          -0.210722,
          0.12036,
          -0.316422,
          0.0234974,
          -0.192668,
          0.252307,
          0.32673,
          0.0621922,
          -0.0274997,
          -0.35283,
          0.102061,
          -0.112988,
          -0.0795416,
          -0.0300574,
          -0.124609,
          0.0421796,
          0.431538,
          -0.158769,
          0.0814504,
          0.0475038,
          0.577955,
          0.0889306,
          -0.00887241,
          0.0118055,
          0.126614,
          -0.0302386,
          0.154239,
          0.0157178,
          -0.0117993,
          0.232877,
          0.00748602,
          -0.247913,
          0.255463,
          -0.0159668,
          0.0652792,
          -0.0055179,
          -0.223971,
          0.00550693,
          0.0522827,
          0.0706909,
          -0.050172,
          0.103357,
          0.037864,
          -0.0782434,
          0.232551,
          -0.0544139,
          -0.57055,
          -0.179361,
          0.0434818,
          0.299541,
          -0.422372,
          0.0709331,
          -0.0186201,
          0.0272943,
          -0.0289429,
          0.112523,
          0.136061,
          0.117834,
          0.233748,
          0.826628,
          -0.0103457,
          0.0331958,
          0.120409,
          0.0555533,
          -0.420456,
          -0.255661,
          0.0605855,
          -0.173898,
          0.215766,
          -0.114105,
          0.100725,
          0.0147404,
          0.00531674,
          0.0346096,
          0.018692,
          0.0619898,
          -0.564127,
          0.0737225,
          0.109367,
          -0.546168,
          0.0347235,
          0.0241231,
          -0.138469,
          0.108545,
          -0.159008,
          -0.0571971,
          0.401877,
          -0.0983276,
          0.197586,
          0.187059,
          0.321884,
          -0.184094,
          1.05344,
          0.0172126,
          1.44497,
          0.259767,
          -0.164841,
          -0.859765,
          0.36419,
          0.0502231,
          0.246528,
          0.0178942,
          0.28511,
          -0.0471148,
          0.000226141,
          -0.121492,
          0.0296624,
          0.0504117,
          0.00236912,
          0.00287753,
          0.243816,
          0.0989226,
          -0.032409,
          0.246709,
          -0.390094,
          -0.330868,
          -0.00989925,
          -0.0542877,
          0.046004,
          -0.105548,
          -0.132373,
          -0.0388233,
          0.253197,
          0.0774867,
          -0.0315222,
          -0.0286203,
          0.314861,
          0.0486126,
          0.403516,
          0.162129,
          -0.00875587,
          0.00221761,
          -0.0235247,
          -0.0102496,
          0.00379334,
          0.154248,
          -0.278059,
          0.0155242,
          -0.0400782,
          -0.0979264,
          0.0808696,
          0.314172,
          0.110225,
          -0.291288,
          0.199841,
          0.141986,
          0.538172,
          -0.319993,
          -0.0283719,
          -0.555591,
          -0.391939,
          -0.0576045,
          -0.00494597,
          -0.00737472,
          -0.203595,
          -0.3869,
          -0.0230643,
          0.0100034,
          -0.0492752,
          -0.304894,
          0.0509398,
          -0.0181024,
          0.0492405,
          -0.144469,
          -0.000576465,
          -0.104451,
          -0.0199168,
          -0.0393057,
          -0.0951312,
          0.44413,
          -0.0108643,
          0.00190484,
          -0.269199,
          0.0067831,
          -0.0682102,
          -0.192281,
          -0.441971,
          0.0760754,
          0.119707,
          -0.178248,
          -0.0514416,
          0.207704,
          0.0218282,
          0.0300022,
          0.0300246,
          0.00354268,
          0.000329035,
          -0.0125605,
          0.0113826,
          0.056956,
          -0.0743443,
          -0.235225,
          0.311557,
          -0.135854,
          -0.311811,
          0.0183561,
          -0.192828,
          0.250905,
          0.326,
          0.0329025,
          0.00919519,
          -0.347265,
          0.0909073,
          -0.120685,
          -0.0786719,
          0.00189383,
          0.262279,
          0.0542521,
          -0.398793,
          -0.181001,
          0.0850107,
          -0.00508177,
          0.538244,
          0.0600117,
          0.0285043,
          0.0220072,
          0.126344,
          0.0268379,
          -0.360512,
          0.000310445,
          0.00304126,
          0.180725,
          0.0141578,
          0.120476,
          0.297666,
          -0.011768,
          0.0911874,
          -0.00158155,
          -0.0851722,
          -0.077353,
          -1.31725,
          0.0887811,
          0.0200656,
          0.134591,
          -0.00607185,
          -0.110628,
          0.156403,
          -0.023737,
          -0.055682,
          -0.11592,
          -0.0709658,
          -0.0799121,
          -0.227029,
          -0.0433207,
          0.047954,
          0.165352,
          -0.103659,
          -0.196859,
          0.152261,
          0.0802562,
          0.14659,
          0.180149,
          0.0795425,
          0.110187,
          0.0781319,
          -0.0197787,
          0.0684069,
          0.26846,
          0.0570313,
          -0.182365,
          0.28341,
          -0.13155,
          0.0970723,
          0.0309811,
          -0.0468331,
          0.0758504,
          0.033304,
          0.0725499,
          -0.576554,
          0.0993767,
          -0.15821,
          -0.263382,
          0.159781,
          -0.0202348,
          -0.141813,
          0.068995,
          -0.158814,
          -0.0237049,
          0.320146,
          -0.0791239,
          0.249449,
          0.0427597,
          -0.0883303,
          0.0408003,
          1.19889,
          -0.0286042,
          1.5716,
          -0.172809,
          -0.0258863,
          -0.835872,
          0.206256,
          -0.0167233,
          0.0293649,
          0.0441408,
          0.199207,
          0.0632101,
          -0.216951,
          0.161571,
          -0.0641937,
          -0.0847223,
          -0.0977905,
          -0.424044,
          0.192532,
          0.025616,
          0.08616,
          -0.293657,
          0.280014,
          -0.196314,
          0.0491971,
          -0.098905,
          -0.608675,
          0.381226,
          -0.00478372,
          0.0218241,
          -0.372055,
          0.154789,
          -0.00112747,
          0.191078,
          0.149825,
          0.024225,
          -0.085611,
          -0.235028,
          -0.0107542,
          0.031297,
          0.0724894,
          -0.0145314,
          0.0138219,
          0.0754161,
          -0.0480001,
          0.0179948,
          0.0875509,
          0.00580429,
          -0.0433052,
          0.329996,
          -0.0876267,
          -0.61846,
          0.103563,
          0.0600761,
          -0.471993,
          -0.3906,
          -0.171597,
          0.468138,
          0.332501,
          0.0963775,
          0.0103751,
          0.0882921,
          -0.415952,
          -0.52933,
          -0.0377579,
          0.136523,
          0.057666,
          0.272869,
          0.0653306,
          0.0202245,
          -0.149133,
          -0.226084,
          0.197896,
          -0.0550188,
          0.00928552,
          0.000675002,
          -0.079203,
          0.371793,
          0.162129,
          -0.0281707,
          0.127829,
          0.0413664,
          -0.0231154,
          0.00518225,
          -0.197731,
          -0.158098,
          0.0490067,
          -0.234155,
          0.224369,
          -0.403176,
          -0.0975038,
          -0.155114,
          -0.0143506,
          0.0783738,
          0.0282657,
          0.0779778,
          -0.0241188,
          -0.302929,
          0.0541757,
          0.276655,
          -0.0295118,
          0.177554,
          -0.269954,
          0.204901,
          -0.0448021,
          0.149547,
          0.188388,
          0.0638394,
          -0.0400167,
          -0.195748,
          -0.424834,
          0.125202,
          -0.371197,
          -0.0149551,
          -0.255256,
          0.0286605,
          0.465761,
          -0.108285,
          -0.00123179,
          0.0761982,
          0.369512,
          0.0844931,
          0.0595552,
          0.0874219,
          0.22838,
          -0.0277338,
          0.000792886,
          0.0844375,
          -0.0453342,
          0.541296,
          0.0513382,
          -0.328921,
          0.375241,
          -0.00527057,
          -0.112707,
          0.089402,
          -0.627537,
          0.0742996,
          0.385166,
          -0.0183957,
          0.0080834,
          0.171294,
          -0.0308365,
          0.0727139,
          0.167348,
          0.0941717,
          -0.144078,
          -0.106058,
          0.349451,
          0.445763,
          -0.339167,
          0.134135,
          0.0616661,
          -0.166303,
          0.0772364,
          0.257744,
          0.157255,
          0.0303958,
          0.165963,
          1.15757,
          0.0484026,
          0.0404601,
          -0.0064667,
          0.0347753,
          -0.439268,
          -0.501425,
          -0.0184359,
          0.00104307,
          0.107635,
          -0.0420499,
          0.0401751,
          -0.13515,
          0.051106,
          -0.0230951,
          0.0558553,
          -0.0556323,
          -0.409591,
          0.232266,
          0.219454,
          -0.561457,
          -0.11449,
          -0.0379569,
          -0.141624,
          -0.0269601,
          0.0164897,
          -0.261651,
          0.192145,
          0.0731978,
          0.079312,
          0.136458,
          0.277015,
          -0.0709762,
          0.752992,
          0.101334,
          0.909329,
          0.323773,
          -0.629148,
          -0.518016,
          0.351446,
          0.0713302,
          -0.106777,
          -0.018537,
          0.583794,
          -0.0905543,
          0.0924425,
          -0.157565,
          -0.134057,
          0.0852272,
          -0.150752,
          0.418481,
          0.085144,
          0.0931473,
          -0.033495,
          0.345079,
          -0.142089,
          -0.216323,
          -0.266184,
          0.10195,
          -0.226244,
          0.148526,
          -0.0151481,
          -0.0690929,
          0.226319,
          0.0942323,
          0.00260868,
          -0.200199,
          0.140895,
          0.0460765,
          0.464423,
          0.583742,
          -0.0199562,
          -0.00898841,
          -0.0341274,
          0.00334899,
          0.0158738,
          0.0410812,
          -0.0830574,
          0.00649415,
          -0.014581,
          -0.0576755,
          0.0631291,
          0.34764,
          -0.102493,
          -0.423548,
          0.191508,
          0.0592382,
          0.404722,
          -0.405111,
          0.0257574,
          -0.375254,
          -0.429798,
          0.0874123,
          -0.0276208,
          -0.0260021,
          -0.0574765,
          -0.415021,
          0.0262261,
          0.0025012,
          -0.0992219,
          -0.160294,
          0.0997496,
          -0.0341032,
          0.109249,
          -0.224903,
          0.00265153,
          -0.0435055,
          0.00627979,
          -0.0185469,
          -0.0291736,
          0.344692,
          0.0836098,
          -0.0221726,
          -0.299924,
          0.0473741,
          -0.194492,
          -0.0123892,
          -0.262715,
          0.0967769,
          0.0257728,
          -0.192078,
          -0.319941,
          0.401853,
          -0.0177357,
          -0.00541021,
          0.0384605,
          0.0264827,
          0.00892898,
          -0.0528106,
          0.00182232,
          0.15578,
          -0.0159495,
          0.233676,
          0.0609405,
          -0.203719,
          -0.268334,
          0.193554,
          -0.0462281,
          0.153304,
          0.190964,
          0.027951,
          0.0354494,
          -0.193367,
          -0.453086,
          0.121547,
          -0.353376,
          0.0162378,
          0.140161,
          0.0422027,
          -0.469033,
          -0.142305,
          0.0279059,
          0.00924306,
          0.339141,
          -0.0182002,
          0.120022,
          0.158602,
          0.231572,
          0.0473699,
          -0.175274,
          0.177356,
          -0.000385762,
          0.476349,
          0.0573099,
          0.224329,
          0.467688,
          0.0143796,
          -0.131456,
          0.0849627,
          0.212812,
          -0.0839251,
          -1.06785,
          0.0202127,
          0.155428,
          0.217634,
          0.168802,
          0.206961,
          -0.0092921,
          0.145473,
          0.554274,
          -0.123431,
          0.179069,
          -0.275926,
          -0.121621,
          -0.0167349,
          0.0117219,
          0.214977,
          0.0494237,
          -0.127815,
          0.0979483,
          -0.136793,
          -0.00900127,
          -0.666946,
          -0.0237675,
          0.119804,
          -0.0720992,
          -0.0939873,
          0.235572,
          0.391962,
          0.0100311,
          -0.0282437,
          0.198758,
          -0.0725825,
          0.038846,
          -0.0527734,
          -0.0634281,
          0.0383825,
          0.004684,
          -0.0795776,
          -0.380449,
          0.180275,
          -0.136029,
          -0.156753,
          0.0847113,
          -0.0881657,
          -0.1667,
          0.0541968,
          -0.0543724,
          -0.0917967,
          -0.0753862,
          -0.0332426,
          0.153877,
          -0.0252647,
          -0.289464,
          0.133398,
          1.06182,
          0.017919,
          1.32734,
          0.0370551,
          -0.557917,
          -0.423082,
          0.0391882,
          -0.028491,
          -0.183909,
          -0.100771,
          -0.0164773,
          0.0487714,
          0.0204966,
          0.0604546,
          -0.149117,
          -0.011888,
          -0.0603327,
          -0.77646,
          0.00694805,
          -0.0297405,
          0.0399604,
          -0.0319479,
          0.102745,
          -0.12128,
          0.109434,
          0.00405598,
          -0.63198,
          0.923468,
          0.0127452,
          -0.0885816,
          -0.408208,
          -0.11517,
          0.0640954,
          0.234029,
          0.0294439,
          -0.0269443,
          0.0201165,
          0.0163204,
          -0.00538105,
          -0.0288431,
          0.0714093,
          -0.0198329,
          0.00662331,
          0.0378141,
          -0.00163512,
          0.0275213,
          0.129218,
          0.0435092,
          0.00401265,
          0.283013,
          -0.280241,
          -0.216396,
          0.015098,
          0.0158162,
          0.188406,
          -0.395832,
          -0.0790768,
          -0.370722,
          0.160224,
          0.0918536,
          0.0271126,
          0.0012512,
          -0.0583706,
          0.151492,
          0.051361,
          -0.0531467,
          0.0671042,
          0.131352,
          0.0766618,
          0.0447916,
          -0.0176126,
          -0.280671,
          0.0429217,
          -0.399729,
          0.0612413,
          0.00189371,
          0.765284,
          0.00962692,
          -0.0405876,
          -0.00706676,
          0.104536,
          0.0222338,
          0.0167743,
          -0.0375508,
          0.038383,
          0.0187575,
          -0.116648,
          -0.146441,
          0.490038,
          -0.20368,
          -0.0571806,
          0.0336027,
          -0.010992,
          -0.000189504,
          0.0320076,
          0.0841838,
          -0.031597,
          -0.512796,
          0.0067857,
          0.142793,
          0.0270702,
          0.0254586,
          -0.214783,
          0.0662007,
          -0.0213385,
          0.110254,
          -0.00491442,
          0.0165713,
          -0.00401063,
          -0.101431,
          -0.391775,
          0.124006,
          -0.0764103,
          0.0210179,
          -0.094453,
          0.053807,
          0.103457,
          -0.0947934,
          -0.0441156,
          0.0434561,
          -0.0597893,
          -0.034064,
          0.0820893,
          -0.00662437,
          0.274927,
          -0.0435987,
          -0.0101098,
          0.078222,
          -0.0309546,
          0.656403,
          -0.0109774,
          -0.11449,
          0.12618,
          -0.0211818,
          -0.0558743,
          0.0896043,
          -0.563452,
          -0.0120939,
          0.291392,
          -0.0551946,
          -0.125793,
          0.173867,
          -0.0341188,
          0.0398915,
          0.113519,
          0.220899,
          0.145205,
          -0.162983,
          0.387707,
          0.293486,
          0.0368776,
          0.112565,
          -0.066803,
          -0.112754,
          0.118002,
          0.272642,
          0.143149,
          -0.114119,
          -0.15136,
          1.03453,
          -0.0101338,
          0.037573,
          -0.0999698,
          -0.0856743,
          -0.109668,
          -0.465286,
          -0.0318448,
          -0.0111777,
          0.168113,
          -0.0428538,
          0.0112774,
          -0.124942,
          0.055272,
          -0.00594426,
          0.17235,
          -0.0585197,
          -0.346909,
          0.24151,
          0.283675,
          -0.380743,
          -0.0564068,
          -0.0907088,
          -0.016152,
          0.0407177,
          0.185456,
          -0.236027,
          -0.0266976,
          0.122567,
          0.0851751,
          0.103071,
          0.227594,
          -0.0533728,
          0.778894,
          0.238013,
          0.860042,
          0.092471,
          -0.78273,
          -0.221134,
          0.0104134,
          0.0607246,
          -0.253935,
          0.0823877,
          -0.0376373,
          -0.0761654,
          0.00362714,
          -0.15522,
          -0.0815413,
          0.0184921,
          -0.0586971,
          0.801043,
          -0.0563833,
          -0.0326125,
          -0.0192134,
          0.224754,
          0.0349566,
          -0.10642,
          -0.645795,
          0.0938042,
          -0.482041,
          0.706508,
          0.0162434,
          -0.039384,
          0.19656,
          -0.149164,
          0.0520316,
          -0.589794,
          0.0039814,
          0.0466946,
          0.0389383,
          0.261589,
          0.00913209,
          -0.0102688,
          -0.0286114,
          0.00676503,
          0.00161842,
          0.0153213,
          -0.0146135,
          0.0142055,
          -0.0662209,
          -0.0125851,
          0.00372176,
          0.319158,
          -0.0521724,
          -0.207562,
          0.181985,
          0.0179793,
          -0.127812,
          -0.40827,
          0.09755,
          0.0132997,
          -0.21273,
          0.159706,
          -0.0343339,
          0.0217243,
          0.0332555,
          0.0670534,
          0.0542914,
          -0.0267428,
          -0.01723,
          0.0620916,
          0.138018,
          -0.0103503,
          0.0719087,
          -0.256531,
          0.00265745,
          -0.382291,
          0.0519018,
          0.00787529,
          0.824211,
          -0.0267542,
          -0.0123408,
          0.00260328,
          -0.0579193,
          0.00525735,
          -0.00170027,
          -0.00849624,
          0.0209594,
          -0.0075869,
          -0.078401,
          -0.165607,
          -0.501367,
          0.141841,
          0.0312547,
          -0.0143689,
          0.0238998,
          -0.0203056,
          0.027778,
          -0.0605309,
          0.0446606,
          0.486458,
          0.00513295,
          0.0926522,
          -0.0314717,
          -0.0651013,
          -0.211783,
          0.0647071,
          -0.0187918,
          0.11314,
          -0.0220769,
          0.0132347,
          -0.0188101,
          -0.0978028,
          -0.409914,
          0.126169,
          -0.0556648,
          0.0348097,
          0.0923066,
          0.0745185,
          -0.256192,
          -0.115262,
          -0.0538771,
          0.02552,
          -0.0768057,
          -0.071404,
          0.0618983,
          -0.0135913,
          0.264262,
          0.00875991,
          -0.0175835,
          0.074042,
          0.00473993,
          0.608314,
          -0.000453662,
          0.00684557,
          0.164403,
          -0.00449401,
          -0.0504445,
          0.0777157,
          0.100904,
          -0.134845,
          -0.554556,
          -0.0194894,
          -0.0233672,
          0.234368,
          0.155692,
          0.174611,
          -0.0286497,
          0.233179,
          0.65609,
          -0.173332,
          0.216362,
          -0.187926,
          0.172687,
          -0.0202227,
          -0.0415293,
          0.248497,
          0.0627779,
          -0.0385772,
          0.086309,
          -0.26954,
          -0.28207,
          -0.539532,
          -0.00665633,
          0.0307387,
          -0.149044,
          -0.199152,
          0.296801,
          0.221348,
          -0.00862516,
          -0.0241026,
          0.232452,
          -0.0621881,
          -0.00242473,
          -0.0601767,
          -0.0383798,
          0.0441158,
          0.107813,
          -0.0907235,
          -0.288091,
          0.182161,
          -0.0976056,
          -0.0527126,
          0.0893927,
          -0.109713,
          -0.0150651,
          0.120574,
          0.100248,
          -0.0668442,
          -0.24759,
          0.00874893,
          0.138555,
          -0.0213104,
          -0.151945,
          0.036218,
          0.970914,
          0.18466,
          1.12504,
          0.0281895,
          -0.650704,
          -0.13497,
          0.615545,
          0.019204,
          -0.278445,
          -0.0168116,
          -0.170774,
          -0.0302965,
          0.000642401,
          -0.0602603,
          0.274277,
          0.0142717,
          -0.692465,
          0.0794748,
          0.203636,
          -0.00706407,
          -0.0262985,
          -0.0180557,
          0.299537,
          -0.153863,
          0.051928,
          -0.26807,
          0.0658763,
          -0.076041,
          -0.0252726,
          -0.332558,
          -0.170049,
          0.0428505,
          -0.0135082,
          0.00521289,
          0.130918,
          0.0101302,
          0.00878755,
          -0.26871,
          0.0118886,
          -0.00400531,
          0.00454286,
          -0.00148393,
          0.00621335,
          0.0589848,
          -0.0710439,
          0.000571714,
          0.0266549,
          0.0880252,
          -0.0229934,
          0.420267,
          -0.106212,
          -0.216239,
          0.277116,
          0.0906689,
          -0.43367,
          -0.449862,
          -0.0795276,
          0.415239,
          0.205853,
          -0.278045,
          0.000218956,
          0.276648,
          -0.142905,
          0.0424599,
          0.0222405,
          -0.100562,
          -0.0298073,
          0.408054,
          0.192358,
          0.0106339,
          -0.0920769,
          -0.360201,
          0.180022,
          0.0542889,
          0.158333,
          -0.00796659,
          -0.118947,
          0.105415,
          0.156028,
          -0.0194152,
          -0.183625,
          -0.0138289,
          0.003226,
          0.0651181,
          -0.0519345,
          -0.0453083,
          0.238245,
          -0.193657,
          0.0553876,
          -0.257201,
          0.0147671,
          -0.0102344,
          -0.00656036,
          0.022538,
          0.0085887,
          0.0202067,
          -0.0189715,
          -0.00872154,
          0.00377868,
          0.207802,
          -0.0200547,
          0.0956488,
          -0.238092,
          0.526439,
          -0.000852559,
          0.107905,
          0.160351,
          0.0358904,
          -0.00255641,
          -0.159514,
          0.0990832,
          -0.697209,
          -0.363212,
          0.0193175,
          -0.0884163,
          0.111093,
          0.100141,
          -0.0931595,
          0.156065,
          0.0615347,
          0.353842,
          0.0933682,
          -0.0527484,
          0.145946,
          0.418259,
          -0.0499128,
          -0.0569611,
          0.205864,
          -0.0143891,
          0.342167,
          0.131013,
          -0.30615,
          0.416547,
          -0.0311897,
          0.0994682,
          -0.00244962,
          -0.523134,
          0.0147013,
          -0.1104,
          0.100031,
          0.141132,
          0.500596,
          -0.20965,
          -0.153626,
          0.157835,
          -0.0363646,
          -0.139932,
          -0.177052,
          0.0850454,
          0.246263,
          -0.304231,
          0.053218,
          -0.0591286,
          -0.0769862,
          -0.112566,
          0.116267,
          0.0480924,
          -0.0079129,
          0.224101,
          0.573256,
          0.0608153,
          0.138078,
          0.176107,
          -0.292114,
          -0.364691,
          -0.176338,
          0.179623,
          0.146332,
          0.0640975,
          -0.129333,
          0.022217,
          -0.00017192,
          0.0235059,
          0.0388145,
          0.0635444,
          0.073922,
          -0.455883,
          0.0390245,
          0.135381,
          -0.194822,
          0.0845764,
          0.00530117,
          -0.108108,
          0.157312,
          -0.192608,
          0.0505687,
          0.197482,
          -0.0725762,
          0.25632,
          0.236098,
          0.127552,
          -0.413401,
          1.53511,
          -0.187164,
          0.526553,
          0.0237436,
          -0.78333,
          0.0474426,
          0.732691,
          0.0323898,
          -0.251214,
          0.017524,
          -0.0232046,
          0.0386583,
          0.0395866,
          -0.106214,
          0.2268,
          -0.0188887,
          -0.666862,
          -0.0571045,
          0.0815442,
          0.058502,
          -0.0206984,
          0.103259,
          -0.357505,
          -0.178349,
          0.066334,
          -0.205772,
          0.126566,
          -0.146309,
          -0.0478076,
          -0.324629,
          0.155141,
          0.0393101,
          0.0161094,
          -0.00537373,
          0.12946,
          -0.0455996,
          0.185397,
          0.03412,
          -0.0181301,
          -0.0484712,
          -0.001064,
          -0.00711376,
          0.0142506,
          0.0539365,
          -0.100603,
          0.0105658,
          -0.0331275,
          0.00765501,
          0.0172908,
          0.401264,
          -0.0196246,
          -0.143955,
          0.224432,
          0.101504,
          0.360088,
          -0.431816,
          0.0130378,
          -0.455649,
          -0.198456,
          -0.294572,
          0.00125057,
          0.248201,
          0.0109052,
          0.0882197,
          0.00511789,
          -0.0736941,
          -0.0411629,
          0.309037,
          0.218214,
          -0.0213019,
          -0.0123181,
          -0.360361,
          0.0695567,
          0.0590057,
          0.104397,
          -0.0180725,
          -0.103617,
          0.117595,
          0.101988,
          -0.0191767,
          -0.314822,
          -0.00822789,
          -0.0846715,
          0.0465391,
          -0.0653036,
          0.0795355,
          0.238999,
          -0.166165,
          0.0143109,
          0.00573623,
          0.0319051,
          0.0117662,
          0.00479473,
          -0.0119932,
          -0.0103447,
          -0.0129946,
          0.0174192,
          0.0234035,
          -0.0165766,
          0.184834,
          0.144127,
          -0.0327511,
          -0.239999,
          0.515224,
          0.00329771,
          0.109101,
          0.162436,
          0.0279524,
          0.0164235,
          -0.158797,
          0.0936648,
          -0.690852,
          -0.361608,
          0.0234834,
          0.0385215,
          0.146191,
          -0.268014,
          -0.0967407,
          0.178737,
          0.0428829,
          0.353862,
          0.0543694,
          -0.0279313,
          0.194528,
          0.41779,
          -0.00185446,
          -0.215058,
          0.293145,
          -0.00241887,
          0.3182,
          0.138551,
          -0.126783,
          0.444462,
          -0.0251352,
          0.027595,
          0.00464975,
          -0.315599,
          -0.0375732,
          -0.813266,
          0.145778,
          0.186629,
          0.514678,
          -0.105803,
          -0.144727,
          0.2207,
          -0.0044974,
          0.109902,
          -0.117039,
          -0.00251706,
          0.0255232,
          -0.256264,
          -0.0228428,
          -0.0164427,
          0.140455,
          -0.129022,
          -0.00454408,
          0.0824364,
          -0.0491636,
          0.152663,
          0.0636435,
          0.128627,
          0.125794,
          0.126522,
          -0.348665,
          -0.0705035,
          0.0882473,
          0.18431,
          0.146538,
          0.0800743,
          -0.142629,
          0.0171583,
          -0.0200867,
          -0.0145563,
          0.0489685,
          0.0461739,
          0.0501307,
          -0.449269,
          0.0889578,
          0.0138957,
          -0.0788575,
          0.0688658,
          -0.0112507,
          -0.118268,
          0.135026,
          -0.204007,
          0.0903718,
          0.142404,
          -0.184155,
          0.2939,
          0.147927,
          -0.120088,
          -0.344304,
          1.66204,
          -0.225243,
          0.629322,
          -0.100987,
          -0.757998,
          0.0820861,
          0.0805399,
          0.0273537,
          0.0155226,
          -0.0107711,
          -0.11146,
          -0.396951,
          0.0241684,
          -0.0456112,
          -0.46737,
          0.465899,
          -0.24324,
          0.0941088,
          0.0488917,
          0.00143245,
          -0.0836281,
          -0.187045,
          0.0481169,
          -0.0942329,
          0.0054897,
          -0.161663,
          0.0684498,
          -0.0785411,
          0.0124339,
          -0.599626,
          -0.123424,
          -0.117888,
          0.0343714,
          -0.0369543,
          0.0660746,
          -0.046569,
          0.253343,
          -0.117181,
          0.00787669,
          0.0173383,
          -0.00172218,
          0.00271079,
          0.00347552,
          0.0226507,
          -0.0432191,
          -0.00900914,
          -0.0146436,
          0.0510343,
          -0.0136351,
          0.40189,
          -0.0141025,
          -0.218901,
          0.118362,
          0.0591423,
          -0.398624,
          -0.4721,
          -0.0360256,
          0.0395406,
          0.345711,
          0.590248,
          -0.00383434,
          0.590717,
          -0.295206,
          0.0364622,
          0.0544315,
          -0.0819,
          -0.0193997,
          0.307452,
          0.114236,
          -0.00503653,
          -0.0242011,
          -0.483297,
          0.142271,
          0.345719,
          0.0241576,
          -0.028822,
          0.141334,
          -0.383309,
          -0.518266,
          -0.0564307,
          -0.040935,
          -0.00453051,
          -0.0196414,
          0.0906111,
          0.0875589,
          -0.123317,
          0.212537,
          -0.157299,
          0.0124508,
          -0.0779114,
          0.0254801,
          -0.0013015,
          0.00165096,
          0.017737,
          0.0181109,
          0.0540948,
          -0.0440292,
          -0.0119966,
          0.0622971,
          -0.375006,
          0.0164737,
          0.083103,
          -0.0364982,
          0.749758,
          -0.0755462,
          0.0184474,
          0.0964988,
          0.0164117,
          0.00113442,
          -0.0614964,
          -0.0629277,
          -0.224445,
          -0.155141,
          0.0179191,
          -0.0926049,
          0.000858959,
          0.187745,
          -0.0500443,
          0.0474736,
          0.0283482,
          0.0993652,
          0.113372,
          -0.0412453,
          -0.482485,
          0.607767,
          -0.0135375,
          -0.0766557,
          0.157607,
          0.0517378,
          -0.0642201,
          0.0775907,
          -0.254654,
          -0.0690014,
          -0.0439524,
          0.121394,
          0.0754708,
          -0.475971,
          -0.00789843,
          -0.0258474,
          -0.0843504,
          0.0642759,
          0.460119,
          0.173642,
          -0.11742,
          0.092178,
          -0.0201495,
          -0.0573125,
          -0.0701531,
          0.0542551,
          0.232588,
          -0.0153044,
          -0.0105665,
          -0.0526746,
          0.0218866,
          -0.183179,
          0.0329226,
          0.0653992,
          -0.0248294,
          0.12257,
          0.308754,
          0.0901962,
          0.0354791,
          0.0642235,
          -0.408444,
          -0.375063,
          -0.189375,
          0.184145,
          -0.196349,
          -0.0261525,
          -0.131173,
          0.0215769,
          -0.0256172,
          0.0170386,
          0.0174472,
          0.0819964,
          0.14266,
          -0.170734,
          0.0431675,
          0.0985638,
          -0.120342,
          -0.00696446,
          -0.020648,
          -0.0390358,
          0.0880058,
          0.0621565,
          -0.160709,
          0.107268,
          0.0385459,
          0.211372,
          0.229395,
          0.0190667,
          -0.172963,
          1.76763,
          0.151091,
          -0.624641,
          -0.00403982,
          -0.959323,
          0.300645,
          0.247456,
          0.0368185,
          -0.130495,
          -0.0522779,
          -0.0993173,
          0.472666,
          0.0117324,
          -0.0812266,
          -0.50682,
          -0.415755,
          -0.172799,
          -0.0704341,
          -0.0322879,
          0.0462314,
          -0.0113677,
          0.053575,
          -0.0708914,
          -0.152788,
          0.0759372,
          -0.0784079,
          0.11075,
          -0.135964,
          0.0115668,
          -0.653079,
          0.0952056,
          -0.0932479,
          0.0741501,
          -0.00722631,
          0.0521607,
          -0.0155433,
          0.310623,
          0.134851,
          -0.0131778,
          -0.0208118,
          0.0180382,
          -0.00372813,
          -0.0134569,
          0.0213741,
          -0.062923,
          0.0151399,
          -0.0289175,
          0.00599686,
          -0.0207127,
          0.404876,
          0.0505271,
          -0.0537783,
          0.0311434,
          0.0310905,
          0.23428,
          -0.445495,
          0.0192191,
          0.0279907,
          -0.320745,
          0.523909,
          0.000952039,
          0.529585,
          -0.15239,
          0.0196923,
          0.0310779,
          -0.0380203,
          -0.0018258,
          0.0853956,
          0.216057,
          -0.00196963,
          0.0576821,
          -0.482629,
          0.0294991,
          0.354341,
          0.0610534,
          -0.0419343,
          0.15591,
          -0.395594,
          -0.60382,
          -0.0597713,
          -0.141528,
          0.00751691,
          -0.114092,
          0.0585354,
          0.0602952,
          0.0323932,
          0.22026,
          -0.119554,
          -0.018717,
          0.167447,
          0.0416772,
          0.018762,
          0.00883269,
          -0.00706762,
          -0.000446307,
          0.00300799,
          0.0146424,
          0.00742175,
          0.038498,
          -0.383739,
          0.033989,
          -0.0550451,
          -0.0404746,
          0.739588,
          -0.0670751,
          0.0215459,
          0.0946062,
          0.00718392,
          0.0218051,
          -0.0604939,
          -0.0740233,
          -0.225,
          -0.153847,
          0.0231933,
          -0.0108384,
          -0.0109939,
          -0.13526,
          -0.0467185,
          0.0793234,
          0.0149202,
          0.0948821,
          0.0521863,
          -0.00736449,
          -0.425376,
          0.605424,
          0.0245041,
          -0.116299,
          0.23058,
          0.068238,
          -0.0800112,
          0.0971357,
          -0.0412533,
          -0.0411998,
          -0.0410961,
          0.016402,
          0.0616691,
          -0.0435722,
          -0.0708358,
          -0.538241,
          -0.0456693,
          0.10118,
          0.481225,
          0.0277095,
          -0.0643977,
          0.139232,
          -0.0306063,
          0.192353,
          -0.013516,
          -0.00323998,
          -0.125937,
          -0.0410242,
          -0.0870296,
          -0.0704666,
          0.0996048,
          -0.0889978,
          -0.0623991,
          0.105941,
          0.00504707,
          0.114707,
          -0.195307,
          -0.0372534,
          0.0326459,
          0.0681157,
          -0.450065,
          0.0532052,
          0.072128,
          0.203438,
          -0.167427,
          -0.0225165,
          -0.142866,
          0.016907,
          -0.0391397,
          -0.0481329,
          0.0286728,
          0.0529753,
          0.117949,
          -0.14612,
          0.0917837,
          0.0411924,
          0.0554093,
          0.125034,
          -0.0454221,
          -0.0643875,
          0.037431,
          0.0120695,
          -0.108578,
          0.0561551,
          0.243675,
          0.247403,
          0.115336,
          -0.345693,
          -0.252994,
          1.85475,
          0.0874012,
          -0.571688,
          -0.138215,
          -0.918956,
          0.321301,
          -0.144374,
          0.0210473,
          0.0969774,
          -0.0191554,
          -0.0206395,
          -0.610548,
          0.0168361,
          0.0275844,
          -0.0365198,
          0.724275,
          0.0892228,
          0.0617869,
          -0.17218,
          0.0199349,
          0.0179822,
          -0.191055,
          0.159297,
          -0.0639495,
          -0.0245667,
          -0.0119919,
          0.048548,
          -0.0742616,
          0.00273438,
          -0.903773,
          -0.0563084,
          0.115552,
          -0.0193105,
          -0.0432087,
          0.00632195,
          0.0117091,
          -0.070705,
          -0.127672,
          -0.0103573,
          5.62846e-06,
          0.0157189,
          0.00269104,
          0.0123366,
          0.00893055,
          0.0113742,
          -0.00495591,
          0.0050727,
          -0.0078932,
          -0.00380306,
          0.335599,
          -0.0530729,
          0.270705,
          0.0916367,
          0.0192767,
          0.0647615,
          -0.383789,
          0.00116014,
          -0.116611,
          0.133487,
          -0.0414708,
          -0.0124968,
          0.818235,
          -0.0383252,
          -0.0852311,
          -0.00681518,
          -0.0457855,
          -0.052795,
          -0.0711316,
          0.16113,
          -0.00716171,
          -0.00638391,
          -0.617393,
          0.163615,
          0.749679,
          -0.0209001,
          -0.0091222,
          0.3722,
          -0.114172,
          -0.0231644,
          -0.0374282,
          0.034381,
          -0.00791892,
          0.0484313,
          0.0696852,
          0.0454344,
          -0.0641159,
          0.167231,
          -0.0787248,
          0.000875683,
          -0.183386,
          -0.0277044,
          -0.0198487,
          -0.00648111,
          -0.0500144,
          0.0352921,
          0.0345971,
          -0.0462106,
          -0.0143087,
          0.0292871,
          -0.202742,
          -0.0440762,
          0.0793098,
          0.00553486,
          -0.00112149,
          -0.00377653,
          -0.0328286,
          0.0209052,
          0.00481989,
          -0.000125539,
          0.01724,
          -0.245561,
          0.0619362,
          0.0991835,
          0.024795,
          -0.00331543,
          -0.131291,
          0.124945,
          -0.0298629,
          0.0787105,
          0.0196003,
          -0.0506674,
          0.0634517,
          0.00849197,
          -0.0153352,
          0.796196,
          0.00326449,
          -0.168442,
          0.0355749,
          0.074369,
          -0.10512,
          -0.0857943,
          -0.0980121,
          -0.233613,
          0.0394414,
          -0.00951746,
          0.10046,
          -0.325672,
          0.000396714,
          0.0671898,
          0.000851925,
          0.00929081,
          0.0828557,
          0.317355,
          -0.0302985,
          0.038322,
          -0.0075689,
          -0.0321479,
          -0.0965734,
          -0.0146726,
          0.136115,
          -0.241386,
          0.0607665,
          -0.000152597,
          0.0715679,
          -0.150854,
          -0.0170023,
          0.0363256,
          -0.00987585,
          0.101508,
          0.0735092,
          0.0753601,
          0.0162934,
          0.079223,
          -0.305164,
          -0.201533,
          -0.179776,
          0.143425,
          -0.263038,
          -0.0294628,
          -0.106522,
          0.02444,
          -0.0331784,
          -0.0176718,
          0.000122249,
          0.0520673,
          0.0718397,
          0.0375833,
          0.0455178,
          0.117042,
          0.0602339,
          -0.0321766,
          -0.00877231,
          -0.133239,
          0.0465473,
          0.0284172,
          -0.206232,
          0.140756,
          0.173931,
          0.152645,
          0.142708,
          0.047903,
          -0.165371,
          1.68695,
          0.286609,
          -1.25827,
          0.0492932,
          -0.658671,
          0.239027,
          -0.0839662,
          0.0342496,
          0.01975,
          -0.0264759,
          -0.0255475,
          0.687968,
          0.0112703,
          -0.144152,
          0.050007,
          -0.622181,
          0.146979,
          -0.0876436,
          -0.232797,
          0.00331944,
          0.0037887,
          0.13109,
          -0.0947315,
          -0.0611038,
          0.0645457,
          -0.077769,
          0.0341369,
          -0.143815,
          0.0171097,
          -0.930037,
          0.0773205,
          0.0897204,
          -0.0296421,
          0.021191,
          -0.0254506,
          -0.0401192,
          0.0499583,
          0.0789818,
          -0.0194216,
          0.0050899,
          0.0278984,
          0.00297227,
          0.000903487,
          -0.00123741,
          -0.00013541,
          0.00592722,
          -0.0259831,
          -0.0148628,
          -0.0068941,
          0.341516,
          0.0266693,
          0.201577,
          0.0411755,
          -0.000843102,
          -0.0203334,
          -0.367097,
          0.0145616,
          0.20567,
          -0.101655,
          0.0208213,
          -0.0146984,
          0.751006,
          0.127581,
          0.00685467,
          0.00593434,
          -0.016817,
          -0.0247674,
          -0.0874924,
          0.20136,
          -0.0136993,
          0.0128166,
          -0.621281,
          -0.0191369,
          0.751936,
          -0.0112919,
          -0.0146209,
          0.365617,
          -0.106525,
          -0.0399011,
          -0.0331857,
          0.0111996,
          0.00455112,
          -0.0759013,
          0.0350566,
          0.0363828,
          0.04433,
          0.197117,
          -0.0465179,
          -0.0302665,
          0.0306646,
          -0.00869984,
          -0.0144564,
          0.00239029,
          -0.073207,
          0.015484,
          -0.0290321,
          0.025649,
          0.0180871,
          0.00155393,
          -0.213321,
          -0.0981764,
          -0.00745575,
          0.00140127,
          -0.000797672,
          0.00857583,
          -0.0320877,
          0.0142011,
          -0.00563454,
          -0.00190191,
          0.021831,
          -0.253408,
          0.0513426,
          0.0931248,
          0.0353205,
          0.0679252,
          -0.0799239,
          -0.174021,
          -0.0209411,
          0.0994245,
          0.000109005,
          -0.0471779,
          0.0362566,
          0.0259177,
          -0.0185456,
          0.798704,
          0.0101835,
          -0.167122,
          0.116318,
          0.0906582,
          -0.0788756,
          -0.0657892,
          0.08838,
          -0.226034,
          0.0392502,
          -0.0692676,
          0.0866374,
          -0.0407027,
          -0.0370676,
          -0.301626,
          0.0366229,
          0.0295756,
          0.100578,
          0.162818,
          0.00522978,
          0.0674166,
          -0.0152062,
          0.126838,
          -0.0465027,
          -0.0464219,
          -0.126174,
          -0.283452,
          0.000979464,
          -0.042685,
          0.0416014,
          -0.0675198,
          -0.0306392,
          0.0570541,
          0.0294415,
          0.104438,
          -0.251969,
          0.0136954,
          0.014573,
          0.0904548,
          -0.330215,
          0.0610003,
          -0.0419646,
          0.156023,
          -0.23509,
          -0.0286834,
          -0.115645,
          0.0184343,
          -0.0393029,
          -0.0681689,
          0.00754408,
          0.032392,
          0.0552921,
          0.0568255,
          0.0684065,
          0.0329074,
          0.181028,
          0.153711,
          -0.0239475,
          -0.154953,
          0.0167931,
          -0.0115756,
          -0.195283,
          0.109081,
          0.372274,
          0.176741,
          0.0447731,
          -0.157605,
          -0.230828,
          1.73195,
          0.244651,
          -1.22845,
          -0.0175679,
          -0.60992,
          0.247011
        ],
        "bias": [
          0.87594,
          -1.11581,
          0.325692,
          1.0267,
          -1.31681,
          0.209771,
          0.769472,
          -1.31754,
          0.088422,
          1.03175,
          -1.2533,
          0.170244,
          0.763775,
          -1.23915,
          -0.0420219,
          1.03393,
          -0.342491,
          0.802484,
          0.602564,
          -0.337771,
          0.756145,
          0.988335,
          0.527098,
          0.438642,
          0.444833,
          0.523212,
          0.287486,
          0.760949,
          0.7226,
          0.196935,
          0.447239,
          0.695673,
          0.0694851,
          0.975054,
          1.26762,
          0.308187,
          0.683258,
          1.26792,
          0.284741,
          0.87371,
          1.36632,
          -0.257237,
          0.65133,
          1.35951,
          -0.287276,
          0.785993,
          2.11888,
          -0.549899,
          0.534337,
          2.1188,
          -0.562766
        ],
        "factor_scale": [
          15360,
          15360,
          15360,
          15360,
          15360,
          15360,
          15360,
          15360,
          15360,
          15360,
          15360,
          15360,
          15360,
          15360,
          15360,
          15360,
          15360,
          15360,
          15360,
          15360,
          15360,
          15360,
          15360,
          15360,
          15360,
          15360,
          15360,
          15360,
          15360,
          15360,
          15360,
          15360,
          15360,
          15360,
          15360,
          15360,
          15360,
          15360,
          15360,
          15360,
          15360,
          15360,
          15360,
          15360,
          15360,
          15360,
          15360,
          15360,
          15360,
          15360,
          15360
        ],
        "coef_dtype": 1,
        "coef_acc": [5,10,15],
        "input_dtype": 1,
        "input_acc": [5,10,15],
        "output_dtype": 1,
        "output_acc": [5,10,15]
      }
    },
    {
      "param": {
        "num_channel": 51
      },
      "data": {
        "coef": [
          0.208788,
          0.221939,
          1.57375,
          0.202428,
          0.224308,
          1.59416,
          0.205863,
          0.22367,
          1.67416,
          0.220907,
          0.228681,
          1.70332,
          0.210426,
          0.229005,
          1.70285,
          0.249396,
          0.258372,
          1.43893,
          0.25822,
          0.260069,
          1.33682,
          0.294835,
          0.317562,
          1.3755,
          0.323888,
          0.31167,
          1.35529,
          0.33676,
          0.366649,
          1.20497,
          0.352767,
          0.372634,
          1.31911,
          0.264431,
          0.29722,
          1.26332,
          0.27201,
          0.296504,
          1.22261,
          0.284433,
          0.345836,
          1.38457,
          0.292321,
          0.344931,
          1.39312,
          0.333497,
          0.33887,
          1.66672,
          0.352127,
          0.337822,
          1.6945
        ],
        "bias": [
          0,
          0,
          0,
          0,
          0,
          0,
          0,
          0,
          0,
          0,
          0,
          0,
          0,
          0,
          0,
          0,
          0,
          0,
          0,
          0,
          0,
          0,
          0,
          0,
          0,
          0,
          0,
          0,
          0,
          0,
          0,
          0,
          0,
          0,
          0,
          0,
          0,
          0,
          0,
          0,
          0,
          0,
          0,
          0,
          0,
          0,
          0,
          0,
          0,
          0,
          0
        ],
        "coef_scale": [
          1,
          1,
          1,
          1,
          1,
          1,
          1,
          1,
          1,
          1,
          1,
          1,
          1,
          1,
          1,
          1,
          1,
          1,
          1,
          1,
          1,
          1,
          1,
          1,
          1,
          1,
          1,
          1,
          1,
          1,
          1,
          1,
          1,
          1,
          1,
          1,
          1,
          1,
          1,
          1,
          1,
          1,
          1,
          1,
          1,
          1,
          1,
          1,
          1,
          1,
          1
        ],
        "coef_zero_point": [
          0,
          0,
          0,
          0,
          0,
          0,
          0,
          0,
          0,
          0,
          0,
          0,
          0,
          0,
          0,
          0,
          0,
          0,
          0,
          0,
          0,
          0,
          0,
          0,
          0,
          0,
          0,
          0,
          0,
          0,
          0,
          0,
          0,
          0,
          0,
          0,
          0,
          0,
          0,
          0,
          0,
          0,
          0,
          0,
          0,
          0,
          0,
          0,
          0,
          0,
          0
        ],
        "bias_scale": [
          1,
          1,
          1,
          1,
          1,
          1,
          1,
          1,
          1,
          1,
          1,
          1,
          1,
          1,
          1,
          1,
          1,
          1,
          1,
          1,
          1,
          1,
          1,
          1,
          1,
          1,
          1,
          1,
          1,
          1,
          1,
          1,
          1,
          1,
          1,
          1,
          1,
          1,
          1,
          1,
          1,
          1,
          1,
          1,
          1,
          1,
          1,
          1,
          1,
          1,
          1
        ],
        "bias_zero_point": [
          0,
          0,
          0,
          0,
          0,
          0,
          0,
          0,
          0,
          0,
          0,
          0,
          0,
          0,
          0,
          0,
          0,
          0,
          0,
          0,
          0,
          0,
          0,
          0,
          0,
          0,
          0,
          0,
          0,
          0,
          0,
          0,
          0,
          0,
          0,
          0,
          0,
          0,
          0,
          0,
          0,
          0,
          0,
          0,
          0,
          0,
          0,
          0,
          0,
          0,
          0
        ],
        "input_scale": [
          1,
          1,
          1,
          1,
          1,
          1,
          1,
          1,
          1,
          1,
          1,
          1,
          1,
          1,
          1,
          1,
          1,
          1,
          1,
          1,
          1,
          1,
          1,
          1,
          1,
          1,
          1,
          1,
          1,
          1,
          1,
          1,
          1,
          1,
          1,
          1,
          1,
          1,
          1,
          1,
          1,
          1,
          1,
          1,
          1,
          1,
          1,
          1,
          1,
          1,
          1
        ],
        "input_zero_point": [
          0,
          0,
          0,
          0,
          0,
          0,
          0,
          0,
          0,
          0,
          0,
          0,
          0,
          0,
          0,
          0,
          0,
          0,
          0,
          0,
          0,
          0,
          0,
          0,
          0,
          0,
          0,
          0,
          0,
          0,
          0,
          0,
          0,
          0,
          0,
          0,
          0,
          0,
          0,
          0,
          0,
          0,
          0,
          0,
          0,
          0,
          0,
          0,
          0,
          0,
          0
        ],
        "output_scale": [
          1,
          1,
          1,
          1,
          1,
          1,
          1,
          1,
          1,
          1,
          1,
          1,
          1,
          1,
          1,
          1,
          1,
          1,
          1,
          1,
          1,
          1,
          1,
          1,
          1,
          1,
          1,
          1,
          1,
          1,
          1,
          1,
          1,
          1,
          1,
          1,
          1,
          1,
          1,
          1,
          1,
          1,
          1,
          1,
          1,
          1,
          1,
          1,
          1,
          1,
          1
        ],
        "output_zero_point": [
          0,
          0,
          0,
          0,
          0,
          0,
          0,
          0,
          0,
          0,
          0,
          0,
          0,
          0,
          0,
          0,
          0,
          0,
          0,
          0,
          0,
          0,
          0,
          0,
          0,
          0,
          0,
          0,
          0,
          0,
          0,
          0,
          0,
          0,
          0,
          0,
          0,
          0,
          0,
          0,
          0,
          0,
          0,
          0,
          0,
          0,
          0,
          0,
          0,
          0,
          0
        ],
        "input_dtype": 1,
        "input_acc": [5,10,15]
      },
      "inst_name": "/model/person/head_module/kpt_pred.1/kpt_pred.1.4/Mul",
      "type_name": "Bn",
      "bottom": [
        "2Fmodel2Fperson2Fhead_module2Fkpt_pred2E12Fkpt_pred2E12E32FConv_output_0"
      ],
      "top": [
        "2Fmodel2Fperson2Fhead_module2Fkpt_pred2E12Fkpt_pred2E12E42FMul_output_0"
      ],
      "hw": 1,
      "hw_acc": [5,10,15]
    }
  ]
}