{
  "name": "graph_aic",
  "input_tensor": [
    "2Fmodel2Fneck2Fout_convs2E22Fcna2Factivate2FRelu_output_0"
  ],
  "input_shape": [
    {
      "dim": [1,64,13,13],
      "dtype": "f16",
      "pack": 0
    }
  ],
  "output_tensor": [
    "2Fmodel2Fface2Fhead_module2FExp_2_output_0"
  ],
  "output_shape": [
    {
      "dim": [1,4,13,13],
      "dtype": "f16",
      "pack": 0
    }
  ],
  "layer": [
    {
      "inst_name": "/model/face/head_module/bbox_pred.2/Conv_im_0",
      "type_name": "Conv2d",
      "bottom": [
        "2Fmodel2Fneck2Fout_convs2E22Fcna2Factivate2FRelu_output_0"
      ],
      "top": [
        "2Fmodel2Fface2Fhead_module2Fbbox_pred2E22FConv_output_0"
      ],
      "hw": 1,
      "hw_acc": [5,10,15],
      "param": {
        "num_output": 4,
        "bias_term": 1,
        "group": 1,
        "pad_h": 0,
        "pad_w": 0,
        "kernel_h": 1,
        "kernel_w": 1,
        "stride_h": 1,
        "stride_w": 1,
        "dilation_h": 1,
        "dilation_w": 1,
        "num_input": 64,
        "padding_mode": 0
      },
      "data": {
        "coef": [
          0.143602,
          -1.29387,
          -0.0125578,
          0.390278,
          -0.103751,
          0.199715,
          0.0355371,
          0.290972,
          0.0174974,
          -0.749196,
          -0.0550339,
          0.39537,
          0.00177714,
          0.00134834,
          -0.00509069,
          0.00746295,
          -0.025351,
          -0.269022,
          -0.000198458,
          0.0750612,
          0.00313748,
          0.00478522,
          -0.0546714,
          0.0215192,
          -0.008358,
          -0.0551662,
          -0.284231,
          -0.148328,
          -0.321608,
          -0.00156444,
          0.117836,
          0.010114,
          -0.00318403,
          0.0312094,
          0.109489,
          0.180548,
          -0.430593,
          -0.0017837,
          0.213045,
          0.0116426,
          -0.0295366,
          0.344283,
          -0.578024,
          0.0828496,
          -0.166797,
          -0.12731,
          0.0245665,
          0.00175746,
          0.299663,
          0.0124475,
          -0.00762039,
          0.295533,
          -0.00281127,
          0.0602956,
          0.00784206,
          -0.00594003,
          -0.379834,
          0.00931261,
          0.0141674,
          0.0398736,
          -0.0234905,
          0.118253,
          -8.6853e-05,
          -0.268339,
          0.362835,
          -0.058969,
          0.00947077,
          -0.00869585,
          -0.812127,
          0.0417117,
          -0.0131711,
          0.192778,
          -0.000990947,
          0.00345275,
          0.145006,
          0.584533,
          -0.00265432,
          -0.949739,
          -0.0117654,
          0.013877,
          0.106946,
          0.0679334,
          -0.512637,
          -0.340105,
          0.0196361,
          0.141188,
          0.0081958,
          -0.381636,
          -0.00409147,
          0.226173,
          -0.00160312,
          -0.0167798,
          0.243956,
          -0.283115,
          0.135367,
          0.0191814,
          -0.00535976,
          0.0978243,
          -0.121791,
          0.0605641,
          -0.00704156,
          -0.00397357,
          0.0162978,
          -0.0227311,
          0.0764972,
          0.250989,
          -0.194719,
          0.808032,
          -0.0732029,
          0.0500879,
          0.0345016,
          -0.00229032,
          -0.00363389,
          -1.27759,
          0.00973992,
          0.194203,
          -0.016463,
          -0.159467,
          0.00869382,
          0.0895833,
          0.258666,
          0.00921956,
          -0.063738,
          0.306186,
          0.471977,
          0.0822341,
          3.24191e-05,
          0.0302709,
          0.104441,
          0.0139549,
          0.00642287,
          0.281434,
          -0.0388816,
          0.0152191,
          0.0146875,
          -0.0389919,
          -1.53234,
          0.00210036,
          0.0318685,
          0.310704,
          -0.520188,
          -0.00628206,
          -0.00729684,
          0.00999354,
          -0.0153073,
          -0.0338155,
          -0.00318546,
          0.0600618,
          0.00330852,
          0.0125283,
          -0.00635966,
          0.0284183,
          -0.401004,
          -0.191918,
          -0.000132335,
          -0.0571436,
          -0.157662,
          -0.00410058,
          -0.120104,
          0.268262,
          -0.330064,
          0.0599792,
          -0.450789,
          -0.0238091,
          -0.00524884,
          -0.000266165,
          0.326515,
          0.00753768,
          -0.039134,
          0.201772,
          0.0321571,
          0.0626744,
          0.0180809,
          0.131818,
          0.0294477,
          0.004074,
          0.00941089,
          -0.0118228,
          -0.285328,
          0.232825,
          -0.00433193,
          -0.695846,
          0.0107411,
          0.0176252,
          -0.0161567,
          0.0111748,
          0.0249519,
          0.119105,
          -0.0617746,
          0.0139553,
          0.00247607,
          0.314056,
          0.0297634,
          -0.0127711,
          0.00206603,
          0.00225933,
          0.023672,
          0.005064,
          -0.00362778,
          0.0303454,
          -0.0139864,
          0.00057523,
          0.0167919,
          -0.0184605,
          -0.0011157,
          -0.000848808,
          -0.518222,
          0.00424532,
          0.0234815,
          -0.0081875,
          -0.00677122,
          -0.0655802,
          0.00503778,
          0.00497641,
          -0.0159194,
          0.0017683,
          0.00116636,
          0.0517125,
          0.0015355,
          -0.267197,
          0.0571154,
          -0.00272201,
          -0.00890396,
          0.00169879,
          0.000132135,
          -4.5952e-05,
          -0.0150891,
          0.000770907,
          0.000247517,
          -0.00147837,
          0.0320878,
          -0.0418195,
          0.0791386,
          -0.0539418,
          -0.0353758,
          0.00559978,
          -0.0173047,
          0.0359425,
          -0.0205987,
          0.000472942,
          -0.00090063,
          -0.0108269,
          0.00239601,
          -0.0253036,
          -0.393489,
          -0.0357523,
          0.27619,
          -0.00122075,
          0.0230134,
          -0.000820569,
          -0.0150242,
          -0.0383361,
          -0.093883,
          -0.133698,
          0.000645639,
          0.0156388
        ],
        "bias": [0.40926,0.773972,0.743637,0.823752],
        "factor_scale": [15360,15360,15360,15360],
        "coef_dtype": 1,
        "coef_acc": [5,10,15],
        "input_dtype": 1,
        "input_acc": [5,10,15],
        "output_dtype": 1,
        "output_acc": [5,10,15]
      }
    },
    {
      "inst_name": "/model/face/head_module/Exp_2",
      "type_name": "Activation4",
      "bottom": [
        "2Fmodel2Fface2Fhead_module2Fbbox_pred2E22FConv_output_0"
      ],
      "top": [
        "2Fmodel2Fface2Fhead_module2FExp_2_output_0"
      ],
      "hw": 1,
      "hw_acc": [5,10,15],
      "param": {
        "function": "exp_x",
        "coeff": 1,
        "coeff2": 1,
        "num_input": 4,
        "num_output": 4
      },
      "data": {
        "input_dtype": 1,
        "input_acc": [5,10,15],
        "output_dtype": 1,
        "output_acc": [5,10,15]
      }
    }
  ]
}