{
  "name": "graph_aic",
  "input_tensor": [
    "2Fmodel2Fneck2Fout_convs2E12Fcna2Factivate2FRelu_output_0"
  ],
  "input_shape": [
    {
      "dim": [1,64,26,26],
      "dtype": "f16",
      "pack": 0
    }
  ],
  "output_tensor": [
    "2Fmodel2Fhead2Fhead_module2FExp_1_output_0"
  ],
  "output_shape": [
    {
      "dim": [1,4,26,26],
      "dtype": "f16",
      "pack": 0
    }
  ],
  "layer": [
    {
      "inst_name": "/model/head/head_module/bbox_pred.1/Conv_im_0",
      "type_name": "Conv2d",
      "bottom": [
        "2Fmodel2Fneck2Fout_convs2E12Fcna2Factivate2FRelu_output_0"
      ],
      "top": [
        "2Fmodel2Fhead2Fhead_module2Fbbox_pred2E12FConv_output_0"
      ],
      "hw": 1,
      "hw_acc": [5,10,15],
      "param": {
        "num_output": 4,
        "bias_term": 1,
        "group": 1,
        "pad_h": 0,
        "pad_w": 0,
        "kernel_h": 1,
        "kernel_w": 1,
        "stride_h": 1,
        "stride_w": 1,
        "dilation_h": 1,
        "dilation_w": 1,
        "num_input": 64,
        "padding_mode": 0
      },
      "data": {
        "coef": [
          -0.00286829,
          0.11983,
          -0.00584187,
          -0.0136769,
          0.0101028,
          0.053496,
          0.0230877,
          -0.00444322,
          -0.0317234,
          -0.00398186,
          -0.00835999,
          0.00325332,
          -0.000674455,
          0.000787672,
          -0.016448,
          -0.021453,
          -0.0127806,
          -0.00818988,
          0.00208418,
          0.284823,
          0.00313556,
          0.0103951,
          -0.11173,
          0.0778803,
          0.00424508,
          0.0382311,
          0.00492955,
          -0.0371391,
          -0.00565057,
          -0.00119593,
          0.0530691,
          -0.000621773,
          -0.126439,
          -0.00176365,
          0.0205623,
          0.0151789,
          -0.000442918,
          -0.597643,
          -0.023586,
          0.00684253,
          0.0105376,
          -0.00420348,
          -0.0341348,
          0.0362885,
          -0.00324491,
          -1.06521,
          0.00288102,
          -0.33875,
          -0.0247711,
          -0.0279622,
          -0.0109776,
          0.0935701,
          -0.0122348,
          0.0100512,
          -0.000721516,
          -0.0144377,
          -0.00245025,
          0.00952936,
          0.00789556,
          0.00842401,
          -0.462515,
          0.00866151,
          -0.0119879,
          0.00201618,
          0.0045524,
          0.00306017,
          -0.00787265,
          -0.397538,
          0.00435918,
          -0.131921,
          -0.0249468,
          0.00728145,
          -0.00176081,
          -0.00849896,
          -0.0118451,
          -0.0187044,
          0.0513281,
          -0.012788,
          0.035167,
          -0.00895368,
          -0.013823,
          0.00855367,
          -0.00373459,
          0.0138492,
          0.00120294,
          0.00243947,
          0.0198316,
          -0.0411353,
          0.0104335,
          0.370384,
          0.00624399,
          0.000506257,
          0.00102616,
          -0.0115051,
          -0.00543644,
          -0.0043395,
          0.0467012,
          -0.00304996,
          0.0397125,
          0.181821,
          -0.000223638,
          -0.0170413,
          0.000784661,
          0.0102056,
          0.00964807,
          -0.0194025,
          -0.0596945,
          0.0451335,
          0.00148589,
          -0.0112413,
          0.00140072,
          -0.0115427,
          -0.444435,
          -0.281958,
          -0.0102459,
          0.00100559,
          -0.00124598,
          -0.0011002,
          0.000853589,
          -0.174281,
          -0.00272389,
          -0.00497569,
          -0.0008898,
          -0.00497739,
          -0.0115001,
          -0.00208166,
          -0.655365,
          -0.00498222,
          0.00511885,
          0.00508391,
          0.00560404,
          -0.0319083,
          0.0105789,
          0.0548279,
          0.0315316,
          0.00284574,
          -0.0356929,
          0.0151005,
          -0.355765,
          0.0526021,
          -0.00462173,
          -0.442589,
          -0.0574694,
          -0.0303783,
          0.0312701,
          -0.0629913,
          -0.00900982,
          0.00679108,
          0.0549004,
          0.112251,
          0.0178696,
          -0.0353317,
          0.322167,
          0.0164055,
          -0.00712097,
          -0.0722581,
          -0.00275873,
          -0.00720976,
          0.142535,
          -0.394632,
          -0.0265211,
          -0.0179246,
          -0.00854845,
          0.0295822,
          -0.00193625,
          -0.0131165,
          -0.0201805,
          0.0141794,
          0.00903721,
          0.0731924,
          -0.0237004,
          0.0327958,
          -0.00290169,
          0.0031428,
          0.0068099,
          -0.0057175,
          -0.0150305,
          -0.0497276,
          -0.609461,
          -0.0679882,
          -0.0175238,
          -0.00469216,
          0.000573461,
          -0.00966538,
          -0.0148486,
          -0.0170122,
          0.00878643,
          0.0168096,
          -0.000416621,
          0.00391009,
          -0.0137804,
          0.000815992,
          0.00173451,
          -0.00410975,
          0.00334114,
          -0.00265003,
          0.273691,
          0.00801082,
          0.0154807,
          0.00955365,
          -0.968389,
          0.000288737,
          4.20587e-05,
          0.0215095,
          -0.00704702,
          -0.00703093,
          -0.0216486,
          -0.542524,
          -0.0134624,
          -0.080904,
          -0.00399416,
          0.0118588,
          -0.0739783,
          -0.00311136,
          -0.0164919,
          0.0378951,
          0.00911033,
          0.00818426,
          -0.000808663,
          -0.0373321,
          -0.00591401,
          0.00973624,
          0.0545098,
          0.00232363,
          -0.0597563,
          -0.00409469,
          -0.126315,
          0.00446246,
          -0.00122166,
          -0.089945,
          -0.00490118,
          -0.00139234,
          0.120854,
          0.0753413,
          0.0277308,
          0.017246,
          1.87923e-05,
          -0.0093107,
          -0.0673608,
          -0.00786756,
          -0.000826051,
          0.00170663,
          -0.0364388,
          0.00617009,
          -0.014122,
          0.00195091,
          -0.000273874,
          0.000290383,
          -0.378021,
          0.00709608,
          -0.0075487,
          0.0208148,
          -0.00147209,
          0.00918334,
          -0.00118434,
          -0.0103652
        ],
        "bias": [0.76388,0.789083,0.352916,0.778242],
        "factor_scale": [15360,15360,15360,15360],
        "coef_dtype": 1,
        "coef_acc": [5,10,15],
        "input_dtype": 1,
        "input_acc": [5,10,15],
        "output_dtype": 1,
        "output_acc": [5,10,15]
      }
    },
    {
      "inst_name": "/model/head/head_module/Exp_1",
      "type_name": "Activation4",
      "bottom": [
        "2Fmodel2Fhead2Fhead_module2Fbbox_pred2E12FConv_output_0"
      ],
      "top": [
        "2Fmodel2Fhead2Fhead_module2FExp_1_output_0"
      ],
      "hw": 1,
      "hw_acc": [5,10,15],
      "param": {
        "function": "exp_x",
        "coeff": 1,
        "coeff2": 1,
        "num_input": 4,
        "num_output": 4
      },
      "data": {
        "input_dtype": 1,
        "input_acc": [5,10,15],
        "output_dtype": 1,
        "output_acc": [5,10,15]
      }
    }
  ]
}