{
  "name": "graph_aic",
  "input_tensor": [
    "2Fmodel2Fneck2Fout_convs2E02Fcna2Factivate2FRelu_output_0"
  ],
  "input_shape": [
    {
      "dim": [1,64,52,52],
      "dtype": "f16",
      "pack": 0
    }
  ],
  "output_tensor": [
    "2Fmodel2Fperson2Fhead_module2FExp_output_0"
  ],
  "output_shape": [
    {
      "dim": [1,4,52,52],
      "dtype": "f16",
      "pack": 0
    }
  ],
  "layer": [
    {
      "inst_name": "/model/person/head_module/bbox_pred.0/Conv_im_0",
      "type_name": "Conv2d",
      "bottom": [
        "2Fmodel2Fneck2Fout_convs2E02Fcna2Factivate2FRelu_output_0"
      ],
      "top": [
        "2Fmodel2Fperson2Fhead_module2Fbbox_pred2E02FConv_output_0"
      ],
      "hw": 1,
      "hw_acc": [5,10,15],
      "param": {
        "num_output": 4,
        "bias_term": 1,
        "group": 1,
        "pad_h": 0,
        "pad_w": 0,
        "kernel_h": 1,
        "kernel_w": 1,
        "stride_h": 1,
        "stride_w": 1,
        "dilation_h": 1,
        "dilation_w": 1,
        "num_input": 64,
        "padding_mode": 0
      },
      "data": {
        "coef": [
          0.303077,
          -0.0130537,
          0.0230392,
          -0.0036641,
          -0.0387886,
          0.0110386,
          -0.0851731,
          -0.342023,
          0.021569,
          -0.488151,
          -0.00344898,
          0.00352727,
          -0.00905722,
          -0.0740727,
          0.0222251,
          -0.592689,
          -0.00929832,
          0.00769451,
          -0.00704665,
          -0.00248744,
          0.0868828,
          -0.0339515,
          0.00558314,
          -0.0205123,
          0.260025,
          0.02329,
          0.00940358,
          -0.00292426,
          -0.0286023,
          0.00114756,
          0.00310661,
          -0.256422,
          -0.030242,
          0.0522352,
          0.015515,
          -5.39508e-05,
          -0.0625174,
          -0.00787764,
          -0.0133831,
          -0.0548567,
          0.0372411,
          0.0200363,
          -0.0420157,
          -0.134839,
          0.304048,
          0.0381603,
          -0.0359938,
          0.00363145,
          0.024549,
          -0.0944299,
          0.0248633,
          0.0940506,
          0.167211,
          0.00943394,
          -0.00928163,
          -0.0338566,
          0.00743708,
          -0.0362984,
          0.0407389,
          0.00104158,
          0.0158154,
          0.0140239,
          -0.0173407,
          0.00767702,
          0.0569282,
          -0.0252976,
          0.0109459,
          0.00534667,
          -0.470976,
          -0.00238346,
          -0.0135993,
          0.00445429,
          -0.253978,
          -0.0281211,
          -0.0413657,
          0.00340144,
          -0.0221855,
          -0.69788,
          0.00340449,
          -0.0129899,
          -0.0147665,
          0.0223728,
          -0.0174737,
          -0.0159886,
          -0.113293,
          -0.00474321,
          -0.00864178,
          -0.0382912,
          0.0375232,
          -0.288037,
          -0.00924164,
          -0.00716814,
          -0.00233134,
          0.0385407,
          0.00681726,
          0.0339153,
          -0.0118656,
          -0.030725,
          -0.0135203,
          -0.0235304,
          -0.152164,
          0.0114687,
          -0.00145147,
          -0.0105574,
          0.0504924,
          0.0429227,
          -0.0650097,
          -0.0407635,
          0.00104417,
          -0.0383988,
          -0.052907,
          -0.00652938,
          0.00755604,
          0.0641272,
          -0.0156966,
          -0.399684,
          0.256826,
          0.0184916,
          0.00710128,
          -0.219308,
          -0.00126737,
          0.0590816,
          -0.117229,
          0.315108,
          0.0152236,
          0.266669,
          -0.00663367,
          -0.00362479,
          0.055022,
          0.00344479,
          -0.0609258,
          0.00331787,
          -0.0567646,
          -0.0108863,
          -0.0702917,
          0.00206512,
          0.00385952,
          0.00037413,
          -0.00469691,
          0.0368334,
          -0.466049,
          -0.0674253,
          0.0319425,
          -0.00078087,
          -0.0570358,
          0.369937,
          -0.0176991,
          -0.646632,
          0.195071,
          0.0385413,
          -0.00883548,
          -0.0479401,
          0.312752,
          0.0383486,
          -0.0383458,
          -0.00422377,
          0.00500176,
          -0.0156441,
          -0.00814727,
          0.00274183,
          -0.0088712,
          0.0501354,
          -0.289505,
          -0.016354,
          -0.0368474,
          -0.00287378,
          0.000519717,
          -0.0529668,
          0.096072,
          -0.254746,
          0.0629744,
          0.000972093,
          0.0441868,
          -0.010226,
          -0.00525631,
          0.0536027,
          0.0107526,
          -0.148634,
          -0.0270931,
          -0.0197959,
          0.045351,
          0.0520146,
          -0.012098,
          0.0776466,
          -0.00431775,
          -0.0288628,
          0.0110495,
          0.00513781,
          0.00401708,
          0.0215955,
          -0.0177035,
          0.00709709,
          0.0212122,
          -0.00637416,
          0.0230577,
          -0.00798964,
          -0.0121929,
          0.0524795,
          -0.123787,
          -0.0154527,
          -0.0283224,
          -9.68634e-05,
          -0.02156,
          0.159559,
          -0.0284884,
          -0.0171189,
          -0.0119179,
          -0.0133578,
          -0.104391,
          0.0245354,
          0.0189658,
          -0.015362,
          0.0156106,
          0.00420352,
          -0.00700776,
          0.0124249,
          0.00364609,
          0.0508653,
          0.000362752,
          -0.000556569,
          0.0119199,
          0.0129643,
          0.0138598,
          0.0393679,
          -0.0142239,
          -0.00368696,
          -0.000693999,
          -0.0300991,
          -0.0259458,
          -0.00908381,
          -0.00393382,
          -0.442767,
          0.0359241,
          0.0472455,
          -0.00453648,
          -0.00959545,
          0.015331,
          -0.0189305,
          0.00922078,
          -0.0230769,
          0.00817842,
          -0.0511583,
          -0.250984,
          0.0795886,
          0.041354,
          -0.453518,
          -0.00581145,
          0.020133,
          -0.000970913,
          -0.00304636,
          0.0267176,
          0.0648487,
          0.36483,
          0.0261144,
          -0.747352,
          -0.00944054
        ],
        "bias": [0.634847,1.0075,0.400876,1.02226],
        "factor_scale": [15360,15360,15360,15360],
        "coef_dtype": 1,
        "coef_acc": [5,10,15],
        "input_dtype": 1,
        "input_acc": [5,10,15],
        "output_dtype": 1,
        "output_acc": [5,10,15]
      }
    },
    {
      "inst_name": "/model/person/head_module/Exp",
      "type_name": "Activation4",
      "bottom": [
        "2Fmodel2Fperson2Fhead_module2Fbbox_pred2E02FConv_output_0"
      ],
      "top": [
        "2Fmodel2Fperson2Fhead_module2FExp_output_0"
      ],
      "hw": 1,
      "hw_acc": [5,10,15],
      "param": {
        "function": "exp_x",
        "coeff": 1,
        "coeff2": 1,
        "num_input": 4,
        "num_output": 4
      },
      "data": {
        "input_dtype": 1,
        "input_acc": [5,10,15],
        "output_dtype": 1,
        "output_acc": [5,10,15]
      }
    }
  ]
}