{
  "name": "graph_aic",
  "input_tensor": [
    "2Fmodel2Fneck2Fout_convs2E02Fcna2Factivate2FRelu_output_0"
  ],
  "input_shape": [
    {
      "dim": [1,64,52,52],
      "dtype": "f16",
      "pack": 0
    }
  ],
  "output_tensor": [
    "2Fmodel2Fhead2Fhead_module2FExp_output_0"
  ],
  "output_shape": [
    {
      "dim": [1,4,52,52],
      "dtype": "f16",
      "pack": 0
    }
  ],
  "layer": [
    {
      "inst_name": "/model/head/head_module/bbox_pred.0/Conv_im_0",
      "type_name": "Conv2d",
      "bottom": [
        "2Fmodel2Fneck2Fout_convs2E02Fcna2Factivate2FRelu_output_0"
      ],
      "top": [
        "2Fmodel2Fhead2Fhead_module2Fbbox_pred2E02FConv_output_0"
      ],
      "hw": 1,
      "hw_acc": [5,10,15],
      "param": {
        "num_output": 4,
        "bias_term": 1,
        "group": 1,
        "pad_h": 0,
        "pad_w": 0,
        "kernel_h": 1,
        "kernel_w": 1,
        "stride_h": 1,
        "stride_w": 1,
        "dilation_h": 1,
        "dilation_w": 1,
        "num_input": 64,
        "padding_mode": 0
      },
      "data": {
        "coef": [
          0.285148,
          -0.0490494,
          -0.00199047,
          -0.00594918,
          -0.0347267,
          -0.000578685,
          -0.00283571,
          -0.249647,
          -0.000716418,
          -0.374562,
          -0.0214939,
          -0.0175255,
          -0.00380683,
          -0.0216153,
          0.00575022,
          -0.312589,
          0.016125,
          0.00342409,
          0.00291906,
          -0.00432493,
          0.114885,
          0.0174714,
          0.02318,
          0.0467085,
          -0.00288701,
          0.0502914,
          0.000433775,
          0.00175862,
          -0.00782758,
          -0.0124001,
          -0.0134131,
          -0.305159,
          -0.0141955,
          0.10527,
          0.0153091,
          0.0330712,
          -0.146468,
          0.0033652,
          -0.0108677,
          -0.0216759,
          0.00253947,
          -0.0342079,
          0.0135635,
          -0.396596,
          -0.258619,
          0.0220589,
          0.00938379,
          0.010431,
          -0.000941945,
          -0.00134675,
          -0.0110287,
          0.13153,
          0.138805,
          0.00593588,
          -0.0037849,
          0.0113491,
          0.00498013,
          0.00120559,
          -0.00547699,
          0.0295118,
          0.00902819,
          0.0156796,
          -0.00680431,
          -0.805317,
          0.0324853,
          -0.00364701,
          -0.00201097,
          -0.00405117,
          -0.441736,
          0.00360876,
          -0.0199759,
          0.029912,
          -0.139291,
          -0.0125108,
          -0.00819905,
          0.0112718,
          0.0109811,
          -0.707007,
          0.00487453,
          -0.0161972,
          0.00984326,
          0.0365743,
          0.000305716,
          0.00230375,
          -0.126529,
          0.0043048,
          0.00723586,
          0.0619521,
          0.00426858,
          0.000261805,
          0.0025913,
          0.00457331,
          -0.00537749,
          0.0122318,
          0.00688394,
          0.146558,
          -0.0218846,
          -0.000513348,
          -0.0220228,
          0.0100108,
          -0.131311,
          -0.00777043,
          -0.00288765,
          -0.00117654,
          0.000887842,
          0.180864,
          -0.00578559,
          -0.0547468,
          0.0129589,
          -0.0396673,
          0.00171612,
          -0.0395522,
          0.0185414,
          -0.0148701,
          0.00635979,
          -0.164853,
          0.326679,
          0.00639826,
          -0.0063088,
          0.0202703,
          0.0395901,
          0.0121832,
          -0.010962,
          0.196851,
          0.00497118,
          0.0764641,
          -0.000285974,
          -0.0125527,
          0.0177663,
          -0.083122,
          -0.0312588,
          -0.0258872,
          -0.0394458,
          0.000632444,
          -0.0124275,
          -0.0180182,
          -0.0432511,
          0.00877505,
          -0.0198068,
          -0.0401989,
          0.0577078,
          -0.0267488,
          -0.00823967,
          -0.000771074,
          -0.00319557,
          0.299375,
          0.00804359,
          -0.00336175,
          0.179973,
          0.00936681,
          -0.0151465,
          0.0420252,
          -0.00443497,
          0.0442251,
          0.0115721,
          0.0122644,
          0.00733783,
          -0.029905,
          0.0338463,
          -0.0358849,
          -0.0100055,
          -0.0118758,
          -0.50465,
          0.0113903,
          -0.210084,
          0.00347208,
          -0.00228254,
          -0.025726,
          0.00798049,
          -0.331597,
          0.0195195,
          0.0288816,
          -0.00223215,
          -0.0146471,
          0.0197247,
          -0.606618,
          -0.87251,
          0.00432176,
          -0.0143229,
          0.0852959,
          0.0733411,
          0.00596856,
          -0.0119273,
          0.00666237,
          0.0311792,
          0.00434214,
          -0.0143249,
          0.02062,
          0.0160342,
          0.0383714,
          0.00963209,
          0.0103297,
          0.0678878,
          -0.829824,
          -0.0763779,
          0.00474529,
          0.00795009,
          -0.0156787,
          0.0239241,
          -0.0231231,
          0.0141729,
          -0.0145229,
          -0.0293999,
          -0.473218,
          -0.00265663,
          0.0098248,
          0.0261493,
          0.00810083,
          -0.0387477,
          0.0463036,
          -0.0172163,
          0.0131744,
          0.0092384,
          -0.00582046,
          0.0078167,
          0.0983599,
          -0.00589027,
          0.00834041,
          0.0169289,
          0.0206671,
          -0.0235511,
          -0.479449,
          -0.0016411,
          0.120995,
          -0.00908791,
          0.00167541,
          -0.0288891,
          -0.0140036,
          -0.125374,
          0.0105392,
          -0.00855337,
          -0.324254,
          -0.0131496,
          0.118964,
          -0.0101994,
          -0.0366176,
          -0.0984371,
          0.0111899,
          0.0311255,
          -0.0255183,
          -0.0296182,
          -0.125195,
          -0.401039,
          1.12267e-05,
          0.0202297,
          -0.272915,
          0.000101329,
          -0.132341,
          0.00852217,
          -0.00543522,
          -0.0105418,
          0.202056,
          0.266486,
          0.0106556,
          -0.256522,
          -0.0493221
        ],
        "bias": [0.599289,0.56352,0.363138,0.784372],
        "factor_scale": [15360,15360,15360,15360],
        "coef_dtype": 1,
        "coef_acc": [5,10,15],
        "input_dtype": 1,
        "input_acc": [5,10,15],
        "output_dtype": 1,
        "output_acc": [5,10,15]
      }
    },
    {
      "inst_name": "/model/head/head_module/Exp",
      "type_name": "Activation4",
      "bottom": [
        "2Fmodel2Fhead2Fhead_module2Fbbox_pred2E02FConv_output_0"
      ],
      "top": [
        "2Fmodel2Fhead2Fhead_module2FExp_output_0"
      ],
      "hw": 1,
      "hw_acc": [5,10,15],
      "param": {
        "function": "exp_x",
        "coeff": 1,
        "coeff2": 1,
        "num_input": 4,
        "num_output": 4
      },
      "data": {
        "input_dtype": 1,
        "input_acc": [5,10,15],
        "output_dtype": 1,
        "output_acc": [5,10,15]
      }
    }
  ]
}