{
  "name": "graph_aic",
  "input_tensor": [
    "images"
  ],
  "input_shape": [
    {
      "dim": [1,3,416,416],
      "dtype": "f16",
      "pack": 0
    }
  ],
  "output_tensor": [
    "2Fmodel2Fbackbone2Fstage12Fstage12E12Fmain_conv2Factivate2FRelu_output_0"
  ],
  "output_shape": [
    {
      "dim": [1,32,104,104],
      "dtype": "f16",
      "pack": 0
    }
  ],
  "layer": [
    {
      "inst_name": "/model/backbone/stem/conv/Conv_im_0",
      "type_name": "Conv2d",
      "bottom": [
        "images"
      ],
      "top": [
        "2Fmodel2Fbackbone2Fstem2Fconv2FConv_output_0"
      ],
      "hw": 1,
      "hw_acc": [5,10,15],
      "param": {
        "num_output": 16,
        "bias_term": 1,
        "group": 1,
        "pad_h": 1,
        "pad_w": 1,
        "kernel_h": 3,
        "kernel_w": 3,
        "stride_h": 2,
        "stride_w": 2,
        "dilation_h": 1,
        "dilation_w": 1,
        "num_input": 3,
        "padding_mode": 0
      },
      "data": {
        "coef": [
          -0.145713,
          0.579392,
          1.15302,
          0.319211,
          0.289502,
          -1.09742,
          0.388742,
          -0.661868,
          -3.38537,
          0.0479119,
          0.0702599,
          0.378083,
          0.257341,
          -0.138024,
          -1.4428,
          0.506072,
          -0.780361,
          -3.19782,
          0.025634,
          0.126651,
          0.710602,
          0.32942,
          0.233958,
          -0.165615,
          0.962425,
          0.145808,
          -0.882956,
          0.449429,
          0.725695,
          0.20957,
          0.489528,
          0.936331,
          0.576863,
          0.365469,
          0.863686,
          0.615465,
          -1.6684,
          -1.9948,
          -1.60263,
          -1.68398,
          -2.34676,
          -1.86843,
          -1.74717,
          -2.35359,
          -2.12254,
          1.11987,
          1.2861,
          1.34944,
          1.21275,
          1.33849,
          1.44996,
          1.41816,
          1.41763,
          1.49591,
          0.973504,
          -1.21988,
          1.15012,
          -0.468827,
          -4.20894,
          -0.334163,
          1.53381,
          0.35669,
          1.50854,
          0.614161,
          0.0839559,
          0.494822,
          -0.243603,
          -4.15079,
          -0.394493,
          -0.399,
          -0.477857,
          -0.701305,
          -0.557691,
          -0.311607,
          -0.111357,
          -0.200019,
          -1.5532,
          -0.0572679,
          -0.541668,
          -0.149357,
          -0.281969,
          0.481438,
          -0.966511,
          -1.26142,
          -0.220488,
          -1.8655,
          -1.96581,
          0.0971286,
          -1.16934,
          -1.08757,
          -0.0204826,
          0.448824,
          0.485842,
          0.228908,
          0.679692,
          0.793893,
          0.222922,
          0.601691,
          0.647298,
          -0.506159,
          0.602452,
          0.72656,
          -0.0667699,
          1.05012,
          1.19316,
          -0.195408,
          0.615352,
          0.566911,
          0.214509,
          0.367178,
          0.139043,
          0.125543,
          0.421462,
          0.336339,
          0.302143,
          0.318462,
          0.627773,
          -0.207254,
          -0.00511938,
          -0.192005,
          -0.00384228,
          0.326205,
          0.155149,
          -0.0981994,
          0.0934187,
          0.0708674,
          -0.143612,
          0.0740591,
          -0.0603897,
          0.00980281,
          0.317049,
          0.186548,
          -0.121487,
          0.0660493,
          0.0154883,
          -1.11122,
          0.137412,
          1.32667,
          -2.58185,
          -0.331845,
          2.47779,
          -1.0682,
          -0.249217,
          1.51636,
          -1.14404,
          0.0363723,
          1.08916,
          -2.34042,
          -0.31679,
          2.11418,
          -0.811289,
          -0.215499,
          1.24543,
          -0.79265,
          0.0493749,
          0.753796,
          -1.92903,
          -0.249361,
          1.84778,
          -0.600528,
          -0.171567,
          1.08482,
          0.586141,
          0.755723,
          1.30884,
          -0.798391,
          -0.494032,
          0.616248,
          -1.31827,
          -1.03504,
          0.297079,
          -0.270132,
          -0.314543,
          -0.324192,
          0.392956,
          0.238966,
          -0.207462,
          0.759753,
          0.564896,
          -0.228654,
          -0.649927,
          -0.651562,
          -0.539981,
          0.416019,
          0.129022,
          -0.4687,
          1.39148,
          0.908469,
          -0.237367,
          1.04329,
          3.09286,
          3.24786,
          -2.90425,
          -5.77459,
          -4.0957,
          2.01524,
          2.45078,
          1.16174,
          0.438402,
          1.88288,
          1.74025,
          -1.34949,
          -3.97219,
          -2.48244,
          1.39794,
          1.47795,
          0.535361,
          -0.12215,
          1.56365,
          1.0929,
          -0.700723,
          -2.77072,
          -1.49331,
          0.776393,
          1.22633,
          0.518755,
          -0.868223,
          -1.44988,
          -1.24343,
          1.47355,
          2.69823,
          2.13104,
          -0.581225,
          -1.33078,
          -0.843528,
          -0.362788,
          -0.991705,
          -0.692856,
          1.17874,
          2.33577,
          1.86915,
          -0.788011,
          -1.56595,
          -1.06589,
          -0.525239,
          -1.25375,
          -0.964261,
          1.06866,
          2.22518,
          1.72273,
          -0.364581,
          -1.18131,
          -0.727225,
          1.06762,
          2.50573,
          1.55358,
          0.326452,
          0.220082,
          0.00487926,
          -1.47915,
          -2.80539,
          -1.07756,
          0.832665,
          1.93451,
          1.19868,
          0.315423,
          -0.0254094,
          -0.165299,
          -1.06543,
          -2.58794,
          -0.915693,
          0.434247,
          1.50636,
          0.762429,
          0.285398,
          0.0635035,
          -0.164824,
          -0.54395,
          -1.86002,
          -0.455229,
          -0.132801,
          1.77405,
          1.99319,
          0.39785,
          2.19331,
          2.19315,
          -0.313904,
          0.553434,
          0.239859,
          -0.259169,
          -1.24909,
          -1.38168,
          -0.215485,
          -1.1955,
          -1.24893,
          0.27887,
          -0.341138,
          -0.35003,
          0.363674,
          -0.684562,
          -0.69045,
          -0.168923,
          -1.16328,
          -0.943813,
          0.168304,
          -0.223184,
          0.240397,
          -0.938717,
          -2.68021,
          -1.65178,
          -0.464011,
          -0.339683,
          0.121178,
          1.60271,
          2.73506,
          1.73127,
          -0.450025,
          -2.07434,
          -1.14907,
          -0.361926,
          -0.283177,
          0.152802,
          0.97988,
          1.89883,
          1.0204,
          -0.373442,
          -1.9279,
          -0.980134,
          -0.389077,
          -0.29815,
          0.210238,
          0.887736,
          1.79812,
          1.03913,
          -0.635457,
          -0.625624,
          -0.655609,
          -0.758732,
          -0.721741,
          -0.535094,
          -1.01459,
          -0.95617,
          -0.660091,
          1.6351,
          1.7172,
          1.39316,
          1.94785,
          2.13267,
          1.64475,
          2.10024,
          2.15052,
          1.66468,
          -1.04957,
          -1.06792,
          -0.709695,
          -1.21391,
          -1.42057,
          -1.0916,
          -1.05041,
          -1.2788,
          -1.01706,
          1.55609,
          -0.103422,
          -1.27162,
          2.32102,
          0.229074,
          -2.74229,
          1.02423,
          0.409231,
          -1.32517,
          1.20139,
          -0.251486,
          -1.20178,
          1.88973,
          0.116807,
          -2.46516,
          0.793086,
          0.432304,
          -0.949936,
          0.792386,
          -0.174576,
          -0.675595,
          1.5279,
          0.232121,
          -1.83566,
          0.428009,
          0.36638,
          -0.613138,
          0.444868,
          1.09482,
          -1.80002,
          -0.456242,
          1.75696,
          -0.146944,
          -1.93215,
          0.147057,
          0.932485,
          0.034381,
          0.937903,
          -1.53769,
          -0.382004,
          1.82865,
          -0.0850281,
          -1.70423,
          0.239375,
          0.555024,
          0.230801,
          0.538291,
          -1.78618,
          0.19022,
          1.59638,
          -0.560406,
          -0.827565,
          0.370393,
          0.270549,
          2.83244,
          -2.1599,
          0.376381,
          2.05037,
          -5.01249,
          2.06217,
          0.424956,
          -2.93378,
          2.61226,
          1.22964,
          -1.90971,
          -0.150027,
          1.45732,
          -3.42152,
          1.53043,
          0.584809,
          -1.57599,
          1.92433,
          1.27665,
          -0.925359,
          0.176837,
          1.47944,
          -2.78211,
          1.14365,
          0.153423,
          -1.50826,
          1.08132
        ],
        "bias": [
          0.785075,
          0.439833,
          1.32177,
          0.509869,
          -2.8534,
          0.545677,
          0.0903234,
          0.545658,
          -0.0015051,
          0.412499,
          0.399033,
          0.558875,
          0.444927,
          0.548484,
          0.00906972,
          1.87409
        ],
        "factor_scale": [
          15360,
          15360,
          15360,
          15360,
          15360,
          15360,
          15360,
          15360,
          15360,
          15360,
          15360,
          15360,
          15360,
          15360,
          15360,
          15360
        ],
        "coef_dtype": 1,
        "coef_acc": [5,10,15],
        "input_dtype": 1,
        "input_acc": [5,10,15],
        "output_dtype": 1,
        "output_acc": [5,10,15]
      }
    },
    {
      "inst_name": "/model/backbone/stem/activate/Relu",
      "type_name": "Activation4",
      "bottom": [
        "2Fmodel2Fbackbone2Fstem2Fconv2FConv_output_0"
      ],
      "top": [
        "2Fmodel2Fbackbone2Fstem2Factivate2FRelu_output_0"
      ],
      "hw": 1,
      "hw_acc": [5,10,15],
      "param": {
        "function": "ReLU",
        "coeff": 1,
        "coeff2": 1,
        "num_input": 16,
        "num_output": 16
      },
      "data": {
        "input_dtype": 1,
        "input_acc": [5,10,15],
        "output_dtype": 1,
        "output_acc": [5,10,15]
      }
    },
    {
      "inst_name": "/model/backbone/stage1/stage1.0/conv/Conv_im_0",
      "type_name": "Conv2d",
      "bottom": [
        "2Fmodel2Fbackbone2Fstem2Factivate2FRelu_output_0"
      ],
      "top": [
        "2Fmodel2Fbackbone2Fstage12Fstage12E02Fconv2FConv_output_0"
      ],
      "hw": 1,
      "hw_acc": [5,10,15],
      "param": {
        "num_output": 32,
        "bias_term": 1,
        "group": 1,
        "pad_h": 1,
        "pad_w": 1,
        "kernel_h": 3,
        "kernel_w": 3,
        "stride_h": 2,
        "stride_w": 2,
        "dilation_h": 1,
        "dilation_w": 1,
        "num_input": 16,
        "padding_mode": 0
      },
      "data": {
        "coef": [
          0.108947,
          -0.504001,
          0.310153,
          -0.183832,
          -0.127392,
          0.271987,
          -0.303079,
          0.25021,
          0.0498949,
          0.00685213,
          -0.0302056,
          0.00592171,
          -0.0185541,
          -0.0147956,
          0.0430053,
          -0.00346973,
          0.0195809,
          0.00123441,
          0.0910041,
          0.0422111,
          -0.196354,
          0.408067,
          -0.453238,
          0.136578,
          0.258787,
          -0.494406,
          0.26249,
          -0.0787121,
          0.0231041,
          0.0504841,
          -0.0880431,
          0.0533605,
          -0.00492309,
          0.0588785,
          0.0739972,
          -0.0948478,
          -0.194465,
          -0.0184996,
          0.130907,
          -0.0185861,
          0.214971,
          0.0571574,
          0.0157527,
          0.0116423,
          -0.038537,
          -0.235849,
          0.253865,
          -0.156213,
          -0.178973,
          0.46617,
          -0.440318,
          0.284227,
          -0.159313,
          0.153061,
          0.000803214,
          -0.102904,
          0.0834498,
          -0.0314818,
          0.00505702,
          -0.0433985,
          -0.116182,
          -0.0863826,
          0.111104,
          0.0223299,
          -0.0373047,
          -0.0785555,
          0.0484296,
          -0.0102172,
          0.0283494,
          -0.0534649,
          0.0374412,
          -0.00499204,
          -0.108893,
          -0.0231984,
          0.0575923,
          -0.113412,
          0.00371588,
          0.0177906,
          0.0926149,
          -0.0741194,
          -0.0663984,
          -0.0211314,
          -0.132036,
          0.147398,
          0.0859681,
          -0.403579,
          0.380668,
          -0.233037,
          0.160348,
          0.0138407,
          -0.0326415,
          0.0680303,
          0.0206594,
          -0.0285047,
          0.0658016,
          -0.0884109,
          0.0332836,
          0.0278337,
          -0.0731945,
          0.0660782,
          0.166258,
          -0.213657,
          0.0635597,
          0.109181,
          -0.226995,
          0.227495,
          -0.194539,
          0.00824232,
          -0.0562875,
          0.00267098,
          0.027806,
          0.0112305,
          0.0778428,
          -0.0164152,
          0.00286897,
          0.026684,
          -0.0905567,
          0.230773,
          -0.347884,
          0.199576,
          0.0659874,
          -0.297988,
          0.457539,
          -0.332729,
          0.178765,
          -0.141426,
          -0.0123469,
          0.046382,
          -0.115568,
          -0.0457673,
          0.0548961,
          0.038857,
          -0.0735291,
          0.230361,
          -0.147994,
          -0.314715,
          0.585328,
          -0.428703,
          0.203855,
          -0.888774,
          0.768341,
          0.449755,
          -0.646206,
          0.208238,
          -0.136392,
          0.189735,
          -0.0250665,
          -0.265834,
          0.489524,
          -0.286211,
          0.0786578,
          0.141652,
          -0.187618,
          -0.0220273,
          -0.0100461,
          0.0172513,
          -0.0337134,
          -0.028397,
          0.031554,
          -0.0113674,
          0.0282508,
          0.0281767,
          0.161391,
          -0.399769,
          0.173952,
          0.044936,
          -0.253284,
          0.289224,
          -0.0908408,
          0.10082,
          -0.00861422,
          0.00486411,
          0.0177957,
          0.00715638,
          -0.031584,
          -0.0639388,
          -0.0100248,
          0.0182103,
          -0.0173109,
          0.0469686,
          -0.00761029,
          0.0783001,
          -0.154877,
          0.129281,
          0.00682186,
          0.0375172,
          0.0640692,
          -0.110772,
          0.024754,
          0.0126532,
          0.173328,
          -0.216989,
          0.257786,
          -0.471768,
          0.301448,
          0.113619,
          -0.466786,
          0.168401,
          0.0748334,
          -0.00305478,
          -0.061466,
          0.0510121,
          -0.0790117,
          0.00901101,
          -0.0128885,
          -0.0700449,
          0.0157126,
          0.0110942,
          -0.0474966,
          0.0182373,
          -0.0144836,
          0.143095,
          -0.0210923,
          -0.0176056,
          -0.00383075,
          0.000607204,
          -0.010868,
          -0.00599797,
          -0.0227557,
          0.0186961,
          -0.0429056,
          -0.0903137,
          0.00108167,
          -0.0477176,
          -0.10496,
          0.0478214,
          -0.147996,
          0.136311,
          -0.134369,
          0.293264,
          -0.226049,
          -0.1378,
          0.166859,
          -0.0319681,
          -0.0468785,
          0.0508121,
          0.0053089,
          0.0222325,
          -0.0339632,
          -0.0389468,
          0.0441274,
          -0.0312673,
          0.0113137,
          0.0127233,
          -0.00544846,
          -0.0943664,
          0.0629431,
          -0.30413,
          0.308194,
          0.0552499,
          -0.103733,
          0.0308609,
          0.0172698,
          0.0355663,
          -0.0446858,
          0.0222818,
          0.0639148,
          -0.0824967,
          -0.00687216,
          0.0237242,
          -0.0412523,
          -0.0197905,
          0.0430143,
          0.241558,
          -0.265444,
          0.543625,
          -0.502556,
          -0.142735,
          0.357332,
          -0.349205,
          -0.112852,
          0.101127,
          0.0379031,
          0.0605583,
          0.363194,
          -0.287083,
          -0.0973515,
          0.164358,
          0.0708797,
          0.0789054,
          -0.698895,
          0.67497,
          0.566559,
          -0.946491,
          0.197499,
          -0.11614,
          0.417822,
          -0.43611,
          0.284254,
          0.197444,
          -0.226496,
          -0.384081,
          0.380908,
          0.00996042,
          -0.0491931,
          -0.169175,
          -0.0481994,
          0.0101722,
          0.0259671,
          0.0546373,
          -0.0408371,
          -0.0628684,
          0.0188445,
          0.00274774,
          -0.0188774,
          0.00297006,
          0.182875,
          0.201046,
          -0.37937,
          -0.334257,
          0.341484,
          0.14661,
          0.0233635,
          -0.35872,
          0.189168,
          0.037427,
          0.0106425,
          0.0991058,
          -0.0584229,
          -0.115117,
          0.0129415,
          -0.0211148,
          -0.0116142,
          0.0418876,
          -0.00674741,
          0.0372697,
          0.0497813,
          0.239112,
          0.0796921,
          -0.0343305,
          -0.295671,
          0.308615,
          -0.241109,
          -0.311233,
          0.630763,
          -0.197986,
          0.199707,
          -0.822863,
          0.758191,
          0.146536,
          -0.0303586,
          -0.285016,
          -0.0814957,
          -0.0498414,
          0.0989302,
          -0.110064,
          0.105768,
          -0.0683432,
          0.244583,
          -0.0896697,
          -0.0359092,
          0.209714,
          -0.0761074,
          -0.169803,
          -0.483035,
          0.398905,
          0.221223,
          0.254251,
          -0.31142,
          0.0208525,
          -0.211033,
          0.279123,
          -0.0064702,
          0.189378,
          -0.232386,
          -0.157019,
          -0.129593,
          -0.058808,
          0.250453,
          -0.354217,
          0.591857,
          -0.100327,
          0.131006,
          -1.01939,
          0.638958,
          0.21875,
          -0.0438935,
          -0.205482,
          0.0275695,
          -0.0442096,
          -0.0150433,
          0.0310361,
          -0.0850325,
          -0.0324297,
          0.0687693,
          0.0460712,
          0.00304922,
          0.353644,
          -0.64458,
          0.0803574,
          -0.0351149,
          0.832941,
          -0.617224,
          -0.205166,
          -0.00259447,
          0.152822,
          0.0107795,
          -0.0765492,
          -0.08713,
          0.108786,
          0.0405819,
          -0.0971581,
          -0.0455235,
          0.0845015,
          0.0396015,
          0.27025,
          -0.666766,
          0.289443,
          -0.346802,
          0.876549,
          -0.761989,
          0.0527173,
          0.056681,
          0.306496,
          0.138426,
          0.44108,
          0.00154696,
          0.341691,
          -0.642456,
          0.362025,
          -0.396499,
          0.634843,
          0.0789291,
          -0.146602,
          0.406814,
          -0.281052,
          0.0268985,
          0.0838622,
          0.040722,
          0.059924,
          -0.180126,
          0.0977866,
          -0.333611,
          0.227788,
          0.119801,
          0.21748,
          -0.647763,
          0.0704347,
          0.0997974,
          0.273432,
          -0.189045,
          0.0473013,
          -0.0406286,
          0.0368847,
          0.0279946,
          0.0240824,
          0.0427999,
          -0.049312,
          -0.0503983,
          -0.0317699,
          -0.110652,
          0.333876,
          0.117599,
          0.0195343,
          -0.557166,
          0.226949,
          0.0843658,
          0.21032,
          -0.326301,
          0.0509488,
          -0.0632544,
          -0.097432,
          0.0456096,
          0.099241,
          0.0559772,
          -0.117807,
          0.0265551,
          0.0306293,
          0.0945963,
          -0.0599097,
          -0.0762965,
          -0.0388853,
          0.271704,
          -0.0759186,
          0.005805,
          0.131509,
          0.175805,
          -0.157941,
          -0.21008,
          0.213763,
          0.214585,
          -0.0885066,
          -0.243678,
          -0.00648535,
          0.289804,
          0.0392023,
          -0.183764,
          0.062611,
          -0.175114,
          0.101307,
          -0.121046,
          0.0799409,
          -0.109673,
          0.16273,
          -0.16855,
          -0.101932,
          0.449409,
          -0.213355,
          0.258105,
          -1.25173,
          0.460755,
          -0.107677,
          0.674143,
          -0.193177,
          0.0281269,
          -0.201276,
          0.149894,
          -0.0399802,
          0.481656,
          0.013869,
          0.158426,
          -0.343007,
          -0.0816659,
          -0.05403,
          -0.487334,
          0.461968,
          0.299874,
          0.243029,
          -0.673917,
          -0.345082,
          0.466007,
          0.0449801,
          0.0361745,
          -0.044298,
          0.0050707,
          0.0840953,
          0.0466143,
          -0.0816118,
          -0.119894,
          -0.0176768,
          0.0831412,
          0.123712,
          0.407756,
          -0.436969,
          -0.288805,
          -0.0344552,
          0.453124,
          0.258788,
          -0.452385,
          -0.0703365,
          0.0293414,
          0.0277499,
          -0.124483,
          0.0445009,
          0.1243,
          0.0640635,
          -0.116931,
          -0.0723189,
          0.0284539,
          0.104701,
          0.286096,
          -0.127526,
          -0.185654,
          0.00876342,
          0.386227,
          0.0435358,
          -0.225219,
          -0.163392,
          0.140313,
          -0.086224,
          0.462052,
          -0.434732,
          0.386592,
          -0.521499,
          0.477217,
          -0.318027,
          0.415527,
          -0.0438951,
          -0.0033709,
          0.193435,
          -0.0204264,
          -0.156359,
          0.0427443,
          0.0960712,
          0.0948629,
          -0.134674,
          -0.120994,
          -0.0430909,
          0.0200836,
          -0.064667,
          -0.115686,
          0.0781254,
          0.108114,
          -0.0279849,
          0.042479,
          -0.526325,
          -0.165653,
          -0.435586,
          -0.041812,
          0.958518,
          0.729963,
          -0.111898,
          0.368762,
          -0.0454844,
          -0.0936485,
          0.00402383,
          0.0498057,
          0.114684,
          -0.0131095,
          0.0872108,
          0.138644,
          -0.0247599,
          -0.0478575,
          0.310733,
          0.0937189,
          -0.187909,
          0.0669586,
          -0.443314,
          -0.315522,
          0.0810825,
          -0.197106,
          0.126613,
          -0.152115,
          0.274198,
          0.19807,
          0.155439,
          0.46174,
          0.277198,
          0.0371223,
          0.00334695,
          -0.23121,
          0.0616234,
          0.0815671,
          -0.00214687,
          0.0599179,
          0.0699939,
          -0.0509934,
          0.040053,
          -0.00280003,
          0.00587456,
          0.294751,
          -0.105191,
          -0.370099,
          0.411072,
          0.234628,
          -0.193458,
          0.0570917,
          0.390775,
          0.192826,
          -0.044197,
          0.00268089,
          0.0834558,
          -0.0535405,
          -0.0234133,
          0.0205734,
          -0.00306121,
          -0.00167426,
          -0.0242881,
          0.00227319,
          -0.0717388,
          0.217818,
          -0.0612181,
          0.0238913,
          0.219814,
          -0.0590011,
          0.0513354,
          0.0373505,
          0.0101761,
          -0.0004698,
          0.074903,
          -0.00998069,
          0.0533242,
          0.0163031,
          -0.0417793,
          0.033884,
          -0.0540335,
          -0.386748,
          -0.240026,
          -0.11188,
          -0.127095,
          0.563395,
          0.529263,
          -0.085589,
          0.297598,
          0.00247425,
          -0.0113729,
          0.0338971,
          0.178082,
          -0.0414602,
          -0.0558974,
          0.0914664,
          -0.00134377,
          -0.0869312,
          -0.00554392,
          0.353923,
          0.131213,
          0.130182,
          0.200992,
          -0.92062,
          -0.887857,
          0.378218,
          -0.401284,
          -0.0765771,
          0.0272171,
          -0.00476317,
          0.0653284,
          0.0889401,
          0.0391351,
          -0.0124324,
          0.0667404,
          0.028408,
          -0.0923116,
          0.108947,
          0.00168179,
          -0.111063,
          0.293271,
          -0.0698335,
          -0.461282,
          0.235411,
          0.0773217,
          -0.211285,
          0.00512803,
          -0.0407178,
          -0.0549311,
          0.0284262,
          -0.0512062,
          -0.0879193,
          -0.00224595,
          0.0752015,
          -0.0341083,
          0.287496,
          0.415827,
          -0.228941,
          0.268042,
          0.268927,
          -0.353675,
          0.0213861,
          0.0369473,
          -0.130093,
          -0.0354315,
          0.00797653,
          0.0692822,
          -0.0785357,
          -0.070912,
          0.0495378,
          -0.00699196,
          0.0286556,
          0.100427,
          -0.184824,
          0.246477,
          -0.0983924,
          -0.125988,
          0.329839,
          -0.115102,
          -0.0995848,
          0.19552,
          -0.126629,
          0.00245784,
          -0.0661889,
          0.0163234,
          -0.019135,
          -0.104452,
          0.0723321,
          0.0724924,
          -0.0359245,
          0.0908362,
          0.117542,
          0.0325669,
          0.148071,
          0.198594,
          0.194217,
          0.22527,
          0.171042,
          0.169138,
          0.190666,
          -0.363944,
          -0.0228588,
          0.335462,
          -0.879792,
          0.185792,
          0.544819,
          -0.236827,
          0.147345,
          0.186932,
          0.0704913,
          -0.0765375,
          0.0260994,
          0.123716,
          -0.0686847,
          -0.0036447,
          0.064573,
          0.0568295,
          0.0147067,
          0.0595636,
          0.041522,
          -0.0351831,
          -0.0305681,
          0.0196947,
          -0.129454,
          -0.0355433,
          -0.00882083,
          0.0156359,
          -0.0353915,
          0.100551,
          -0.162466,
          -0.0171491,
          -0.0164252,
          -0.0470823,
          -0.0852579,
          0.0354435,
          -0.0376482,
          -0.0592023,
          0.0630325,
          -0.0867071,
          -0.117895,
          0.0418851,
          -0.0449938,
          -0.000926693,
          0.0677743,
          0.0549643,
          -0.0180197,
          -0.0140704,
          0.0330696,
          0.00509025,
          -0.0295905,
          0.0058088,
          0.0599965,
          0.0421883,
          0.0199493,
          0.0688055,
          0.0255057,
          0.0681161,
          -0.0298897,
          0.102449,
          -0.0568654,
          -0.0722929,
          0.0669089,
          -0.0671013,
          0.0936247,
          -0.0399614,
          -0.054381,
          0.1057,
          0.00220664,
          -0.0603195,
          0.0990087,
          -0.0216192,
          -0.0944542,
          0.207221,
          0.0750511,
          -0.291636,
          0.510804,
          0.145972,
          -0.755184,
          0.20285,
          0.0887568,
          -0.305877,
          -0.0175164,
          -0.216278,
          0.212942,
          0.12799,
          0.138515,
          -0.147561,
          0.144642,
          0.0109253,
          -0.147979,
          -0.210273,
          0.205026,
          -0.037332,
          -0.177137,
          0.180174,
          -0.0231574,
          0.0432792,
          -0.0340656,
          -0.0435549,
          0.115408,
          -0.144919,
          0.130618,
          0.02018,
          -0.049852,
          0.0627504,
          0.0285403,
          0.109129,
          0.00223605,
          -0.0270863,
          -0.0998152,
          0.372484,
          -0.288368,
          -0.257424,
          0.236319,
          0.0137237,
          -0.131,
          0.0433602,
          -0.125065,
          0.0276169,
          0.177797,
          -0.220686,
          0.0632673,
          0.299707,
          -0.353347,
          -0.151095,
          0.0934664,
          0.611845,
          -0.00251345,
          -1.14895,
          1.19085,
          0.452962,
          -2.01709,
          0.723115,
          0.796848,
          -0.780927,
          -0.446867,
          -0.209524,
          0.595461,
          -0.481365,
          -0.174155,
          0.88378,
          -0.570472,
          -0.141209,
          0.744032,
          -0.0838017,
          -0.0441343,
          0.0259233,
          -0.0655816,
          -0.111264,
          0.0429889,
          0.0455703,
          0.0132069,
          -0.0117666,
          0.582498,
          0.331757,
          -1.0918,
          -0.0969649,
          0.287197,
          0.0352731,
          -0.741764,
          -0.438203,
          0.970768,
          0.0466011,
          -0.0236988,
          -0.0587651,
          0.0173496,
          -0.0357246,
          -0.0279899,
          0.00260221,
          0.0429523,
          0.00414461,
          0.02588,
          -0.143033,
          -0.101139,
          0.152649,
          0.00270937,
          -0.241019,
          0.107327,
          0.108101,
          0.00746803,
          -0.0791244,
          -0.0258605,
          -0.0266251,
          -0.0194404,
          -0.0640768,
          0.0594308,
          0.00584403,
          -0.0330217,
          0.0795196,
          -0.418991,
          0.209515,
          0.873371,
          -1.43662,
          -0.22887,
          1.63821,
          -1.16819,
          -0.528592,
          0.947376,
          0.0147638,
          -0.0371638,
          -0.116395,
          0.127354,
          0.0130819,
          -0.119523,
          0.0749986,
          0.0598473,
          -0.0702874,
          -0.210728,
          0.372751,
          -0.187435,
          -0.111467,
          0.378629,
          -0.346664,
          -0.101433,
          0.344325,
          -0.19912,
          0.0318235,
          0.100447,
          0.0526105,
          -0.0562759,
          -0.0551758,
          0.0253787,
          0.052267,
          0.0309711,
          0.0732694,
          0.241954,
          0.358542,
          -0.0122823,
          -0.0944767,
          0.109741,
          0.213909,
          -0.3118,
          -0.151649,
          0.300659,
          0.0612426,
          0.0322632,
          0.0220227,
          -0.0217296,
          0.0271383,
          0.0352858,
          -0.0506715,
          -0.0672118,
          0.0639317,
          -0.385174,
          0.268243,
          0.0192646,
          -0.0837871,
          -0.105969,
          0.189123,
          0.0146112,
          -0.213695,
          0.115702,
          0.00547087,
          -0.007382,
          0.0645204,
          -0.0067588,
          -0.0255715,
          0.0213,
          -0.0419748,
          -0.0101878,
          -0.00303294,
          0.0431331,
          -0.303543,
          0.20568,
          0.430677,
          -0.67245,
          0.307334,
          0.363922,
          -0.405619,
          0.124943,
          0.0443602,
          -0.001888,
          0.0226055,
          -0.0570177,
          -0.0376511,
          0.0337709,
          -0.0465837,
          -0.0226564,
          0.049105,
          0.268508,
          -0.0573164,
          -0.220021,
          0.157622,
          0.187912,
          -0.111688,
          -0.063661,
          0.104783,
          -0.182349,
          0.479434,
          -0.61094,
          0.255169,
          0.19652,
          -0.112635,
          0.0439814,
          -0.274722,
          0.503144,
          -0.437898,
          0.0722292,
          0.0413343,
          -0.0910632,
          0.167132,
          -0.0691502,
          0.037822,
          -0.0612563,
          -0.0742406,
          -0.130172,
          -0.0607965,
          0.134759,
          -0.0661862,
          0.0910093,
          -0.128347,
          0.0970543,
          -0.036971,
          0.0751387,
          -0.0115444,
          0.00445675,
          -0.0539363,
          -0.0550658,
          -0.0284886,
          -0.0395525,
          0.0388648,
          -0.0578912,
          -0.147735,
          0.0680435,
          0.250624,
          -0.32481,
          0.0454815,
          0.223095,
          -0.251397,
          -0.0111109,
          0.0197101,
          0.0516313,
          -0.173827,
          0.0334399,
          -0.00997363,
          -0.0737482,
          0.0380457,
          0.0524048,
          -0.11861,
          -0.0443822,
          0.124205,
          -0.0164839,
          -0.230978,
          0.175744,
          -0.00813813,
          -0.10878,
          -0.0766981,
          0.0730317,
          0.0104709,
          -0.18771,
          0.155466,
          0.0206571,
          -0.0428706,
          -0.114622,
          0.0619455,
          0.0410343,
          -0.0423979,
          0.0427107,
          0.0271802,
          -0.00325217,
          -0.484126,
          0.593542,
          -0.271615,
          -0.228918,
          0.354708,
          -0.21526,
          0.234007,
          -0.362965,
          0.339169,
          0.368166,
          -0.174791,
          0.467907,
          -0.181828,
          0.671289,
          -0.0872075,
          0.328006,
          0.123932,
          -0.100157,
          0.317789,
          -0.436855,
          0.0562379,
          0.538564,
          -0.96735,
          0.390196,
          0.158685,
          -0.584596,
          0.36545,
          0.17891,
          0.259001,
          0.115794,
          0.154571,
          0.178204,
          0.170536,
          -0.449944,
          -0.433549,
          -0.151646,
          -0.0199313,
          -0.0850483,
          -0.0714923,
          0.0415325,
          0.075778,
          0.0323635,
          0.0201667,
          0.0228508,
          0.00948743,
          -0.147265,
          -0.329924,
          -0.270349,
          0.524464,
          0.841081,
          0.661703,
          -0.31215,
          -0.521035,
          -0.390608,
          -0.020113,
          -0.0385949,
          -0.0484745,
          -0.0737105,
          -0.105467,
          -0.0690829,
          0.100672,
          0.0822502,
          0.0864855,
          -0.00188476,
          -0.0126198,
          -0.0324843,
          -0.235639,
          -0.204739,
          -0.201938,
          0.287429,
          0.364316,
          0.324867,
          -0.00851649,
          -0.146526,
          -0.192691,
          -0.0529961,
          0.248711,
          0.28484,
          0.0884281,
          -0.161319,
          -0.184446,
          0.0611452,
          0.115008,
          0.0127383,
          -0.00664169,
          -0.0694364,
          -0.0240555,
          0.0401076,
          -0.00734599,
          -0.0939095,
          -0.315012,
          -0.743352,
          -0.344582,
          0.650687,
          2.22221,
          1.00453,
          -0.323176,
          -0.785092,
          -0.507221,
          0.131823,
          0.362227,
          0.163484,
          0.575246,
          -0.943166,
          0.527521,
          -0.141581,
          -0.0141134,
          0.0459746,
          0.183901,
          0.387623,
          0.280744,
          -0.216327,
          -0.674246,
          -0.46807,
          -0.262009,
          0.376205,
          -0.00833318,
          0.0387846,
          0.0421121,
          0.0434374,
          -0.15343,
          -0.141758,
          -0.0971297,
          0.0869357,
          0.123414,
          0.0984425,
          -0.109092,
          -0.040796,
          -0.124858,
          -0.028594,
          0.277887,
          0.260776,
          0.218594,
          -0.00240787,
          0.18133,
          0.0339338,
          0.106096,
          0.106119,
          -0.0589647,
          -0.0313584,
          -0.029632,
          -0.0677754,
          -0.0379161,
          -0.0912742,
          -0.0873107,
          -0.177807,
          -0.0522734,
          0.27885,
          0.292404,
          0.00185015,
          -0.150519,
          -0.172913,
          -0.00526748,
          -0.0399093,
          -0.0469638,
          -0.14746,
          0.0918134,
          0.0690445,
          -0.0892673,
          -0.135762,
          0.0237471,
          -0.0932746,
          -0.00116337,
          -0.054537,
          -0.0702618,
          -0.0333571,
          0.047649,
          -0.0290088,
          0.00105027,
          -0.0631617,
          0.0214995,
          0.139565,
          0.236745,
          0.0085152,
          -0.404667,
          -0.508697,
          -0.239431,
          0.213004,
          0.419021,
          0.186528,
          0.0347286,
          0.00883557,
          -0.0218385,
          0.0218572,
          0.0585844,
          0.0242469,
          -0.0461379,
          -0.0321491,
          -0.0669889,
          0.0884552,
          0.201987,
          0.159811,
          -0.171247,
          -0.208447,
          -0.175337,
          -0.00646253,
          0.051408,
          0.0540125,
          0.00271492,
          -0.0309079,
          -0.0548985,
          0.0384661,
          0.0265664,
          -0.0101147,
          -0.00500157,
          0.0221407,
          0.0139867,
          -0.241592,
          -0.227997,
          -0.240995,
          0.135988,
          0.232321,
          0.124566,
          0.0531477,
          0.0562765,
          0.0652456,
          -0.00426863,
          0.038199,
          -0.0243663,
          0.0333017,
          -0.0632589,
          -0.0972173,
          0.0205583,
          0.028016,
          0.0755542,
          0.0991199,
          0.0977991,
          -0.0141237,
          -0.104713,
          -0.0868664,
          -0.0571888,
          -0.0291063,
          0.074513,
          0.0862134,
          0.242317,
          0.192594,
          0.0185683,
          -0.304881,
          -1.15018,
          -0.463054,
          0.224979,
          0.75624,
          0.501499,
          0.409952,
          0.991103,
          0.456332,
          0.250959,
          0.245419,
          0.13353,
          0.197868,
          0.371041,
          0.258638,
          0.0206076,
          0.380692,
          0.142879,
          -0.220912,
          -0.440775,
          -0.33026,
          0.0790312,
          0.0696402,
          0.0714133,
          -0.00571217,
          -0.015545,
          -0.00891188,
          -0.0298171,
          -0.0200884,
          0.023325,
          0.0227312,
          0.00275783,
          0.0374369,
          -0.0763724,
          -0.421797,
          -0.222098,
          0.272468,
          0.575165,
          0.261333,
          -0.167305,
          -0.142257,
          -0.117453,
          0.00316575,
          0.040315,
          0.0382625,
          -0.0223536,
          -0.00678009,
          -0.0410834,
          -0.0408885,
          0.0305069,
          -0.0152271,
          0.0663779,
          0.0349785,
          0.049005,
          -0.0769031,
          -0.0807051,
          -0.00441054,
          0.0267135,
          0.0268909,
          -0.0326503,
          -0.142849,
          0.0502901,
          0.0959656,
          0.0639517,
          0.0664348,
          -0.295395,
          -0.0456756,
          -0.12322,
          -0.11037,
          -0.062108,
          0.0173899,
          0.0678943,
          0.0747182,
          -0.0321206,
          -0.0719535,
          0.0218792,
          -0.0552106,
          0.0180124,
          0.294885,
          -0.403839,
          -0.110544,
          -0.595963,
          0.187428,
          0.224625,
          0.272937,
          0.0699997,
          -0.0277225,
          0.00682106,
          -0.0826935,
          -0.0328107,
          -0.0133493,
          0.00987081,
          0.116381,
          -0.00361632,
          -0.0302352,
          0.0158537,
          0.119528,
          0.418521,
          0.0283752,
          0.123707,
          -0.460767,
          -0.263819,
          -0.219175,
          0.0653132,
          0.193066,
          -0.134675,
          -0.0603671,
          -0.0255533,
          0.0267013,
          0.109317,
          0.0329099,
          0.0851093,
          0.0421586,
          -0.076211,
          -0.247812,
          0.0541371,
          0.0323091,
          -0.0553993,
          0.267003,
          -0.0255655,
          0.0911115,
          0.103221,
          0.0619693,
          -0.116582,
          0.131921,
          0.341197,
          0.509029,
          0.110055,
          -0.470708,
          -0.291355,
          -0.23403,
          0.108648,
          0.0796811,
          -0.258215,
          -0.0312565,
          -0.132963,
          0.0591571,
          -0.122047,
          0.0732965,
          -0.069194,
          0.0978287,
          -0.00787188,
          0.318524,
          -0.00950342,
          0.0572405,
          -0.69945,
          -0.0555978,
          -0.0334824,
          0.381424,
          0.0500268,
          0.374279,
          -0.356768,
          -0.0454697,
          -0.0204284,
          0.337321,
          -0.0964544,
          0.0630159,
          -0.467981,
          0.392612,
          0.169277,
          0.111322,
          -0.518976,
          -0.41658,
          -0.265927,
          0.581645,
          0.264105,
          0.197343,
          -0.279414,
          -0.036009,
          -0.0266925,
          0.0672707,
          -0.0331498,
          0.0540436,
          0.0775616,
          0.0371518,
          -0.0577415,
          -0.100251,
          -0.211904,
          -0.0535272,
          0.428965,
          0.387395,
          0.233936,
          -0.505659,
          -0.321785,
          -0.2052,
          0.176541,
          -0.0690955,
          0.00603187,
          0.0489643,
          0.0752004,
          0.1337,
          -0.0170354,
          -0.028165,
          -0.0438827,
          -0.125206,
          0.161333,
          0.0470099,
          -0.456859,
          -0.304615,
          -0.335332,
          0.427368,
          0.154916,
          0.282599,
          0.0151136,
          -0.288874,
          0.259138,
          -0.440109,
          0.428155,
          -0.41246,
          0.401933,
          -0.4655,
          0.268435,
          -0.287906,
          -0.114381,
          0.338937,
          -0.253511,
          0.332101,
          -0.500526,
          0.110305,
          -0.378226,
          0.439489,
          -0.031588,
          0.453551,
          0.0232807,
          -0.0390386,
          0.614686,
          -0.135546,
          -0.274149,
          0.0726937,
          -0.184395,
          -0.0855387,
          1.86315e-05,
          0.0595217,
          0.119275,
          -0.104848,
          -0.0245656,
          0.0660568,
          -0.0735156,
          -0.0569074,
          0.0828627,
          0.277902,
          -0.0829924,
          -0.175444,
          0.525673,
          -0.0914089,
          -0.345255,
          0.311135,
          -0.169139,
          -0.274223,
          -0.207253,
          0.00792258,
          0.136691,
          -0.19274,
          0.0977837,
          0.193332,
          -0.0817005,
          0.0295684,
          0.0682297,
          0.0828745,
          0.26622,
          0.33128,
          0.268078,
          0.34401,
          0.454221,
          -0.0608073,
          0.188563,
          0.337629,
          0.205333,
          0.295358,
          0.0897634,
          0.359238,
          0.387396,
          0.281238,
          0.0999373,
          0.353782,
          0.190126,
          -0.311334,
          -0.0950291,
          0.321607,
          -0.222826,
          -0.164841,
          0.227827,
          0.098357,
          -0.0796528,
          0.0717034,
          0.00462678,
          -0.0459833,
          -0.0220835,
          0.0849402,
          0.0291495,
          -0.0343029,
          -0.0136986,
          -0.0320453,
          0.0611563,
          0.156603,
          0.111641,
          -0.0161341,
          0.097547,
          0.0112373,
          0.0991304,
          0.186472,
          0.0824436,
          0.00374979,
          0.18669,
          0.0566522,
          -0.0946048,
          0.176599,
          -0.129647,
          -0.040086,
          -0.044996,
          -0.0165815,
          0.0569596,
          0.0709161,
          0.0434872,
          -0.0863313,
          0.0792118,
          0.00755896,
          -0.153713,
          0.0591911,
          0.0571959,
          -0.0756959,
          -0.0569741,
          -0.0315528,
          0.0566057,
          0.0843631,
          -0.140619,
          0.0448033,
          0.150911,
          -0.0433785,
          -0.0437331,
          0.0298663,
          0.0640273,
          -0.0601534,
          0.0479313,
          0.0684606,
          -0.105378,
          0.0911138,
          0.0700513,
          -0.157141,
          -0.289529,
          -0.279672,
          -0.0221964,
          -0.79718,
          -0.47108,
          -0.169246,
          -0.330673,
          -0.330575,
          -0.00186274,
          0.05621,
          -0.0735474,
          0.0818172,
          -0.0320204,
          -0.180941,
          0.131762,
          -0.12312,
          -0.460516,
          0.0449319,
          0.144294,
          -0.0313651,
          -0.0915001,
          0.274674,
          -0.0769581,
          -0.212307,
          0.0609725,
          -0.0863061,
          -0.134967,
          0.133978,
          0.209581,
          0.0555508,
          0.102221,
          0.254518,
          0.131375,
          0.0742725,
          0.168424,
          0.0567707,
          0.173587,
          0.0983257,
          0.123089,
          -0.00867295,
          -0.246009,
          -0.058835,
          0.0395976,
          -0.110152,
          0.152022,
          -0.0674703,
          -0.0193498,
          -0.0712442,
          -0.017782,
          -0.0381533,
          -0.0511949,
          0.00121083,
          -0.116616,
          -0.0679876,
          -0.165441,
          0.0763359,
          0.0791898,
          -0.0171922,
          0.481018,
          0.16923,
          -0.087687,
          0.105175,
          -0.0478113,
          0.130562,
          0.168184,
          0.108662,
          0.0842412,
          0.0337587,
          -0.037926,
          0.0901243,
          0.0680327,
          -0.0575113,
          0.0303059,
          0.00455253,
          -0.00399149,
          0.0278833,
          -0.0190164,
          -0.0420267,
          0.0216126,
          -0.0031299,
          -0.0374345,
          -0.195618,
          0.526959,
          0.641612,
          -0.316332,
          0.483025,
          0.821696,
          -0.317552,
          -0.178606,
          -0.0988469,
          0.00585413,
          0.0345636,
          0.00128679,
          0.0139506,
          0.046426,
          0.0329555,
          0.0431225,
          0.0677931,
          0.0487941,
          0.00769882,
          0.0699854,
          0.0805805,
          0.00808063,
          0.127973,
          0.164071,
          0.0508027,
          0.134579,
          0.130284,
          0.00021798,
          0.0273083,
          0.0420155,
          -0.0163253,
          -0.00827832,
          0.0200727,
          -0.0470456,
          0.0240739,
          0.0387504,
          0.33671,
          0.126502,
          0.228363,
          0.0957047,
          -0.935042,
          -0.261418,
          0.315659,
          -0.69961,
          -0.0214282,
          -0.0233421,
          0.00160703,
          0.0414157,
          -0.0128981,
          -0.000788591,
          0.0833129,
          0.0167829,
          -0.0119171,
          0.0423455,
          -0.213182,
          -0.0960645,
          -0.0338291,
          -0.00324663,
          0.314377,
          0.358675,
          -0.00460766,
          0.284392,
          0.177367,
          0.00941567,
          -0.0138567,
          0.0324684,
          0.0713845,
          -0.0435907,
          -0.0419425,
          0.105593,
          0.0124251,
          -0.0552163,
          0.104846,
          0.119187,
          0.0888394,
          0.20186,
          0.0629945,
          -0.0130081,
          0.189911,
          0.0429618,
          0.00037919,
          0.00644556,
          -0.014191,
          -0.00764176,
          0.0296516,
          -0.0171135,
          0.0130159,
          0.01478,
          0.0115113,
          0.00802169,
          -0.234536,
          -0.328814,
          -0.17003,
          0.307388,
          0.384044,
          0.145506,
          -0.143483,
          -0.0753512,
          0.0734585,
          0.0366136,
          0.00268593,
          -0.0256328,
          0.0162505,
          0.0606599,
          0.0323363,
          -0.0530382,
          -0.0313195,
          -0.0527494,
          0.0530366,
          0.272794,
          0.255588,
          -0.212375,
          -0.275514,
          -0.304329,
          0.0684796,
          0.0861865,
          0.0802687,
          0.0450944,
          0.0303494,
          -0.0228545,
          -0.0347784,
          -0.0630312,
          -0.0597911,
          0.0214409,
          0.0406452,
          0.0260752,
          0.0713641,
          0.117355,
          -0.0290709,
          -0.098791,
          -0.00296338,
          -0.101033,
          0.0112332,
          0.071484,
          0.0183068,
          -0.0119208,
          0.0618639,
          0.0427899,
          -0.0845548,
          -0.0878529,
          -0.0761592,
          0.127192,
          0.0311678,
          0.0232446,
          -0.0890153,
          0.0117503,
          -0.0653105,
          0.148287,
          0.0294311,
          0.0308204,
          -0.0618459,
          -0.0458393,
          -0.0249892,
          0.186125,
          0.65826,
          0.326922,
          0.150681,
          -0.0628509,
          -0.16441,
          -0.151945,
          -0.530881,
          -0.155537,
          0.0969956,
          0.0100311,
          -0.102614,
          0.453241,
          0.842139,
          0.621305,
          0.190882,
          0.890759,
          0.285673,
          -0.0895953,
          -0.556994,
          -0.33685,
          0.41664,
          0.909606,
          0.491126,
          -0.344926,
          -0.457335,
          -0.349995,
          -0.080717,
          -0.0700784,
          -0.0544078,
          0.0612636,
          0.0645327,
          0.103653,
          -0.0290416,
          -0.0479734,
          0.0417743,
          0.230446,
          0.576155,
          0.283247,
          -0.295541,
          -0.777605,
          -0.478432,
          0.102339,
          0.25575,
          0.0318503,
          0.00882331,
          0.0732525,
          0.0438879,
          -0.0143433,
          0.00662053,
          -0.0262516,
          -0.0692087,
          -0.0210921,
          -0.0424639,
          0.143291,
          0.124023,
          0.0301514,
          -0.0242287,
          -0.221636,
          -0.0924598,
          -0.0160404,
          0.0667305,
          0.030139,
          0.0839962,
          0.0431884,
          -0.158649,
          -0.29834,
          0.0369981,
          0.0184719,
          0.0409868,
          -0.0243266,
          -0.256441,
          0.0418672,
          0.000558587,
          -0.0106768,
          -0.12506,
          -0.0417614,
          0.0720017,
          0.0623744,
          0.0163923,
          -0.0426292,
          0.141613,
          -0.465383,
          0.254923,
          0.264721,
          -0.552272,
          0.333343,
          0.120347,
          -0.179981,
          0.0573273,
          -0.000977885,
          0.0194749,
          -0.00425115,
          -0.0434413,
          0.0195522,
          -0.00186524,
          -0.0635698,
          0.0369685,
          0.0225215,
          0.0414623,
          -0.114174,
          0.0342759,
          -0.0348259,
          0.148377,
          -0.0408493,
          -0.0968557,
          0.256454,
          -0.164641,
          -0.0357802,
          0.0259685,
          0.0945879,
          -0.115256,
          -0.0455027,
          0.0584364,
          -0.0134491,
          -0.0245504,
          0.0287353,
          -0.113556,
          0.0880732,
          0.0788384,
          -0.0143038,
          0.0641921,
          0.12888,
          -0.0510298,
          -0.0842117,
          -0.0171895,
          -0.100832,
          0.306785,
          -0.0161888,
          -0.479991,
          0.929016,
          -0.541922,
          -0.197788,
          0.317591,
          -0.229735,
          0.0557379,
          -0.0614474,
          0.0707118,
          -0.043397,
          -0.0106341,
          0.0933566,
          -0.0470326,
          0.00861249,
          -0.140317,
          0.0256495,
          -0.0642345,
          0.0099254,
          -0.0204224,
          0.0196793,
          0.0589854,
          -0.0492937,
          0.0973538,
          -0.0742244,
          -0.0311754,
          -0.0770017,
          0.0203028,
          -0.168083,
          0.172697,
          -0.00517929,
          -0.136529,
          0.0585499,
          -0.0150645,
          -0.0433812,
          0.0912824,
          -0.0230002,
          -0.131111,
          0.229549,
          -0.179605,
          0.0461863,
          0.00568053,
          -0.0778713,
          -0.0142874,
          0.0364228,
          -0.063996,
          -0.0323033,
          0.0541668,
          -0.0700932,
          0.0122919,
          0.0873856,
          -0.028371,
          0.029988,
          -0.0957321,
          -0.0229785,
          0.13101,
          -0.207227,
          0.0443042,
          -0.0404609,
          -0.0247614,
          0.0611105,
          0.00251138,
          -0.0416244,
          -0.0477329,
          0.0552953,
          0.00688697,
          -0.0250891,
          0.075316,
          0.0149461,
          -0.0554102,
          0.102941,
          -0.208229,
          0.0927366,
          0.336549,
          -0.871378,
          0.575762,
          0.103388,
          -0.378684,
          0.294369,
          -0.103075,
          0.384915,
          -0.099085,
          0.625397,
          -0.376541,
          -0.0628632,
          0.257671,
          -0.723831,
          0.311142,
          -0.0409358,
          -0.148805,
          0.317384,
          -0.553151,
          0.452248,
          0.274514,
          -0.402009,
          0.334877,
          0.140997,
          -0.0803008,
          -0.0442977,
          -0.010629,
          0.0421807,
          0.0439825,
          0.000832533,
          0.23943,
          0.121894,
          -0.104888,
          -0.717181,
          -1.33929,
          -1.12123,
          0.049825,
          -0.0231423,
          -0.0078589,
          0.625217,
          1.40496,
          1.1342,
          -0.0241668,
          -0.0577659,
          -0.0490666,
          0.0391483,
          -0.0252463,
          -0.0173768,
          -0.0425927,
          0.104263,
          0.0640826,
          -0.504755,
          -0.825571,
          -0.280803,
          0.025995,
          -0.0447152,
          0.0943427,
          0.509109,
          0.544296,
          0.268622,
          -0.120134,
          -0.0154817,
          -0.145086,
          -0.189749,
          0.134323,
          -0.028056,
          0.0488125,
          0.384365,
          0.108457,
          -0.0172026,
          -0.0198484,
          -0.0176192,
          0.0239847,
          0.0350603,
          0.0143065,
          -0.0530365,
          0.00186388,
          0.0229115,
          -0.0631852,
          -0.327543,
          -0.490255,
          -0.179882,
          -0.113865,
          0.0644624,
          -0.105597,
          0.38983,
          0.692884,
          0.0473908,
          -0.0144961,
          -0.0227546,
          0.0146903,
          -0.00853182,
          0.00137274,
          -0.0122343,
          -0.0193975,
          0.0343587,
          0.0136185,
          -0.01849,
          0.00498307,
          0.0248641,
          0.00300115,
          0.0531747,
          -0.0174914,
          -0.028726,
          -0.0263292,
          0.00345342,
          0.018467,
          0.0231033,
          0.023927,
          0.0274995,
          0.0726965,
          -0.0183578,
          0.0856507,
          0.104301,
          0.137105,
          0.243894,
          0.190543,
          0.155239,
          0.139667,
          0.130681,
          -0.277964,
          -0.533098,
          -0.380596,
          0.0149205,
          0.00469341,
          -0.0225972,
          0.0174754,
          -0.0290338,
          -0.0130605,
          -0.0163379,
          -0.00524109,
          0.0340318,
          0.352218,
          0.768222,
          0.744885,
          0.126639,
          0.364225,
          0.309699,
          -0.543788,
          -1.08007,
          -1.0337,
          -0.0484057,
          -0.00957278,
          0.00570947,
          0.054709,
          0.0383796,
          0.00706774,
          -0.0105465,
          0.0151324,
          -0.0115126,
          0.111694,
          -0.0358128,
          -0.139808,
          0.06349,
          0.0106281,
          -0.0987756,
          -0.124199,
          -0.1271,
          0.123274,
          0.018243,
          -0.00401125,
          -0.00276045,
          0.0249229,
          -0.00384196,
          -0.021927,
          -0.0178895,
          -0.00574587,
          -0.00145521,
          -0.0811293,
          0.469702,
          -0.23898,
          0.38283,
          -0.546466,
          0.100909,
          -0.158127,
          0.115378,
          0.000198694,
          -0.0219551,
          -0.0726226,
          0.00754997,
          -0.0505258,
          -0.0861378,
          0.0668175,
          0.0311279,
          0.0102617,
          0.0956896,
          -0.310063,
          -0.0309789,
          0.200658,
          -0.0601183,
          0.502927,
          -0.269832,
          0.204841,
          -0.207643,
          -0.0286682,
          -0.0371433,
          -0.0468994,
          0.0278392,
          -0.10997,
          -0.0372639,
          0.0359843,
          0.112091,
          0.069719,
          -0.0183786,
          0.126877,
          -0.0267867,
          -0.0144054,
          -0.0934931,
          0.113625,
          0.154883,
          -0.169087,
          0.211949,
          -0.259015,
          0.3143,
          -0.671068,
          0.185589,
          -0.612422,
          0.537484,
          0.0570951,
          0.187656,
          0.214116,
          -0.225282,
          -0.0501476,
          -0.00837374,
          0.0306683,
          -0.0405223,
          -0.0868213,
          0.103145,
          0.0125898,
          0.0966663,
          -0.0652997,
          -0.243602,
          -0.108314,
          0.124216,
          0.273741,
          0.274269,
          -0.30784,
          -0.0893028,
          -0.132586,
          0.191528,
          -0.0756578,
          0.368849,
          -0.227075,
          -0.0847184,
          -0.292386,
          0.418355,
          0.261301,
          0.167206,
          -0.255615,
          -0.2793,
          0.629505,
          -0.174313,
          0.559576,
          -0.761725,
          -0.0216096,
          -0.133174,
          -0.0723775,
          0.234654,
          0.050389,
          0.0225447,
          0.029205,
          -0.0023181,
          -0.10926,
          -0.0132498,
          -0.00641418,
          0.0474965,
          -0.0112449,
          0.277661,
          -0.750197,
          0.284323,
          -0.523463,
          0.70302,
          0.105064,
          0.223024,
          -0.135769,
          -0.116295,
          0.00312475,
          -0.0714714,
          0.00779838,
          -0.0225381,
          0.00454921,
          0.0897923,
          -0.0179915,
          0.0325582,
          -0.0543338,
          -0.267462,
          0.557069,
          -0.0888794,
          0.561487,
          -0.432467,
          -0.337467,
          -0.17319,
          -0.263922,
          0.369732,
          0.166721,
          -0.362455,
          0.246814,
          -0.0710043,
          0.20972,
          -0.490833,
          -0.0036304,
          -0.271098,
          0.34675,
          0.11597,
          -0.219501,
          0.151581,
          -0.454545,
          1.02708,
          -0.726263,
          0.144854,
          -0.502746,
          0.414027,
          0.20632,
          -0.416056,
          0.235377,
          0.0886631,
          0.131206,
          -0.245665,
          -0.0960668,
          0.0812912,
          -0.000175885,
          0.0446269,
          0.0071391,
          0.0492735,
          -0.0643268,
          0.00330268,
          0.0327829,
          -0.000552047,
          -0.0441356,
          -0.0327204,
          0.0709858,
          -0.408634,
          0.284657,
          0.198348,
          0.181249,
          -0.417428,
          -0.281423,
          0.217774,
          0.157334,
          0.0668671,
          0.0629593,
          0.0425951,
          -0.116391,
          -0.0363721,
          0.0984634,
          -0.0806237,
          -0.0965986,
          0.041912,
          0.0384474,
          0.0874808,
          -0.268011,
          0.156279,
          0.0186228,
          0.1058,
          0.0335827,
          0.05767,
          -0.143279,
          0.233686,
          -0.0780354,
          0.0210495,
          -0.488681,
          0.705756,
          -0.324279,
          0.188899,
          -0.579183,
          0.396724,
          0.0156966,
          -0.0549844,
          0.114099,
          -0.0199093,
          0.0681148,
          -0.0885056,
          0.0102347,
          -0.0632484,
          -0.000835246,
          0.0170846,
          -0.372939,
          0.30101,
          0.20113,
          0.354457,
          -0.566055,
          -0.165553,
          -0.126437,
          0.290545,
          0.118774,
          0.0357466,
          -0.118576,
          -0.0582418,
          -0.2247,
          0.278104,
          -0.0239879,
          0.359844,
          -0.24729,
          0.201902,
          0.0256763,
          -0.25348,
          -0.441324,
          0.759108,
          -0.0440894,
          0.0879109,
          -0.716515,
          0.37748,
          0.060061,
          -0.0173733,
          -0.0611363,
          -0.0188473,
          0.0505496,
          -0.0164623,
          0.00111654,
          -0.043627,
          0.050203,
          -0.185923,
          0.0371439,
          0.221241,
          0.494311,
          -0.795977,
          0.077816,
          -0.146841,
          0.586321,
          -0.402487,
          -0.0339748,
          -0.0161723,
          0.0332497,
          0.0408686,
          -0.059444,
          -0.051197,
          0.060945,
          -0.00977854,
          0.0424455,
          -0.295147,
          0.0571126,
          0.185594,
          0.462665,
          -0.721264,
          0.242885,
          -0.168582,
          0.619598,
          -0.485827,
          0.0665171,
          0.506071,
          -0.619049,
          0.369462,
          -0.928418,
          0.575126,
          -0.150516,
          0.475046,
          0.0204777,
          0.132255,
          -0.223651,
          0.123272,
          -0.00850304,
          0.136616,
          -0.0959962,
          -0.070943,
          0.213834,
          -0.122223,
          -0.183813,
          -0.151763,
          0.017092,
          -0.292033,
          -0.228832,
          -0.0571661,
          -0.116071,
          0.0240074,
          -0.118098,
          -0.0213182,
          0.0290349,
          0.0339536,
          -0.00967699,
          -0.0159859,
          0.0768861,
          -0.00120469,
          -0.13514,
          0.0283212,
          0.028844,
          0.0533008,
          0.0164034,
          -0.0117443,
          -0.0362303,
          0.0133352,
          -0.164178,
          -0.101139,
          0.000844789,
          -0.0127261,
          0.0474264,
          -0.0458113,
          0.0118939,
          -0.000752923,
          -0.0945604,
          0.0149806,
          0.0793661,
          0.0425741,
          0.156305,
          -0.138981,
          -0.388002,
          -0.179897,
          -0.662676,
          -0.718293,
          -0.372845,
          -0.745536,
          -0.816349,
          0.0164472,
          0.0293898,
          0.0454135,
          0.0251198,
          -0.0110811,
          0.0894291,
          0.0795527,
          0.103747,
          0.050058,
          0.0993865,
          0.0468649,
          0.0108468,
          0.14002,
          0.0259885,
          -0.120139,
          0.136637,
          0.0202668,
          -0.0162479,
          0.0952996,
          0.118626,
          -0.0361842,
          0.0724778,
          -0.0731294,
          -0.218776,
          -0.104177,
          -0.462446,
          -0.481338,
          0.250182,
          0.150864,
          0.00810869,
          0.09532,
          -0.190168,
          -0.716345,
          -0.277953,
          -1.47737,
          -1.81973,
          0.110693,
          0.13523,
          -0.0203923,
          0.0919785,
          -0.00814417,
          -0.107949,
          -0.0519208,
          -0.256486,
          -0.323357,
          0.0299917,
          -0.0465458,
          -0.108797,
          -0.0404919,
          0.147076,
          0.0321764,
          -0.0228146,
          0.135813,
          -0.0221434,
          0.0917626,
          0.134338,
          -0.0282132,
          0.108234,
          -0.0567341,
          -0.271755,
          -0.0822302,
          -0.224893,
          -0.521074,
          0.145631,
          0.172823,
          -0.107088,
          -0.0229377,
          0.000278767,
          -0.192416,
          -0.0717351,
          0.00744811,
          -0.0236571,
          -0.0411929,
          -0.0217443,
          0.0649403,
          0.082108,
          0.0138917,
          0.105081,
          0.128857,
          0.140337,
          0.045129,
          0.18064,
          0.182991,
          -0.253535,
          0.107234,
          0.0550594,
          -0.216686,
          -0.0246524,
          -0.15928,
          -0.389256,
          0.0330614,
          0.00197571,
          -0.044496,
          -0.0596549,
          0.0246009,
          -0.0221512,
          0.0166812,
          0.0653606,
          0.0122298,
          0.0491129,
          -0.0771479,
          -0.0703506,
          0.116833,
          -0.0111665,
          -0.114095,
          0.107264,
          0.0160137,
          -0.00124619,
          0.469429,
          -0.121326,
          -1.27441,
          1.15929,
          0.59408,
          -1.45975,
          0.743572,
          0.620545,
          -0.846363,
          0.163024,
          0.0114502,
          -0.219202,
          0.32061,
          0.0779258,
          -0.284535,
          0.184247,
          0.1117,
          -0.0972207,
          0.113266,
          -0.107305,
          -0.0585143,
          0.180703,
          -0.120495,
          -0.113207,
          0.122657,
          -0.0668084,
          -0.0396024,
          0.488192,
          -0.238081,
          -0.578581,
          0.721118,
          -0.0684737,
          -0.467195,
          0.254278,
          -0.0076885,
          -0.435761,
          0.000765372,
          -0.0485041,
          -0.0489371,
          0.00562473,
          -0.0248393,
          0.0207165,
          0.000399304,
          0.0143721,
          -0.00654569,
          0.120777,
          0.107784,
          -0.0909153,
          0.0998572,
          -0.0714948,
          -0.0664935,
          0.00890257,
          0.00262635,
          0.0925477,
          0.0358268,
          -0.0211819,
          -0.0221143,
          0.0581434,
          -0.0147062,
          -0.0104059,
          -0.00407424,
          0.039977,
          0.0207017,
          0.0101417,
          -0.0814059,
          0.0299457,
          0.0284682,
          0.0089151,
          -0.018408,
          0.031659,
          0.00435443,
          0.0392955,
          0.00335604,
          0.0247811,
          -0.0535589,
          0.00534405,
          0.000298194,
          -0.0306771,
          -0.0369083,
          -0.0114675,
          -0.0117364,
          0.0318589,
          0.0382388,
          0.0048081,
          0.217659,
          0.10236,
          -0.279146,
          -0.071393,
          0.0446882,
          -0.255099,
          0.0399599,
          -0.0217234,
          -0.0525232,
          0.0345986,
          0.00465074,
          -0.0510549,
          -0.00714046,
          -0.0198048,
          -0.0452052,
          -0.403797,
          0.516795,
          0.737101,
          -1.38341,
          0.037712,
          0.933381,
          -1.27312,
          -0.0912257,
          0.752997,
          0.00808681,
          -0.0350617,
          -0.022906,
          0.0234136,
          -0.0490108,
          -0.0705169,
          -0.0103875,
          0.0290915,
          -0.032465,
          0.191328,
          -0.000998455,
          -0.153268,
          0.184587,
          0.262636,
          -0.124007,
          -0.0126621,
          0.190457,
          0.0196483,
          0.0218302,
          0.0487151,
          0.0199813,
          0.0165778,
          0.0198067,
          -0.0076816,
          0.0219544,
          0.0243114,
          -0.0121731,
          -0.0461012,
          0.0217667,
          -0.0262677,
          0.0914474,
          -0.0236902,
          -0.0357463,
          -0.0303461,
          -0.091328,
          -0.0745609,
          0.136321,
          -0.0429332,
          0.169566,
          0.0189848,
          0.129306,
          0.022198,
          -0.182448,
          -0.0319265,
          -0.348343,
          -0.277378,
          -0.380851,
          -0.256406,
          0.026796,
          -0.0213602,
          0.0262315,
          0.246502,
          0.362704,
          0.38678,
          0.668657,
          1.11264,
          0.534798,
          0.288057,
          0.323352,
          0.160334,
          -0.832767,
          -1.57167,
          -0.749583,
          -0.56723,
          -0.533942,
          -0.567057,
          -0.223732,
          0.144137,
          -0.10601,
          0.466354,
          0.894568,
          0.605806,
          -0.0294717,
          -0.0158085,
          -0.0660263,
          -0.0192434,
          -0.0151572,
          0.0672916,
          0.0493323,
          0.0600862,
          -0.0215531,
          0.0749738,
          0.0899353,
          0.596861,
          0.609896,
          -0.085654,
          0.149282,
          0.198901,
          -0.581231,
          -1.13232,
          0.00396685,
          0.0461703,
          -0.0347998,
          0.017217,
          -0.0283065,
          0.0269129,
          -0.0123567,
          0.0214043,
          0.00368191,
          -0.0468353,
          0.0952289,
          -0.0243924,
          0.0428656,
          -0.0164353,
          0.00987902,
          0.0164641,
          -0.0242298,
          -0.058745,
          0.0225498,
          0.0724341,
          0.0829899,
          0.00679721,
          0.0308846,
          0.0739511,
          -0.0265543,
          -0.000147536,
          -0.0177759,
          -0.821127,
          -1.55325,
          -0.66398,
          -0.0864701,
          -0.016825,
          0.00709616,
          0.832424,
          1.51265,
          0.690995,
          -0.00315558,
          -0.00921341,
          -0.0427026,
          -0.00219252,
          -0.00402773,
          -0.0332146,
          0.0143045,
          0.0167112,
          0.00510114,
          -0.252819,
          -0.260338,
          -0.260008,
          0.229843,
          0.258863,
          0.109226,
          0.0798239,
          0.00796196,
          0.00176219,
          -0.0121739,
          0.0100294,
          2.27183e-05,
          0.0259255,
          -0.0593907,
          -0.032984,
          -0.0650051,
          -0.00645422,
          0.0123336,
          0.01917,
          0.0612392,
          -0.0321855,
          -0.0793924,
          0.0199391,
          0.0550114,
          -0.15762,
          -0.077951,
          0.0190271,
          0.00614539,
          0.0100938,
          0.00600161,
          -0.0107572,
          -0.0229786,
          0.0256755,
          -0.0386863,
          0.00319042,
          -0.023607,
          -0.197571,
          -0.3119,
          -0.00127927,
          -0.130416,
          -0.179111,
          0.0125876,
          0.0497274,
          0.164008,
          0.0978989,
          0.0468444,
          0.149308,
          0.123442,
          0.0643984,
          0.112401,
          0.0552463,
          -0.173406,
          -0.177604,
          -0.207872,
          0.0204015,
          -0.0197292,
          0.0419291,
          -0.077207,
          0.0035653,
          0.000602325,
          -0.028448,
          0.0260925,
          -0.0147067,
          0.0684581,
          0.0422782,
          0.207062,
          0.016737,
          0.0146818,
          0.119771,
          -0.184854,
          -0.21201,
          -0.120695,
          0.235464,
          0.119116,
          0.0813875,
          -0.147694,
          -0.234074,
          -0.202239,
          -0.352156,
          -0.458578,
          -0.299535,
          -0.0589993,
          -0.12575,
          0.0364064,
          -0.126681,
          -0.139935,
          0.123267,
          -0.0783436,
          0.0525086,
          0.0444674,
          0.344791,
          0.241569,
          0.187312,
          0.392064,
          0.432984,
          0.409008,
          0.328019,
          0.248833,
          0.324799,
          -0.0105218,
          -0.0860663,
          -0.123796,
          0.0954592,
          0.0400248,
          -0.0151436,
          0.109818,
          0.236054,
          0.132928,
          0.0947044,
          0.048204,
          -0.129482,
          0.181305,
          0.159658,
          0.0384546,
          0.141208,
          0.219225,
          0.166963,
          0.0165179,
          0.0668221,
          -0.0343413,
          0.113585,
          0.191236,
          0.198334,
          0.176685,
          0.164902,
          0.16497,
          -0.0351809,
          -0.0381861,
          -0.198371,
          0.155991,
          0.127,
          -0.0356918,
          0.0918668,
          0.0291665,
          -0.027195,
          -0.0519892,
          -0.151115,
          -0.152896,
          -0.0906232,
          -0.121196,
          -0.230085,
          -0.0683118,
          0.0633249,
          -0.0387314,
          0.0263724,
          0.0358967,
          -0.190843,
          -0.0101875,
          0.146536,
          -0.0133884,
          -0.0411826,
          0.0772589,
          -0.0180329,
          -0.112529,
          -0.0303185,
          0.0139377,
          -0.0892763,
          -0.111446,
          0.0267389,
          -0.169654,
          0.00357983,
          0.151977,
          -0.157744,
          -0.0237752,
          0.0922904,
          -0.239987,
          0.0179752,
          0.330055,
          -0.216071,
          0.0737611,
          0.294518,
          -0.0282461,
          0.00959083,
          0.0256154,
          -0.0749209,
          0.0518176,
          0.0211278,
          -0.0415788,
          -0.0311466,
          0.045164,
          0.376141,
          0.506335,
          0.091332,
          0.0372985,
          -0.141462,
          -0.0998255,
          -0.103613,
          -0.272961,
          -0.0613791,
          0.0346612,
          -0.0724799,
          -0.0619596,
          0.0635139,
          -0.00933508,
          -0.0297783,
          0.0706303,
          0.054518,
          0.0108094,
          0.266917,
          0.516389,
          0.323866,
          -0.0762842,
          0.0501986,
          -0.037381,
          -0.365443,
          -0.415119,
          -0.356406,
          -0.0935019,
          -0.118913,
          -0.11614,
          0.0719997,
          0.108143,
          0.107428,
          -0.019973,
          0.0475181,
          0.0488443,
          -0.31949,
          -0.247876,
          -0.383756,
          0.0139625,
          0.205754,
          0.0710046,
          0.392253,
          0.545751,
          0.424667,
          -0.0473286,
          0.0920569,
          0.19948,
          -0.147839,
          -0.262528,
          -0.143697,
          0.0680598,
          0.0102577,
          -0.0561507,
          0.00409516,
          -0.0195892,
          0.00603082,
          0.0933703,
          0.0581588,
          0.0890326,
          0.203616,
          0.389309,
          0.308202,
          0.0468552,
          -0.0180149,
          0.0643733,
          -0.0316836,
          -0.105049,
          -0.0991856,
          0.00510394,
          -0.0778351,
          0.017315,
          -0.00999933,
          -0.42914,
          -0.229545,
          -0.00973514,
          -0.343765,
          -0.166854,
          0.273548,
          0.236664,
          0.248669,
          -0.192273,
          -0.265321,
          -0.201951,
          -0.160878,
          -0.309628,
          -0.264376,
          0.0178263,
          -0.0416297,
          0.00198201,
          -0.0073553,
          -0.0275461,
          -0.0282345,
          0.0495845,
          0.0365439,
          -0.0523405,
          0.0466352,
          0.0832552,
          -0.0324658,
          0.195276,
          0.339476,
          0.179678,
          0.184878,
          0.434781,
          0.320824,
          0.063516,
          0.272267,
          0.197651,
          0.0383918,
          -0.00310954,
          0.0696079,
          0.00293745,
          0.0142135,
          0.0370946,
          -0.0394498,
          -0.0724982,
          -0.0301034,
          0.110131,
          0.19635,
          0.0594014,
          -0.119289,
          -0.252739,
          -0.103063,
          -0.139764,
          -0.0749824,
          0.0712372,
          0.217471,
          0.191713,
          0.095509,
          -0.0888516,
          -0.0711876,
          -0.0203248,
          -0.160069,
          0.122137,
          0.156828,
          0.00704142,
          0.106573,
          0.0346042,
          -0.0653308,
          0.00337172,
          -0.0353569,
          -0.0209688,
          -0.0410883,
          0.00313521,
          0.0435104,
          0.0108457,
          0.0605822,
          -0.248579,
          -0.373909,
          -0.236729,
          0.155197,
          0.434249,
          0.225511,
          -0.0111009,
          -0.0541776,
          0.0124567,
          0.0430857,
          -0.000730869,
          0.0399595,
          0.0157221,
          -0.0296997,
          -0.0371107,
          0.0159067,
          -0.00438104,
          0.152509,
          -0.13087,
          -0.0808886,
          -0.105997,
          0.0655109,
          -0.00646454,
          0.0235927,
          0.0627617,
          0.00396147,
          -0.00899381,
          0.129458,
          0.072177,
          0.0147915,
          -0.0366484,
          -0.106997,
          -0.0974712,
          0.185776,
          0.32791,
          0.0776836,
          0.129413,
          0.183785,
          0.0562909,
          -0.0467522,
          0.02533,
          -0.00363035,
          0.0582514,
          0.0731124,
          -0.0642154,
          0.0304677,
          -0.0548752,
          -0.0170575,
          -0.0532989,
          -0.0144599,
          0.0640792,
          -0.00518824,
          0.101637,
          0.00886931,
          -0.217401,
          -0.202422,
          -0.201942,
          -0.111011,
          -0.260565,
          -0.313876,
          -0.0748404,
          0.0169899,
          0.108587,
          0.0172514,
          0.511597,
          0.158746,
          0.0630042,
          -0.319026,
          -0.196059,
          0.0306921,
          0.221777,
          0.158309,
          0.081762,
          0.248929,
          0.28264,
          -0.385014,
          -0.834213,
          -0.651387,
          -0.0252467,
          -0.170639,
          0.0191049,
          0.164265,
          0.233976,
          0.141458,
          0.182619,
          0.361481,
          0.424345,
          -0.0312564,
          -0.0477861,
          -0.0393006,
          -0.0316937,
          -0.0209535,
          0.0496349,
          0.000226429,
          0.00796666,
          0.0666822,
          0.123218,
          0.3574,
          0.132676,
          -0.0825784,
          0.0612539,
          0.105523,
          -0.244243,
          -1.67119,
          -0.634422,
          0.0683247,
          0.071162,
          0.0656715,
          -0.035771,
          -0.0196582,
          -0.000914954,
          -0.0367023,
          -0.0702039,
          -0.0239174,
          -0.0052497,
          0.0470141,
          0.151304,
          0.00597928,
          -0.0811236,
          -0.159865,
          0.134345,
          0.0668703,
          -0.116153,
          0.157344,
          0.277023,
          -0.0137081,
          -0.110171,
          -0.122967,
          -0.0917096,
          -0.067396,
          -0.164442,
          0.10677,
          0.0275668,
          -0.0249899,
          -0.0154941,
          -0.0266986,
          -0.0375307,
          -0.0908445,
          -0.0605551,
          0.0650933,
          0.108609,
          -0.30929,
          -0.0165375,
          0.28643,
          0.0625833,
          0.401792,
          -0.278103,
          0.172637,
          -0.325536,
          0.0836787,
          0.0162133,
          -0.0287556,
          0.0341702,
          -0.0105749,
          -0.025947,
          -0.00219901,
          -0.00835064,
          -0.0173688,
          0.0247479,
          0.256917,
          -0.174594,
          -0.156941,
          -0.312817,
          0.0340303,
          0.300164,
          0.0260412,
          0.273707,
          -0.260143,
          -0.078088,
          0.0544637,
          0.018093,
          0.0173596,
          -0.00931015,
          -0.0238779,
          0.045906,
          -0.0110229,
          -0.0547927,
          -0.28569,
          0.0686934,
          -0.0645489,
          0.148442,
          0.0289796,
          0.147815,
          -0.124331,
          0.128295,
          -0.00232954,
          0.13945,
          0.192931,
          -0.257036,
          0.114993,
          -0.823344,
          0.359547,
          -0.316856,
          0.643116,
          -0.0885747,
          -0.107734,
          0.0259487,
          0.14476,
          0.0948094,
          -0.112135,
          0.00925446,
          -0.0833865,
          0.140115,
          -0.0817202,
          0.226686,
          -0.139999,
          -0.154112,
          -0.487474,
          0.0571664,
          0.39494,
          0.252495,
          -0.0425541,
          -0.207479,
          -0.263657,
          -0.0112981,
          0.223983,
          0.336159,
          -0.201476,
          -0.167268,
          -0.307535,
          0.474891,
          0.154642,
          0.0545323,
          -0.464293,
          0.295875,
          -0.19502,
          0.993801,
          -0.333892,
          0.469695,
          -0.843044,
          0.0675194,
          -0.00100448,
          0.0561922,
          0.0711165,
          0.0366885,
          -0.0509913,
          -0.0450391,
          -0.0207675,
          -0.0556754,
          0.0142849,
          0.0377093,
          0.358072,
          -0.287254,
          0.226478,
          -0.984392,
          0.359488,
          -0.424771,
          0.716415,
          -0.186475,
          0.0160719,
          0.0943139,
          0.00815797,
          0.0192374,
          -0.0246614,
          -0.0652203,
          -0.02858,
          -0.0069375,
          -0.034801,
          -0.0122076,
          -0.287614,
          0.208345,
          -0.255559,
          0.746879,
          -0.22668,
          0.357402,
          -0.484591,
          0.106139,
          0.296235,
          -0.242845,
          -0.259538,
          -0.452158,
          0.165826,
          0.161106,
          0.0955517,
          -0.178232,
          -0.0518063,
          0.281583,
          -0.272063,
          -0.087137,
          -0.398753,
          0.443639,
          0.0582757,
          -0.0635921,
          0.0758239,
          -0.147249,
          -0.00948353,
          -0.177638,
          -0.020376,
          0.140499,
          0.0224137,
          0.0265948,
          -0.0348647,
          -0.0134889,
          -0.0906772,
          0.78208,
          1.18339,
          0.813061,
          0.169425,
          0.200741,
          0.0686871,
          -0.648424,
          -1.32466,
          -1.23587,
          0.183569,
          0.275606,
          0.212834,
          0.137721,
          -0.0233416,
          0.0270566,
          -0.129491,
          -0.292547,
          -0.181615,
          -0.778739,
          -1.53261,
          -0.693555,
          -0.112122,
          -0.0991682,
          0.209488,
          0.877221,
          1.2721,
          0.749217,
          0.658668,
          0.909916,
          0.57661,
          -0.144605,
          0.0909249,
          -0.129326,
          -0.459036,
          -0.486474,
          -0.620143,
          -0.0246056,
          -0.00814788,
          -0.0463528,
          0.0449546,
          0.0642284,
          0.0184234,
          -0.0104136,
          -0.0139916,
          -0.00695948,
          -0.00418395,
          -0.259894,
          -0.504804,
          -0.11214,
          0.113925,
          0.441536,
          -0.266235,
          -0.0287194,
          0.465009,
          0.037577,
          0.0791374,
          0.0101861,
          -0.00143118,
          0.0781422,
          -0.0128339,
          -0.0322876,
          -0.0392197,
          -0.00623232,
          0.0749965,
          0.162571,
          0.110679,
          0.0634016,
          0.151941,
          0.0234074,
          -0.0973191,
          0.0861896,
          -0.0209297,
          0.0876883,
          0.0761187,
          0.0653676,
          0.0317904,
          0.0570205,
          0.0458445,
          -0.0277341,
          -0.0709351,
          0.0155965,
          0.678318,
          1.18597,
          0.598834,
          0.339016,
          0.290984,
          0.139717,
          -0.913286,
          -1.42749,
          -0.803696,
          -0.00602351,
          0.0316556,
          0.000665422,
          -0.0137453,
          0.107097,
          -0.0308429,
          0.0553415,
          0.0342862,
          -0.00791427,
          -0.741203,
          -1.74445,
          -1.15514,
          0.0550359,
          -0.15224,
          0.251699,
          0.639042,
          1.39552,
          1.48875,
          0.00321954,
          -0.00735717,
          0.00228231,
          0.0467615,
          0.101113,
          0.0470501,
          -0.0083281,
          -0.0228355,
          -0.0314555,
          0.0480596,
          -0.0874236,
          -0.035419,
          -0.00652668,
          0.101714,
          0.0576673,
          -0.0874513,
          0.0577372,
          0.167517,
          -0.00116867,
          -0.00875965,
          -0.0223776,
          -0.000992992,
          -0.00448114,
          0.00530672,
          -0.0264803,
          0.0489636,
          0.0185036,
          0.271325,
          -0.107915,
          -0.165704,
          0.0955004,
          -0.145669,
          0.0177837,
          -0.191376,
          -0.179167,
          0.177782,
          0.478488,
          0.215579,
          -0.275814,
          0.408479,
          -0.14881,
          -0.487402,
          0.376554,
          -0.181206,
          -0.420566,
          0.111673,
          0.00917582,
          0.0405618,
          0.103773,
          -0.0877265,
          0.00605836,
          -0.0819972,
          -0.134182,
          -0.0147924,
          0.766948,
          0.333522,
          -0.292733,
          0.721011,
          -0.127862,
          -0.55603,
          0.0803787,
          -0.525645,
          -0.243247,
          -0.248397,
          0.102327,
          0.295831,
          -0.276961,
          0.0383311,
          0.19419,
          -0.243693,
          -0.0629531,
          0.252512,
          -0.0116885,
          0.0287671,
          0.0613125,
          0.126094,
          0.03357,
          -0.0233507,
          0.0035613,
          -0.0199945,
          -0.018144,
          0.762314,
          0.088894,
          -0.151725,
          0.51724,
          -0.261803,
          -0.230241,
          0.263066,
          -0.558901,
          -0.207955,
          0.00307299,
          0.0332956,
          -0.0032595,
          0.08468,
          0.135499,
          -0.0648359,
          0.0234937,
          -0.0144992,
          -0.0503275,
          0.134143,
          0.252962,
          -0.20785,
          0.223225,
          0.167066,
          -0.181185,
          0.0204638,
          0.0331404,
          0.014405,
          0.14635,
          0.0141018,
          -0.0875857,
          0.090895,
          -0.00849291,
          -0.13294,
          -0.00520623,
          -0.00659254,
          -0.0756892,
          -0.624155,
          -0.445982,
          0.312536,
          -0.850145,
          -0.143836,
          0.899322,
          -0.253286,
          0.377979,
          0.692838,
          0.014578,
          0.142086,
          -0.00530699,
          0.0435114,
          0.0907038,
          -0.00657454,
          0.0215381,
          -0.0423961,
          0.0756861,
          -0.30273,
          -0.141107,
          0.311534,
          -0.270687,
          -0.0231487,
          0.507796,
          -0.174608,
          -0.201312,
          0.40342,
          -0.0545321,
          -0.149904,
          -0.0667479,
          -0.0656223,
          -0.0338665,
          -0.0295834,
          -0.0564962,
          -0.0288848,
          -0.0511473,
          -0.251773,
          -0.093182,
          0.270845,
          -0.0437535,
          0.136287,
          0.11361,
          0.0865496,
          -0.257962,
          -0.224462,
          -0.0312198,
          -0.00144528,
          -0.0117891,
          0.020082,
          -0.0111048,
          0.0153651,
          0.0244992,
          -0.0210979,
          -0.0640833,
          -0.060548,
          0.206027,
          0.353218,
          -0.184073,
          -0.0301428,
          0.557798,
          -0.172302,
          -0.141017,
          0.0954511,
          -0.0185991,
          0.00384471,
          0.118996,
          -0.0367981,
          -0.045623,
          0.00197242,
          0.0390001,
          0.0160904,
          0.0229452,
          -0.175332,
          -0.0854378,
          0.27717,
          -0.315157,
          -0.199281,
          0.440299,
          -0.179796,
          -0.137774,
          0.323982,
          0.0757523,
          0.0513498,
          -0.102188,
          0.0838155,
          0.046243,
          -0.146603,
          0.0857834,
          0.0246882,
          -0.0803907,
          0.454392,
          0.310048,
          0.0515728,
          0.517646,
          0.339905,
          0.219595,
          0.376101,
          0.204279,
          -0.0369943,
          0.0164789,
          -0.29393,
          -0.247462,
          -0.0930395,
          -0.472734,
          -0.750303,
          0.0017032,
          -0.332056,
          -0.265918,
          0.23915,
          -0.0246731,
          -0.157094,
          0.306403,
          -0.0947821,
          -0.35685,
          0.332905,
          0.0147104,
          -0.203814,
          0.0264213,
          -0.020123,
          0.00788546,
          -0.0334116,
          0.0186093,
          0.0263182,
          -0.00797661,
          -0.0220074,
          0.0545238,
          0.0279288,
          0.0437516,
          0.110708,
          0.137639,
          -0.0313497,
          0.0788854,
          -0.0209147,
          -0.0462223,
          0.144771,
          -0.0445586,
          -0.0115,
          0.181979,
          0.026496,
          -0.0879104,
          0.141426,
          0.10018,
          -0.0529056,
          0.00832881,
          0.00734789,
          -0.0290183,
          -0.0397136,
          0.0827756,
          0.0538966,
          -0.0856071,
          0.0748293,
          0.0970711,
          -0.0535579,
          0.106218,
          -0.0237611,
          -0.105985,
          -0.0143271,
          -0.0895325,
          0.0635989,
          -0.100089,
          -0.0862559,
          0.230365,
          0.0345999,
          0.0709326,
          -0.102683,
          0.0484713,
          0.081117,
          -0.109899,
          0.00612275,
          0.0554334,
          -0.0205521,
          0.140597,
          0.371076,
          0.164524,
          0.173443,
          0.409895,
          0.400397,
          0.0474247,
          0.282247,
          0.289746,
          0.0229647,
          -0.0762596,
          -0.15237,
          -0.186259,
          -0.102083,
          -0.0309314,
          -0.162704,
          -0.0172864,
          0.0793318,
          -0.0545883,
          -0.0689376,
          0.024444,
          -0.157806,
          -0.0858636,
          0.224263,
          -0.100191,
          -0.035914,
          0.165678,
          -0.110864,
          0.172805,
          -0.0771066,
          -0.130393,
          0.159829,
          -0.059582,
          0.000764925,
          0.00515505,
          0.0211334,
          -0.0391297,
          0.0228466,
          0.0249725,
          -0.0439241,
          0.0193472,
          0.00839758,
          -0.0467445,
          0.0385098,
          0.0047475,
          -0.190865,
          0.269162,
          -0.083947,
          -0.231616,
          0.478458,
          -0.234211,
          -0.132181,
          0.249842,
          -0.100106,
          0.0312417,
          -0.0326103,
          0.0551363,
          -0.0264509,
          -0.124027,
          0.0592498,
          0.00589225,
          -0.0190384,
          0.0471853,
          0.170117,
          -0.320582,
          0.0349364,
          0.255952,
          -0.158312,
          0.104837,
          0.0934618,
          -0.14979,
          -0.0251548,
          0.0678102,
          -0.166523,
          0.0826282,
          0.512668,
          -0.510074,
          0.107672,
          0.12781,
          -0.286499,
          0.198819,
          0.0677388,
          -0.0585503,
          0.0603338,
          0.111419,
          -0.053055,
          -0.0316866,
          -0.000955586,
          -0.0934411,
          -0.020791,
          -0.0755479,
          0.0634776,
          -0.0353306,
          -0.00846753,
          0.0109973,
          0.00211339,
          0.0224898,
          -0.0854171,
          0.0142518,
          -0.028204,
          0.0638406,
          -0.0956168,
          -0.0567389,
          0.130707,
          -0.171326,
          -0.0456066,
          0.0688004,
          -0.0582882,
          -0.0569819,
          0.130746,
          -0.090042,
          -0.0123258,
          -0.0708196,
          0.0555474,
          0.0111481,
          -0.122786,
          0.0874519,
          0.0245515,
          -0.039757,
          0.0078726,
          0.0543181,
          -0.0544974,
          -0.04547,
          0.0795875,
          -0.0100672,
          -0.0206201,
          0.0180006,
          -0.0963333,
          0.0466725,
          -0.0693484,
          0.0612017,
          -0.070101,
          -0.0372287,
          0.108834,
          -0.0632589,
          0.0482032,
          -0.0323115,
          -0.0827942,
          0.0708473,
          0.00980468,
          -0.0211575,
          0.0280499,
          0.000715519,
          -0.029462,
          0.0084087,
          0.0487957,
          -0.0897928,
          -0.454585,
          0.502429,
          -0.0314279,
          0.0121793,
          0.186012,
          -0.157868,
          0.287105,
          -0.247673,
          0.129552,
          0.300128,
          -0.666908,
          0.596258,
          -0.0602622,
          -0.0109642,
          0.171608,
          -0.00153339,
          0.490188,
          -0.521545,
          -0.162018,
          1.32569,
          -1.07345,
          0.0126388,
          0.40729,
          -0.24446,
          -0.0322674,
          -0.197485,
          -0.238244,
          0.228148,
          0.338121,
          0.100848,
          0.0722239,
          0.143898,
          0.0682648,
          -0.021461,
          -0.016101,
          0.0815562,
          0.00389202,
          -0.0834723,
          -0.0449864,
          0.12247,
          -0.0182961,
          0.0141052,
          -0.317816,
          -0.466982,
          -0.46207,
          -0.00620432,
          0.0655204,
          0.00460788,
          0.139885,
