{
  "name": "graph_aic",
  "input_tensor": [
    "2Fmodel2Fperson2Fhead_module2Fkpt_pred2E22Fkpt_pred2E22E12Fpointwise_conv2Fconv2FConv_output_0",
    "2Fmodel2Fperson2Fhead_module2Fkpt_pred2E22Fkpt_pred2E22E12Fpointwise_conv2Factivate2FSigmoid_output_0"
  ],
  "input_shape": [
    {
      "dim": [1,64,13,13],
      "dtype": "f16",
      "pack": 0
    },
    {
      "dim": [1,64,13,13],
      "dtype": "f16",
      "pack": 0
    }
  ],
  "output_tensor": [
    "2Fmodel2Fperson2Fhead_module2Fkpt_pred2E22Fkpt_pred2E22E42FMul_output_0"
  ],
  "output_shape": [
    {
      "dim": [1,51,13,13],
      "dtype": "f16",
      "pack": 0
    }
  ],
  "layer": [
    {
      "param": {
        "operation": 2,
        "num_channel": 64,
        "src_mode": "ONLINE",
        "brc_mode": "CHW"
      },
      "data": {
        "input0_dtype": 1,
        "input0_acc": [5,10,15],
        "input1_dtype": 1,
        "input1_acc": [5,10,15],
        "output_dtype": 1,
        "output_acc": [5,10,15],
        "coef": []
      },
      "inst_name": "/model/person/head_module/kpt_pred.2/kpt_pred.2.1/pointwise_conv/activate/Mul",
      "type_name": "Eltwise3",
      "bottom": [
        "2Fmodel2Fperson2Fhead_module2Fkpt_pred2E22Fkpt_pred2E22E12Fpointwise_conv2Fconv2FConv_output_0",
        "2Fmodel2Fperson2Fhead_module2Fkpt_pred2E22Fkpt_pred2E22E12Fpointwise_conv2Factivate2FSigmoid_output_0"
      ],
      "top": [
        "2Fmodel2Fperson2Fhead_module2Fkpt_pred2E22Fkpt_pred2E22E12Fpointwise_conv2Factivate2FMul_output_0"
      ],
      "hw": 1,
      "hw_acc": [5,10,15]
    },
    {
      "param": {
        "num_channel": 64
      },
      "data": {
        "coef": [
          1,
          1,
          1,
          1,
          1,
          1,
          1,
          1,
          1,
          1,
          1,
          1,
          1,
          1,
          1,
          1,
          1,
          1,
          1,
          1,
          1,
          1,
          1,
          1,
          1,
          1,
          1,
          1,
          1,
          1,
          1,
          1,
          1,
          1,
          1,
          1,
          1,
          1,
          1,
          1,
          1,
          1,
          1,
          1,
          1,
          1,
          1,
          1,
          1,
          1,
          1,
          1,
          1,
          1,
          1,
          1,
          1,
          1,
          1,
          1,
          1,
          1,
          1,
          1
        ],
        "bias": [
          0.0152636,
          0.0730186,
          -0.163997,
          -0.192347,
          -0.2079,
          -0.105407,
          -0.154384,
          0.0409599,
          0.0681674,
          0.0704787,
          -0.0298137,
          -0.210741,
          -0.4281,
          -0.156011,
          -0.018256,
          -0.0371203,
          -0.0239579,
          0.0959963,
          0.0844984,
          0.0210146,
          -0.153301,
          0.095282,
          0.062137,
          -0.153502,
          -0.0301651,
          -0.00164011,
          0.101707,
          0.10167,
          -0.0736062,
          0.150377,
          0.0867602,
          -0.126122,
          0.0321009,
          0.054277,
          -0.116935,
          0.0936642,
          -0.28131,
          -0.0523817,
          0.0924415,
          0.0464498,
          -0.0128445,
          0.0994999,
          -0.103759,
          -0.0873172,
          -0.0211865,
          -0.0246914,
          -0.0969186,
          0.006897,
          0.0421846,
          0.0696181,
          -0.0382248,
          0.0176401,
          0.0354654,
          0.0101793,
          -0.165262,
          -0.102369,
          0.0385576,
          0.040544,
          -0.0491046,
          -0.180396,
          -0.110171,
          -0.0699647,
          0.114153,
          -0.114514
        ],
        "coef_scale": [
          1,
          1,
          1,
          1,
          1,
          1,
          1,
          1,
          1,
          1,
          1,
          1,
          1,
          1,
          1,
          1,
          1,
          1,
          1,
          1,
          1,
          1,
          1,
          1,
          1,
          1,
          1,
          1,
          1,
          1,
          1,
          1,
          1,
          1,
          1,
          1,
          1,
          1,
          1,
          1,
          1,
          1,
          1,
          1,
          1,
          1,
          1,
          1,
          1,
          1,
          1,
          1,
          1,
          1,
          1,
          1,
          1,
          1,
          1,
          1,
          1,
          1,
          1,
          1
        ],
        "coef_zero_point": [
          0,
          0,
          0,
          0,
          0,
          0,
          0,
          0,
          0,
          0,
          0,
          0,
          0,
          0,
          0,
          0,
          0,
          0,
          0,
          0,
          0,
          0,
          0,
          0,
          0,
          0,
          0,
          0,
          0,
          0,
          0,
          0,
          0,
          0,
          0,
          0,
          0,
          0,
          0,
          0,
          0,
          0,
          0,
          0,
          0,
          0,
          0,
          0,
          0,
          0,
          0,
          0,
          0,
          0,
          0,
          0,
          0,
          0,
          0,
          0,
          0,
          0,
          0,
          0
        ],
        "bias_scale": [
          1,
          1,
          1,
          1,
          1,
          1,
          1,
          1,
          1,
          1,
          1,
          1,
          1,
          1,
          1,
          1,
          1,
          1,
          1,
          1,
          1,
          1,
          1,
          1,
          1,
          1,
          1,
          1,
          1,
          1,
          1,
          1,
          1,
          1,
          1,
          1,
          1,
          1,
          1,
          1,
          1,
          1,
          1,
          1,
          1,
          1,
          1,
          1,
          1,
          1,
          1,
          1,
          1,
          1,
          1,
          1,
          1,
          1,
          1,
          1,
          1,
          1,
          1,
          1
        ],
        "bias_zero_point": [
          0,
          0,
          0,
          0,
          0,
          0,
          0,
          0,
          0,
          0,
          0,
          0,
          0,
          0,
          0,
          0,
          0,
          0,
          0,
          0,
          0,
          0,
          0,
          0,
          0,
          0,
          0,
          0,
          0,
          0,
          0,
          0,
          0,
          0,
          0,
          0,
          0,
          0,
          0,
          0,
          0,
          0,
          0,
          0,
          0,
          0,
          0,
          0,
          0,
          0,
          0,
          0,
          0,
          0,
          0,
          0,
          0,
          0,
          0,
          0,
          0,
          0,
          0,
          0
        ],
        "input_scale": [
          1,
          1,
          1,
          1,
          1,
          1,
          1,
          1,
          1,
          1,
          1,
          1,
          1,
          1,
          1,
          1,
          1,
          1,
          1,
          1,
          1,
          1,
          1,
          1,
          1,
          1,
          1,
          1,
          1,
          1,
          1,
          1,
          1,
          1,
          1,
          1,
          1,
          1,
          1,
          1,
          1,
          1,
          1,
          1,
          1,
          1,
          1,
          1,
          1,
          1,
          1,
          1,
          1,
          1,
          1,
          1,
          1,
          1,
          1,
          1,
          1,
          1,
          1,
          1
        ],
        "input_zero_point": [
          0,
          0,
          0,
          0,
          0,
          0,
          0,
          0,
          0,
          0,
          0,
          0,
          0,
          0,
          0,
          0,
          0,
          0,
          0,
          0,
          0,
          0,
          0,
          0,
          0,
          0,
          0,
          0,
          0,
          0,
          0,
          0,
          0,
          0,
          0,
          0,
          0,
          0,
          0,
          0,
          0,
          0,
          0,
          0,
          0,
          0,
          0,
          0,
          0,
          0,
          0,
          0,
          0,
          0,
          0,
          0,
          0,
          0,
          0,
          0,
          0,
          0,
          0,
          0
        ],
        "output_scale": [
          1,
          1,
          1,
          1,
          1,
          1,
          1,
          1,
          1,
          1,
          1,
          1,
          1,
          1,
          1,
          1,
          1,
          1,
          1,
          1,
          1,
          1,
          1,
          1,
          1,
          1,
          1,
          1,
          1,
          1,
          1,
          1,
          1,
          1,
          1,
          1,
          1,
          1,
          1,
          1,
          1,
          1,
          1,
          1,
          1,
          1,
          1,
          1,
          1,
          1,
          1,
          1,
          1,
          1,
          1,
          1,
          1,
          1,
          1,
          1,
          1,
          1,
          1,
          1
        ],
        "output_zero_point": [
          0,
          0,
          0,
          0,
          0,
          0,
          0,
          0,
          0,
          0,
          0,
          0,
          0,
          0,
          0,
          0,
          0,
          0,
          0,
          0,
          0,
          0,
          0,
          0,
          0,
          0,
          0,
          0,
          0,
          0,
          0,
          0,
          0,
          0,
          0,
          0,
          0,
          0,
          0,
          0,
          0,
          0,
          0,
          0,
          0,
          0,
          0,
          0,
          0,
          0,
          0,
          0,
          0,
          0,
          0,
          0,
          0,
          0,
          0,
          0,
          0,
          0,
          0,
          0
        ],
        "input_dtype": 1,
        "input_acc": [5,10,15]
      },
      "inst_name": "/model/person/head_module/kpt_pred.2/kpt_pred.2.2/Add",
      "type_name": "Bn",
      "bottom": [
        "2Fmodel2Fperson2Fhead_module2Fkpt_pred2E22Fkpt_pred2E22E12Fpointwise_conv2Factivate2FMul_output_0"
      ],
      "top": [
        "2Fmodel2Fperson2Fhead_module2Fkpt_pred2E22Fkpt_pred2E22E22FAdd_output_0"
      ],
      "hw": 1,
      "hw_acc": [5,10,15]
    },
    {
      "inst_name": "/model/person/head_module/kpt_pred.2/kpt_pred.2.3/Conv_im_0",
      "type_name": "Conv2d",
      "bottom": [
        "2Fmodel2Fperson2Fhead_module2Fkpt_pred2E22Fkpt_pred2E22E22FAdd_output_0"
      ],
      "top": [
        "2Fmodel2Fperson2Fhead_module2Fkpt_pred2E22Fkpt_pred2E22E32FConv_output_0"
      ],
      "hw": 1,
      "hw_acc": [5,10,15],
      "param": {
        "num_output": 51,
        "bias_term": 1,
        "group": 1,
        "pad_h": 0,
        "pad_w": 0,
        "kernel_h": 1,
        "kernel_w": 1,
        "stride_h": 1,
        "stride_w": 1,
        "dilation_h": 1,
        "dilation_w": 1,
        "num_input": 64,
        "padding_mode": 0
      },
      "data": {
        "coef": [
          0.114217,
          0.00826468,
          0.010109,
          0.0216321,
          -0.000685576,
          0.0768996,
          0.422637,
          0.0468847,
          -0.00550476,
          -0.00789855,
          0.0167954,
          0.0174676,
          0.00404841,
          0.00512674,
          0.0201882,
          0.00942041,
          0.536595,
          -0.0157814,
          0.0639782,
          0.0106384,
          0.0230081,
          0.300999,
          -0.0300283,
          -0.0217365,
          0.00101936,
          -0.00592577,
          0.00708681,
          0.00872989,
          -0.0719344,
          0.118391,
          0.0142254,
          0.015745,
          -0.04589,
          0.0286429,
          0.00353306,
          0.00577923,
          -0.00813398,
          -0.0296947,
          0.00734612,
          -0.00649181,
          0.00296172,
          -0.0241351,
          -0.0158837,
          -0.0257636,
          -0.511816,
          0.0923058,
          0.0421836,
          -0.387751,
          0.0086749,
          -0.0287283,
          -0.259858,
          0.00991174,
          -0.0131202,
          -0.0367459,
          -0.0270968,
          0.0193867,
          -0.022982,
          0.00184353,
          -0.0203807,
          -0.43319,
          0.00933395,
          0.236746,
          -0.150008,
          -0.133501,
          -0.0117789,
          0.0031192,
          -0.389897,
          -0.0120143,
          -0.0073089,
          -0.309219,
          0.000460778,
          -0.00148711,
          0.0179997,
          0.021863,
          -0.047383,
          0.0690516,
          0.00829075,
          -0.397852,
          -0.00462518,
          -0.023513,
          0.0222983,
          0.0345773,
          -0.367668,
          -0.0382091,
          0.391984,
          0.0396099,
          0.0170711,
          -0.00116768,
          -0.0191794,
          0.012053,
          0.0142235,
          0.280046,
          -0.0934823,
          0.000288626,
          -0.0139414,
          0.00398832,
          0.155635,
          0.449189,
          0.0295297,
          -0.0131277,
          -0.0198878,
          -0.00673949,
          0.0193712,
          0.00259334,
          0.0371947,
          0.00152616,
          -0.00636538,
          -0.0295539,
          -0.00987084,
          -0.0473265,
          0.01488,
          -0.0982076,
          0.0306731,
          0.0112582,
          0.237876,
          -0.00417207,
          0.0255585,
          0.197144,
          -0.000520662,
          0.0752135,
          0.0038521,
          0.00110887,
          -0.0224013,
          -0.0247361,
          0.00417452,
          -0.243363,
          0.00668785,
          -0.427373,
          -0.37844,
          0.0723499,
          0.083327,
          1.48642,
          -1.37595,
          -0.154791,
          0.0448029,
          0.0169075,
          -0.0442468,
          0.0573994,
          -0.083407,
          0.0938377,
          0.160086,
          0.147437,
          -0.0742891,
          -0.301641,
          0.0142465,
          0.0311261,
          0.112304,
          0.0307042,
          -0.0236078,
          0.282438,
          -0.0906669,
          0.00858128,
          -0.00857881,
          -0.0157226,
          0.149265,
          -0.33671,
          -0.103396,
          0.262326,
          0.0171309,
          0.0794985,
          0.231477,
          0.0201609,
          -0.00387985,
          0.133126,
          0.0499002,
          0.0388541,
          -0.00984349,
          0.092784,
          0.0595493,
          -0.208347,
          0.0134915,
          0.108647,
          0.000491187,
          -0.124726,
          0.029075,
          -0.139009,
          0.130714,
          -0.0304959,
          0.0557699,
          0.0177086,
          -0.132641,
          -0.256205,
          1.66881,
          -0.444009,
          -0.0273903,
          0.0852971,
          -0.303745,
          0.0578285,
          -0.0406912,
          -0.116122,
          0.312706,
          -0.0729943,
          -0.037408,
          0.0149445,
          0.013207,
          0.00442648,
          -0.00444171,
          0.0754374,
          0.430747,
          0.00750498,
          -0.0603061,
          -0.00995029,
          -0.0391686,
          0.0368483,
          -0.00124714,
          0.0221521,
          0.0218068,
          -0.0138217,
          0.54271,
          -0.0045655,
          0.0148825,
          0.00562892,
          0.0184025,
          -0.01943,
          0.0544941,
          -0.0165933,
          0.00661909,
          0.00921844,
          -0.000109342,
          0.36796,
          -0.0700236,
          -0.0332643,
          -0.0128533,
          0.0416491,
          -0.218115,
          0.0185894,
          0.0372076,
          0.00641766,
          0.0059126,
          0.0118601,
          -0.0296994,
          0.000635294,
          -0.0101967,
          -0.0233463,
          0.030917,
          0.118312,
          -0.524296,
          -0.101322,
          0.0381838,
          -0.205009,
          -0.0128899,
          0.0135011,
          -0.23429,
          -0.00408543,
          0.0338073,
          0.0345564,
          -0.0238785,
          -0.0589512,
          0.00190802,
          -0.0201504,
          -0.0303634,
          -0.435969,
          0.00501538,
          0.229253,
          0.0793023,
          -0.116629,
          -0.0119431,
          -0.0187461,
          -0.388106,
          -0.00642343,
          -0.00171902,
          -0.325897,
          -0.00251976,
          0.0218404,
          -0.000594625,
          0.0331428,
          -4.00202e-05,
          0.0463621,
          0.0200323,
          -0.420173,
          -0.0396533,
          -0.0234973,
          0.0155909,
          0.0563704,
          -0.0928718,
          -0.020593,
          0.400035,
          0.0125622,
          -0.0289096,
          -0.00939026,
          -0.000422527,
          -0.00109847,
          -0.0187594,
          -0.0750363,
          -0.0925427,
          -0.220675,
          -0.000156953,
          -0.0283743,
          0.144228,
          0.473942,
          -0.00856151,
          0.0149531,
          -0.026173,
          -0.00698378,
          0.0560513,
          -0.00381045,
          0.0459243,
          -0.0014079,
          -0.0154258,
          -0.159501,
          -0.010813,
          -0.0883662,
          0.00246321,
          -0.10389,
          -0.0541627,
          -0.00229682,
          0.164899,
          -0.00129181,
          -0.0481368,
          0.174593,
          -0.0103592,
          0.118472,
          0.00704063,
          -0.00097792,
          0.0136211,
          -0.0142339,
          0.00268136,
          -0.221565,
          0.280357,
          -0.437258,
          -0.299404,
          -0.0804734,
          0.0631702,
          0.597355,
          -1.69944,
          -0.122738,
          0.0291972,
          0.043802,
          0.116277,
          0.0501679,
          0.00472429,
          0.103054,
          0.210593,
          0.141248,
          -0.0624804,
          -0.274509,
          0.00395528,
          0.0997586,
          0.0661383,
          0.0375678,
          -0.028245,
          0.0306954,
          -0.0366321,
          0.0769748,
          0.024329,
          -0.0129989,
          0.0422624,
          -0.329457,
          -0.044374,
          0.382647,
          0.0356077,
          0.0123003,
          -0.0113414,
          0.0177145,
          0.0186437,
          0.12898,
          0.0499502,
          -0.0447899,
          -0.0804004,
          0.0480389,
          0.0407904,
          -0.257588,
          0.0546159,
          0.019163,
          0.00847517,
          -0.277595,
          -0.0434779,
          -0.247635,
          0.0495994,
          0.0553879,
          0.145996,
          -0.016494,
          0.0391838,
          -0.214079,
          1.92478,
          -0.441817,
          0.0222158,
          0.0627316,
          -0.189548,
          0.0842955,
          -0.0835926,
          -0.0641787,
          0.376643,
          -0.0368707,
          0.187517,
          -0.0264801,
          0.00731305,
          0.0194489,
          -0.0037527,
          0.0498684,
          0.415286,
          0.0202078,
          -0.126521,
          0.0173714,
          -0.00539081,
          -0.0100513,
          0.0167261,
          -0.00430606,
          -0.0598784,
          0.0189717,
          0.53239,
          0.0448619,
          -0.0200669,
          -0.0172518,
          0.0236711,
          0.240496,
          0.0306761,
          -0.0330919,
          0.00398446,
          -0.00941425,
          -0.00242774,
          -0.352121,
          -0.0670161,
          -0.0811466,
          0.00335311,
          -0.0397897,
          -0.0916171,
          0.0262362,
          0.00598114,
          -0.00993651,
          -0.00644308,
          -0.00299122,
          -0.0241389,
          0.0122414,
          0.0136894,
          -0.0235114,
          -0.0221948,
          -0.213489,
          -0.522057,
          0.0407779,
          0.0347714,
          0.0242805,
          -0.00871041,
          -0.0014394,
          -0.283726,
          -0.00335258,
          0.00852719,
          0.042124,
          -0.0238553,
          0.0845191,
          -0.0175089,
          0.0082161,
          0.0139279,
          -0.428243,
          -0.00298508,
          0.246451,
          0.0769857,
          -0.120454,
          -0.0218173,
          0.00398108,
          -0.390357,
          -0.0137002,
          -0.00878744,
          -0.356429,
          -0.00783144,
          0.00182126,
          -0.0309623,
          0.0367667,
          -0.000827552,
          0.0408947,
          0.0215205,
          -0.42268,
          -0.00427933,
          -0.00578198,
          0.0065286,
          0.0593841,
          -0.134638,
          -0.0101541,
          0.401356,
          0.0193184,
          0.0163233,
          0.0137472,
          -0.0201791,
          -0.00627602,
          -0.0162594,
          -0.100593,
          -0.0964126,
          0.297368,
          -0.0246385,
          -0.0404312,
          0.0615853,
          0.469272,
          -0.0188908,
          0.0128841,
          -0.0281818,
          -0.0116513,
          0.0411165,
          0.000652067,
          0.0501838,
          -0.0240517,
          -0.0273443,
          -0.0893474,
          -0.00132613,
          -0.00812343,
          -0.0131606,
          -0.0257672,
          -0.00806189,
          -5.92736e-05,
          0.191009,
          -0.00348071,
          -0.0583921,
          0.221295,
          -0.0127548,
          0.106319,
          0.00621226,
          0.00470004,
          -0.0179268,
          -0.011862,
          0.00369802,
          -0.227752,
          -0.216918,
          -0.428499,
          -0.305959,
          0.136341,
          0.0738762,
          1.6861,
          -1.70298,
          -0.147837,
          0.10579,
          0.0343716,
          -0.0193797,
          0.0182236,
          -0.0901765,
          0.0764903,
          0.233722,
          0.0936845,
          -0.121908,
          -0.242463,
          0.0333018,
          -0.109557,
          0.0459113,
          0.0383627,
          0.0203827,
          -0.278254,
          -0.150927,
          -0.0769779,
          0.0481453,
          0.0350909,
          0.0880251,
          -0.203538,
          0.0191711,
          0.308216,
          0.0404557,
          -0.0372277,
          -0.0776497,
          0.0560934,
          -0.0518266,
          0.113552,
          0.0215727,
          0.027773,
          0.0946683,
          0.0320844,
          0.0379572,
          0.0878218,
          0.0361343,
          0.233828,
          0.0117663,
          0.12144,
          0.143248,
          -0.129656,
          0.227033,
          -0.201056,
          -0.0489278,
          0.0508662,
          -0.20159,
          -0.177031,
          0.781206,
          -0.59294,
          -0.0759446,
          0.0822138,
          -0.219278,
          0.0540896,
          -0.0115994,
          -0.0738576,
          0.304983,
          -0.123217,
          -0.428202,
          0.00785609,
          0.0216768,
          -0.0492444,
          0.0154833,
          -0.00244896,
          0.361615,
          -0.0488783,
          0.0265939,
          0.0100886,
          -0.00644781,
          0.0365227,
          -0.031017,
          0.0185268,
          0.156547,
          -0.0561536,
          0.457065,
          0.0709755,
          -0.0348761,
          0.0202217,
          0.0179039,
          -0.307,
          -0.478673,
          0.0794688,
          0.0190891,
          -0.0552209,
          -0.01251,
          0.478762,
          -0.0775668,
          0.0667442,
          -0.00173817,
          0.0756885,
          0.0245106,
          0.0113205,
          -0.0267797,
          0.0218232,
          0.0162315,
          0.0357829,
          -0.0822094,
          0.0107078,
          -0.0192941,
          -0.148092,
          0.0527802,
          0.35821,
          -0.435136,
          -0.384643,
          -0.058589,
          0.343116,
          -0.0012302,
          0.0130101,
          -0.19465,
          -0.00342426,
          0.0305777,
          0.0876736,
          0.0720964,
          -0.212692,
          0.0979383,
          -0.0143274,
          -0.0738083,
          -0.358702,
          0.0429481,
          0.226465,
          0.125514,
          -0.0832548,
          0.0356007,
          -0.0357099,
          -0.371421,
          0.021778,
          0.0133596,
          -0.290599,
          -0.00642913,
          0.0909104,
          -0.0251893,
          0.0400362,
          -0.0163073,
          0.0621686,
          0.00692886,
          -0.356478,
          -0.0298536,
          -0.0389894,
          0.0140373,
          -0.0488731,
          0.459375,
          -0.0130518,
          0.37054,
          -0.123912,
          -0.181,
          -0.0136606,
          0.0269054,
          -0.0200188,
          -0.0274063,
          0.00932898,
          -0.106051,
          -0.573014,
          0.0207018,
          0.00927678,
          -0.179,
          0.436691,
          -0.0063928,
          0.0132572,
          -0.0153833,
          -0.0227617,
          0.073399,
          -0.00524569,
          0.0305161,
          0.210586,
          0.00224931,
          -0.207753,
          -0.02205,
          -0.120387,
          -0.00688146,
          0.0619124,
          -0.10056,
          0.00377564,
          0.129942,
          -0.0222332,
          -0.0247976,
          -0.32352,
          -0.0117049,
          0.108896,
          0.0147519,
          -0.0130537,
          0.0263416,
          -0.0107362,
          0.0150941,
          -0.206668,
          0.625369,
          -0.413407,
          -0.0618943,
          -0.0815773,
          0.112984,
          -0.443037,
          -1.75267,
          -0.0958494,
          -0.0326891,
          0.0295785,
          0.364511,
          0.0821831,
          0.0777528,
          0.161916,
          0.516233,
          0.0920143,
          0.123886,
          0.078996,
          -0.0308996,
          0.00076431,
          -0.136715,
          0.0484413,
          -0.101308,
          -0.209092,
          0.367637,
          0.253848,
          0.0755875,
          -0.0324757,
          -0.0847786,
          0.364586,
          -0.175364,
          0.447421,
          -0.148045,
          0.0296095,
          -0.145667,
          -0.058133,
          0.0737622,
          0.000336797,
          0.0447899,
          0.00903719,
          -0.0501923,
          -0.047834,
          -0.0062095,
          -0.458326,
          -0.0277347,
          -0.246433,
          0.0151358,
          -0.591714,
          -0.0920678,
          -0.33181,
          -0.11397,
          0.122334,
          0.188562,
          -0.0320102,
          -0.0474006,
          -0.232818,
          1.57091,
          0.550378,
          0.0986345,
          -0.0394037,
          -0.0107304,
          0.104246,
          -0.099047,
          0.026444,
          0.136783,
          0.133975,
          0.128024,
          0.00442637,
          -0.0044128,
          -0.0872743,
          -0.00867384,
          0.0264817,
          0.328917,
          0.00246925,
          0.64108,
          0.0350873,
          -0.00134882,
          -0.0241656,
          0.0293807,
          -0.00845256,
          -0.0771247,
          0.0157707,
          0.424041,
          0.0895196,
          -0.119918,
          -0.0203341,
          0.0140322,
          -0.471386,
          0.0438799,
          0.0502411,
          -0.0383127,
          -0.0514571,
          0.00688589,
          -0.626805,
          -0.0564282,
          0.00111435,
          -0.0443682,
          -0.0617239,
          -0.0494235,
          0.0144365,
          -0.0325942,
          -0.0612994,
          -0.00553644,
          0.0223534,
          -0.0486513,
          0.00302708,
          0.0168915,
          0.0716784,
          -0.0215085,
          -0.441968,
          -0.411065,
          -0.00329879,
          -0.0500928,
          0.42267,
          0.0234309,
          0.00495914,
          -0.261415,
          -0.00427462,
          -0.00972595,
          0.0991889,
          0.0421961,
          0.193234,
          0.0491266,
          0.00590351,
          0.00123402,
          -0.340635,
          -0.013752,
          0.220873,
          0.0760205,
          -0.0614518,
          -0.0696603,
          0.0340818,
          -0.373833,
          -0.0248281,
          0.00565409,
          -0.35331,
          -0.00758577,
          -0.0325833,
          0.0441673,
          0.0748909,
          0.0218354,
          0.0503793,
          0.00898127,
          -0.360042,
          0.0117247,
          -0.00865931,
          0.00390659,
          0.0883734,
          0.430153,
          0.016969,
          0.370611,
          -0.0462356,
          0.126411,
          0.00593608,
          -0.0179057,
          0.00560342,
          -0.0218551,
          -0.0753817,
          -0.112758,
          0.691932,
          -0.0100743,
          -0.00210045,
          -0.298619,
          0.429851,
          -0.0454595,
          0.00124998,
          -0.0204758,
          0.0103599,
          -0.0696446,
          -0.000137674,
          0.0379593,
          -0.203917,
          -0.0237482,
          -0.0441382,
          0.000727953,
          0.0659545,
          -0.0176604,
          0.0809827,
          -0.017692,
          -0.0281147,
          0.190732,
          -0.00590003,
          -0.00990867,
          -0.24596,
          0.00591205,
          0.0790109,
          -0.00633311,
          0.000144724,
          -0.0185458,
          -0.0162208,
          -0.00164274,
          -0.224313,
          -0.57768,
          -0.39364,
          -0.049787,
          0.0810985,
          0.127808,
          1.58106,
          -1.74232,
          -0.0543385,
          0.128656,
          -0.0050875,
          0.153831,
          -0.0160018,
          -0.257133,
          0.0913271,
          0.531793,
          -0.020301,
          -0.0710607,
          0.288034,
          0.0447429,
          -0.160055,
          -0.112769,
          0.0827563,
          -0.0037533,
          -0.678999,
          -0.122919,
          -0.0884644,
          0.16319,
          0.108578,
          0.0339616,
          0.56214,
          0.0452282,
          0.0311119,
          -0.137356,
          -0.0510552,
          -0.229975,
          -0.00226652,
          -0.00571726,
          0.0430974,
          -0.00838708,
          0.0404716,
          0.0129145,
          -0.0228848,
          -0.0278731,
          0.386024,
          -0.0791625,
          0.177397,
          0.00745662,
          0.300058,
          0.230034,
          -0.307698,
          0.148678,
          -0.159654,
          -0.0383169,
          0.0136086,
          -0.403445,
          -0.18883,
          -0.514384,
          0.302519,
          -0.071685,
          0.0162204,
          -0.0164365,
          -0.0157615,
          0.159349,
          -0.10716,
          0.0910846,
          -0.0194439,
          -0.384251,
          -0.1042,
          -0.00353321,
          -0.135663,
          0.0104781,
          -0.00801504,
          0.263787,
          9.49176e-05,
          -0.048904,
          0.024037,
          0.220537,
          0.0525058,
          -0.0287075,
          0.0752772,
          0.17576,
          -0.035428,
          0.309044,
          0.0738859,
          0.032465,
          -0.0130984,
          0.0127239,
          -0.420449,
          -0.362246,
          0.295121,
          0.0739654,
          -0.223072,
          0.0455353,
          0.161229,
          -0.120168,
          0.187931,
          -0.779019,
          0.0542364,
          0.407853,
          0.016278,
          -0.12693,
          -0.0513683,
          -5.79176e-05,
          0.0209215,
          -0.117002,
          0.00647843,
          -0.000392623,
          -0.153968,
          0.0256969,
          0.361528,
          -0.296059,
          0.0813565,
          -0.282748,
          0.201666,
          0.165281,
          0.0877668,
          -0.154062,
          0.00754815,
          -0.0421812,
          0.0383121,
          0.130129,
          -0.281352,
          0.14421,
          0.0197372,
          0.440412,
          -0.253084,
          0.104857,
          0.134657,
          -0.28727,
          -0.101189,
          0.0861721,
          0.0228141,
          -0.277131,
          0.0196335,
          -0.0204455,
          -0.101337,
          0.0166034,
          0.262448,
          -0.0324351,
          -0.0688355,
          -0.019823,
          0.245137,
          -0.0625256,
          -0.200703,
          0.0481115,
          0.0440356,
          0.0415609,
          -0.342104,
          0.5024,
          -0.0818492,
          0.261653,
          -0.0238087,
          -0.209046,
          -0.0573659,
          -0.0511582,
          0.00575561,
          0.134532,
          0.10676,
          -0.2305,
          -0.358979,
          -0.0356551,
          0.317749,
          -0.172254,
          0.269289,
          0.0585852,
          -0.0205256,
          0.020076,
          -0.0338775,
          -0.0924867,
          0.00320389,
          -0.0376105,
          0.413263,
          -0.00815743,
          -0.0469812,
          -0.0512913,
          -0.304017,
          0.0714388,
          0.187559,
          0.456071,
          0.00342683,
          0.125317,
          -0.0182457,
          0.185295,
          -0.603445,
          0.0214515,
          0.0751027,
          -0.0109397,
          -0.033614,
          -0.00719463,
          -0.02278,
          0.028814,
          -0.230012,
          0.335768,
          -0.293083,
          -0.201247,
          -0.0547219,
          0.0652211,
          0.370667,
          -1.09906,
          0.0120415,
          -0.0153796,
          0.0409463,
          0.445256,
          0.108715,
          0.444426,
          0.151732,
          1.03546,
          0.134198,
          -0.372902,
          1.44209,
          0.0566563,
          -0.0393234,
          -0.0335852,
          0.281526,
          -0.0977745,
          -0.0120345,
          -0.00091412,
          0.139438,
          0.124945,
          0.0849453,
          -0.134904,
          -0.197836,
          -0.282232,
          0.235826,
          -0.0230987,
          0.211625,
          0.0842794,
          -0.0230802,
          0.17552,
          0.0351087,
          -0.0120538,
          0.126416,
          -0.143196,
          0.144598,
          0.0489866,
          -0.3623,
          -0.237915,
          -0.145377,
          0.0165704,
          -0.379244,
          0.141639,
          -0.553809,
          -0.17802,
          0.241211,
          0.147441,
          -0.135227,
          -0.0568448,
          -0.0263076,
          0.888139,
          0.146339,
          -0.0630807,
          -0.0666663,
          0.423805,
          0.0322973,
          -0.288764,
          -0.167181,
          0.156401,
          0.0896908,
          -0.0675622,
          -0.0445896,
          0.0157834,
          -0.121625,
          -0.00948184,
          -0.108225,
          0.232367,
          -0.00937238,
          0.305029,
          0.0172246,
          -0.223392,
          -0.0166186,
          0.0231422,
          -0.0447137,
          -0.378968,
          -0.000138115,
          0.294908,
          0.140659,
          -0.0359402,
          0.0106634,
          0.00242614,
          -0.417292,
          -0.0119324,
          0.278481,
          -0.0748593,
          -0.161758,
          -0.00793419,
          -0.15933,
          -0.0947968,
          0.200192,
          0.666264,
          0.00436784,
          0.436817,
          -0.017067,
          -0.0404029,
          0.0436137,
          -0.0004812,
          0.0782808,
          -0.0961137,
          0.0700435,
          0.0113453,
          0.319749,
          -0.0113452,
          -0.249762,
          -0.296328,
          0.302447,
          -0.273217,
          0.207044,
          0.00534082,
          0.112298,
          -0.102936,
          -0.0449441,
          -0.232713,
          -0.177302,
          0.0926634,
          0.269231,
          0.186859,
          -0.0161226,
          -0.426336,
          -0.263431,
          -0.108863,
          0.217569,
          -0.31195,
          0.0322443,
          -0.183957,
          0.023155,
          -0.28498,
          0.0407735,
          -0.035538,
          -0.201372,
          -0.00350705,
          -0.225663,
          0.010688,
          0.060017,
          0.01567,
          0.171315,
          -0.0439981,
          -0.182136,
          0.0359574,
          0.0296358,
          -0.00307342,
          -0.0422296,
          0.381603,
          0.0937955,
          0.260841,
          0.100596,
          0.262956,
          0.0366734,
          -0.0112285,
          0.0182523,
          0.0850542,
          0.100236,
          -0.198355,
          0.150706,
          -0.0351961,
          0.229163,
          -0.461705,
          0.247793,
          -0.0512855,
          -0.0149899,
          0.034424,
          0.0602198,
          -0.270687,
          0.0177973,
          -0.0347263,
          -0.225883,
          0.0474393,
          0.0632274,
          0.00914214,
          0.187571,
          -0.0294567,
          0.264389,
          0.123028,
          0.0125881,
          0.261863,
          0.00747054,
          0.67574,
          -0.478312,
          -0.000191243,
          0.0463004,
          0.0148226,
          0.0124256,
          -0.0474486,
          -0.014989,
          -0.000762181,
          -0.270628,
          -0.418243,
          -0.289624,
          -0.104591,
          0.175957,
          0.08215,
          1.06696,
          -1.02557,
          0.115145,
          0.0695911,
          0.156586,
          -0.306054,
          -0.00702493,
          -0.267383,
          0.110742,
          0.949943,
          0.0794655,
          0.509013,
          1.26337,
          0.0506586,
          -0.179409,
          -0.245478,
          0.313053,
          -0.0660006,
          -0.565699,
          -0.0140736,
          -0.00386745,
          0.164401,
          -0.000942266,
          -0.133987,
          0.149355,
          -0.256752,
          -0.0566634,
          -0.139769,
          0.0971897,
          -0.0165716,
          -0.0135592,
          0.0326589,
          0.0119956,
          -0.0243977,
          0.157286,
          -0.0157085,
          -0.0484753,
          0.05292,
          0.455893,
          -0.343176,
          -0.28656,
          -0.000794148,
          0.237996,
          0.156068,
          0.178966,
          0.0882436,
          -0.181195,
          -0.00772747,
          0.159782,
          -0.424634,
          0.102634,
          0.749938,
          -0.00127375,
          -0.0865561,
          -0.0216835,
          -0.258772,
          0.0204645,
          0.289894,
          -0.179738,
          0.00754551,
          -0.0438883,
          -0.453905,
          -0.0116426,
          0.00072558,
          -0.0430166,
          0.0342448,
          0.00607116,
          0.144922,
          0.0270138,
          -0.218241,
          -0.0158975,
          -0.108926,
          0.0547008,
          -0.0116841,
          0.0515494,
          -0.231451,
          -0.0364001,
          0.0944107,
          0.127564,
          0.112939,
          -0.0457076,
          -0.0104843,
          -0.062874,
          -0.167391,
          0.486603,
          0.117094,
          -0.251632,
          0.0443652,
          0.072451,
          -0.103484,
          0.204014,
          -0.40047,
          -0.0991115,
          0.152572,
          -0.00473303,
          0.732192,
          -0.0169086,
          0.00647506,
          0.113252,
          -0.185249,
          -0.657705,
          -0.00409185,
          0.0415296,
          0.0460077,
          0.278808,
          -0.127436,
          0.287207,
          -0.454219,
          0.0855711,
          0.038219,
          -0.0810987,
          0.0994641,
          -0.0329529,
          -0.0443531,
          -0.081005,
          0.10399,
          -0.195066,
          0.107589,
          -0.0967729,
          0.712898,
          -0.166427,
          0.104085,
          -0.0191992,
          -0.435787,
          0.00714232,
          0.109816,
          0.000885856,
          -0.135063,
          -0.00608803,
          0.0268059,
          -0.0146555,
          0.015801,
          0.336513,
          -0.0414461,
          -0.753423,
          -0.105762,
          0.44009,
          -0.0317701,
          -0.0855565,
          0.0732943,
          0.026576,
          0.0389151,
          -0.0300835,
          0.214188,
          -0.361933,
          0.138011,
          -0.0901697,
          -0.146817,
          -0.0606013,
          0.342673,
          -0.0071255,
          -0.37566,
          -0.161914,
          -0.492447,
          0.0448496,
          -0.0455265,
          0.494401,
          0.08467,
          0.178411,
          -0.0351872,
          0.0193283,
          0.0866231,
          0.0260045,
          0.153408,
          -0.035087,
          -0.0315839,
          0.217444,
          0.143488,
          0.018783,
          -0.0159275,
          -0.305463,
          0.0462978,
          0.083137,
          0.758342,
          -0.0232688,
          -0.106269,
          0.0165144,
          0.0669667,
          -0.231381,
          0.0403432,
          0.0708956,
          -0.0279375,
          -0.0294711,
          -0.0154052,
          0.0181722,
          -0.0118996,
          -0.177907,
          0.124214,
          -0.0770334,
          -0.130728,
          0.038445,
          0.00632686,
          -0.147657,
          -0.302351,
          0.215446,
          -0.0264241,
          0.05372,
          0.613863,
          0.154241,
          0.436194,
          0.114032,
          0.904876,
          0.105019,
          -0.423622,
          0.77384,
          0.041701,
          -0.0131986,
          0.0170759,
          0.142423,
          -0.0780658,
          0.435278,
          -0.201892,
          0.119213,
          -0.0473381,
          0.0207668,
          -0.738198,
          -0.38696,
          -0.163885,
          0.0897042,
          0.0597757,
          0.339224,
          0.108088,
          -0.0335653,
          0.263436,
          -0.0246499,
          -0.0254111,
          0.140672,
          -0.0660675,
          0.288423,
          0.0662114,
          -0.371056,
          -0.275874,
          -0.0351584,
          -0.0305382,
          -0.267748,
          0.152149,
          -0.622102,
          -0.306708,
          0.076775,
          0.141463,
          -0.156119,
          0.243999,
          0.0818132,
          1.11517,
          0.106635,
          -0.133044,
          0.0630839,
          0.372829,
          0.0115844,
          -0.349089,
          -0.222275,
          -0.0157353,
          0.049015,
          -0.276546,
          0.124946,
          0.0240739,
          -0.099755,
          -0.023458,
          -0.0057855,
          0.144775,
          0.128849,
          -0.0207207,
          -0.0379663,
          -0.0669883,
          0.025901,
          0.0198919,
          -0.0566328,
          -0.806211,
          0.0380886,
          0.102672,
          0.0887668,
          -0.0240198,
          -0.0147273,
          -0.0143172,
          0.0883978,
          0.0583001,
          0.419097,
          -0.0281437,
          -0.248046,
          -0.0179667,
          0.052569,
          -0.0600267,
          0.220886,
          0.148419,
          0.104418,
          0.215477,
          -0.0254618,
          -0.0797663,
          0.0432136,
          0.0131544,
          -0.179017,
          -0.105991,
          0.0205347,
          0.0119271,
          0.333608,
          0.00189901,
          -0.181501,
          -0.124582,
          0.32165,
          -0.420792,
          0.0793346,
          0.147461,
          -0.07712,
          0.0772927,
          0.501474,
          -0.105623,
          -0.107233,
          -0.0239716,
          0.266472,
          0.172973,
          0.0264586,
          -0.325926,
          -0.184096,
          -0.573443,
          0.0762673,
          -0.305832,
          0.125926,
          -0.0705063,
          -0.0171883,
          -0.167295,
          0.0653154,
          0.0108633,
          -0.0639483,
          -0.00367608,
          -0.911378,
          0.0400319,
          -0.423201,
          0.0605704,
          0.353293,
          -0.020816,
          -0.0516108,
          0.049781,
          -0.0348743,
          -0.0114567,
          0.220096,
          0.067704,
          0.37268,
          0.144214,
          0.253618,
          0.186199,
          0.0349937,
          0.441807,
          0.0246444,
          -0.411921,
          -0.0923553,
          -0.409106,
          -0.000480746,
          0.0560414,
          0.388972,
          -0.26043,
          0.144367,
          -0.0218036,
          0.0187553,
          0.102148,
          0.0445336,
          0.196048,
          0.0207512,
          -0.0405144,
          -0.311357,
          0.223604,
          0.00297792,
          0.0541862,
          0.131297,
          -0.0492689,
          0.0316473,
          0.294829,
          0.0228635,
          0.149595,
          -0.0209623,
          0.548297,
          -0.133845,
          -0.0212034,
          0.0534416,
          0.0328207,
          -0.0258507,
          -0.0368014,
          0.0187501,
          -0.163521,
          -0.295635,
          -0.00879386,
          -0.136596,
          0.224323,
          0.0776726,
          0.00757875,
          1.32771,
          -0.273795,
          0.206259,
          0.0312772,
          0.237226,
          -0.413595,
          0.0120969,
          -0.230457,
          0.0231848,
          0.808876,
          0.0765395,
          0.299151,
          0.553354,
          0.013812,
          -0.109549,
          -0.277459,
          0.257665,
          -0.0264611,
          -0.759903,
          -0.0402385,
          0.0486844,
          -0.0500148,
          -0.129649,
          -0.637246,
          0.0268188,
          -0.154468,
          -0.248799,
          -0.033713,
          0.222363,
          -0.223284,
          0.00156019,
          -0.122139,
          -0.0355042,
          -0.0518496,
          0.0838255,
          -0.0388,
          -0.0351304,
          0.0861864,
          0.369069,
          -0.374533,
          -0.0670465,
          -0.0104624,
          0.357681,
          0.0603733,
          0.441586,
          0.218564,
          -0.127595,
          -0.0033877,
          0.355158,
          -0.460135,
          0.422839,
          0.272182,
          -0.171839,
          0.00969477,
          0.151931,
          -0.199842,
          0.00971994,
          0.404476,
          -0.231336,
          -0.168476,
          -0.0911058,
          0.118011,
          0.0374397,
          -0.0234527,
          0.0682148,
          -0.0118979,
          -0.0518363,
          0.0925254,
          -0.00456123,
          -0.0497411,
          -0.0270748,
          0.65254,
          -0.0165176,
          0.0217534,
          0.0168178,
          0.0493939,
          -0.00387947,
          0.0451435,
          0.00634872,
          0.0181307,
          0.0177743,
          -0.00495228,
          0.0161568,
          -0.0578135,
          0.396588,
          0.00191671,
          -0.150103,
          0.0390164,
          -0.0507869,
          0.0270487,
          -0.0468519,
          0.173884,
          0.000436181,
          0.0107425,
          -0.00256039,
          0.883965,
          0.0140502,
          -0.00789267,
          -0.054486,
          0.0072618,
          -1.07332,
          -0.00326198,
          0.0344466,
          -0.00764013,
          0.062511,
          -0.0465622,
          0.0210274,
          -0.308214,
          -0.00956163,
          -0.184398,
          -0.0857353,
          0.133921,
          -4.15742e-05,
          0.0517754,
          -0.0119016,
          -0.0605734,
          -0.0440779,
          0.0626803,
          -0.0397237,
          -0.381391,
          -0.134877,
          0.110036,
          -0.00395098,
          -0.0663283,
          0.0243311,
          0.0160829,
          0.003837,
          -0.0802939,
          -0.0591787,
          0.0150925,
          0.375242,
          0.000958516,
          0.216713,
          -0.00827692,
          -0.396785,
          0.0751219,
          0.702256,
          -0.00147079,
          -0.0801167,
          0.112153,
          0.0191841,
          0.00243349,
          0.0552379,
          -0.0172818,
          -0.599364,
          0.0844743,
          -0.031125,
          0.029738,
          0.0435814,
          0.0483307,
          -0.046562,
          -0.120253,
          -0.00774901,
          -0.626889,
          -0.0082466,
          0.0246431,
          -0.532847,
          0.00393478,
          0.0319239,
          -0.138364,
          -0.0168049,
          0.075258,
          0.378212,
          0.0487672,
          0.0420332,
          -0.00368563,
          0.00316578,
          0.116205,
          0.129812,
          -0.0031299,
          0.056021,
          -0.00663899,
          0.125625,
          0.128915,
          -0.064011,
          0.0664703,
          0.0260265,
          0.0877787,
          0.106491,
          -0.00996422,
          0.0245336,
          0.0227478,
          -0.0136749,
          -0.0978229,
          0.0173703,
          -0.121016,
          -0.313681,
          -0.0271812,
          -0.00480732,
          -0.120432,
          0.220312,
          0.00109883,
          0.0862688,
          0.225861,
          0.250956,
          -0.00869482,
          0.127081,
          0.499316,
          -0.00979588,
          0.0759478,
          0.0440428,
          0.801999,
          0.0631741,
          -0.253641,
          0.275579,
          0.0209313,
          0.0733559,
          0.025569,
          0.0928896,
          -0.0495326,
          0.278999,
          -0.200812,
          0.0807909,
          -0.527717,
          0.036964,
          -0.510238,
          -0.47043,
          -0.128302,
          0.0579764,
          -0.0669079,
          0.600099,
          0.134673,
          -0.0223878,
          0.341484,
          -0.116504,
          -0.0319066,
          -0.0441086,
          -0.00714793,
          0.316555,
          0.0880717,
          -0.264443,
          -0.111506,
          0.106638,
          -0.0629223,
          -0.088852,
          0.115754,
          -0.470114,
          -0.323238,
          0.00582056,
          0.153503,
          -0.127979,
          0.395803,
          0.129753,
          1.31039,
          -0.0786115,
          -0.136331,
          0.00189262,
          0.426196,
          0.00561121,
          -0.288531,
          -0.280649,
          -0.0380176,
          0.00724228,
          0.189024,
          0.0723023,
          -0.00397693,
          0.0845822,
          -0.00581333,
          -0.0262034,
          0.0973829,
          0.0851555,
          -0.0866101,
          -0.0332588,
          -0.111956,
          0.00109103,
          0.018287,
          -0.0137513,
          0.310744,
          0.0251475,
          0.0430478,
          -0.0188698,
          -0.0390984,
          0.0552206,
          0.000124607,
          0.0227009,
          -0.0660485,
          0.370246,
          0.00368545,
          -0.169792,
          -0.0194474,
          -0.121212,
          -0.0216736,
          -0.00409989,
          -0.0565734,
          -0.0906121,
          0.014243,
          -0.0190374,
          0.163495,
          -0.0483179,
          -0.0150906,
          -0.302241,
          -0.0170721,
          0.0258867,
          0.00767712,
          -0.0700016,
          0.00349338,
          -0.101603,
          -0.0459084,
          0.0120464,
          -0.374985,
          -0.0342523,
          -0.0570078,
          -0.0630057,
          0.142346,
          0.780079,
          0.116831,
          -0.0191557,
          -0.115798,
          0.0390921,
          0.128814,
          -0.00582372,
          0.078363,
          -0.142734,
          -0.997989,
          0.000293493,
          -0.0225345,
          0.0888962,
          0.0429225,
          -0.0360957,
          -0.0668213,
          0.0393328,
          0.0321956,
          0.450164,
          0.0056941,
          -0.381335,
          -0.00642818,
          -0.224615,
          0.106573,
          0.608605,
          -0.032051,
          -0.0791175,
          -0.156521,
          -0.0676992,
          0.00130574,
          0.163986,
          -0.0900509,
          0.64348,
          0.0761625,
          -0.0118613,
          -0.0484309,
          0.0325403,
          0.0120032,
          0.0268668,
          -0.0890815,
          -0.0144608,
          -0.562782,
          -0.0207067,
          0.0994488,
          -0.474307,
          0.0116184,
          0.0344625,
          -0.0266407,
          0.0111629,
          0.0665664,
          -0.649931,
          0.0946656,
          -0.0132219,
          -0.00446428,
          -0.0236427,
          0.129241,
          0.0640683,
          0.0303544,
          -0.0093308,
          0.019061,
          -0.0264223,
          0.0774644,
          0.0239695,
          0.064629,
          -0.0432329,
          0.166013,
          0.0670201,
          0.00999644,
          0.119399,
          -0.0134555,
          0.00446833,
          0.138638,
          0.0296979,
          0.210961,
          -0.361595,
          -0.0343628,
          -0.0709145,
          0.20804,
          0.148952,
          -0.0209791,
          1.35325,
          0.263127,
          0.162332,
          0.00490485,
          -0.0192022,
          -0.181122,
          -0.0242065,
          -0.417556,
          -0.00312368,
          0.679581,
          0.077624,
          0.356768,
          0.0765733,
          -0.0132509,
          -0.0393284,
          -0.150868,
          0.085416,
          -0.0103198,
          -0.456005,
          -0.0499251,
          0.0906539,
          -0.590628,
          -0.124353,
          -0.393001,
          -0.104492,
          -0.148604,
          -0.223519,
          -0.101868,
          0.503046,
          -0.352992,
          -0.00564446,
          0.0607507,
          -0.13195,
          -0.0702763,
          0.310483,
          0.100039,
          0.0646848,
          0.105251,
          0.217908,
          -0.226385,
          0.0798375,
          -0.0288236,
          0.386576,
          0.0290487,
          0.334062,
          0.250972,
          -0.00537235,
          0.0711964,
          0.308727,
          -0.460674,
          0.489322,
          0.504573,
          -0.298879,
          -0.0147427,
          0.0732188,
          -0.0491695,
          0.00738774,
          0.109339,
          -0.249486,
          -0.0223171,
          -0.0910356,
          -0.206652,
          -0.595931,
          -0.0196123,
          0.000879657,
          0.0140512,
          -0.0190706,
          0.117453,
          -0.0987123,
          -0.0837489,
          0.0273325,
          0.00733748,
          -0.00456736,
          0.00149864,
          0.0489802,
          0.201826,
          -0.0637228,
          0.114826,
          -0.432661,
          -0.0326832,
          -0.0116702,
          0.0134972,
          0.0191714,
          -0.365213,
          0.598348,
          0.122603,
          -0.0580822,
          0.0141608,
          0.0409833,
          -0.0465083,
          0.244947,
          -0.420263,
          -0.00444574,
          0.234017,
          -0.000229535,
          -0.217207,
          -0.0318682,
          0.00830883,
          0.00338491,
          0.47408,
          0.101034,
          0.00634737,
          0.148181,
          0.143634,
          0.225781,
          -0.0964928,
          0.408148,
          -0.580696,
          -0.053654,
          -0.385555,
          0.610114,
          -0.0314639,
          -0.032539,
          0.361354,
          -0.00961236,
          0.0407413,
          -0.161401,
          -0.0922852,
          0.178088,
          0.1378,
          -0.133908,
          0.118899,
          0.0698785,
          -0.500165,
          -0.0659662,
          0.172359,
          0.237629,
          -0.151211,
          -0.0368092,
          0.00232068,
          -0.0313842,
          0.0273122,
          0.169328,
          -0.0122918,
          0.0979568,
          0.00994749,
          0.28517,
          0.0812263,
          0.0480999,
          0.106048,
          -0.101696,
          0.0115798,
          -0.705213,
          0.225927,
          -0.0371329,
          0.102576,
          0.0955001,
          -0.111118,
          -0.0416993,
          0.0131302,
          -0.0966484,
          -1.20301,
          -0.048876,
          -0.267628,
          -0.302334,
          0.0274925,
          0.377075,
          0.0345156,
          0.0789118,
          0.0827277,
          -0.000823296,
          0.265744,
          -0.0269735,
          -0.56947,
          0.0659806,
          -0.229428,
          0.159603,
          0.689092,
          -0.0177599,
          -0.0325319,
          -0.0369388,
          0.0360041,
          0.0590726,
          0.591783,
          0.145658,
          0.0851105,
          0.000382848,
          0.110934,
          -0.118935,
          0.0154323,
          0.0218792,
          -0.0223016,
          -0.00698046,
          -0.000582162,
          -0.00354843,
          0.050294,
          -0.240972,
          0.0602916,
          -0.144516,
          -0.29851,
          -0.0358342,
          0.0954109,
          -0.135607,
          -0.247134,
          -0.166269,
          -0.0112808,
          -0.00511297,
          0.154372,
          0.0915103,
          0.190687,
          0.0551922,
          1.90967,
          0.172936,
          -0.112599,
          0.810223,
          0.0752657,
          -0.0688718,
          -0.179192,
          -0.00248557,
          -0.122839,
          0.0511923,
          -0.0336895,
          0.146558,
          -0.255105,
          0.136283,
          -1.23322,
          -0.0473655,
          -0.227641,
          0.0373178,
          -0.0521497,
          0.065203,
          0.0601714,
          0.0748975,
          0.0148459,
          0.145882,
          0.160863,
          0.0353839,
          -0.041584,
          0.0455678,
          0.0949563,
          -0.0139824,
          -0.163566,
          -0.0449448,
          0.0869299,
          -0.261497,
          0.139762,
          -0.295001,
          -0.282219,
          -0.0165787,
          -0.0847484,
          -0.0138258,
          0.200163,
          -0.00512296,
          0.0597027,
          -0.120322,
          0.110834,
          0.176147,
          0.0610212,
          0.0397564,
          -0.0692948,
          0.0124559,
          -0.0763282,
          0.0799951,
          -0.0347612,
          -0.549164,
          -0.00675438,
          -0.0330921,
          -0.0233596,
          -0.0496756,
          0.105657,
          -0.0669763,
          0.178944,
          0.0333207,
          -0.159376,
          -0.0134037,
          0.0284222,
          -0.015644,
          -0.103024,
          0.000419608,
          0.0978629,
          -0.425892,
          -0.0353369,
          -0.00772638,
          0.00612323,
          -0.127818,
          -0.17878,
          0.57053,
          -0.00991617,
          -0.000495877,
          -0.0416109,
          -0.0625728,
          -0.0403853,
          0.301214,
          0.451572,
          0.00375722,
          0.198682,
          -0.019087,
          -0.168803,
          0.157769,
          -0.00355638,
          0.010252,
          0.447555,
          0.0687359,
          0.016096,
          0.330926,
          0.0136667,
          -0.0957984,
          -0.0935479,
          0.524093,
          -0.553084,
          -0.123817,
          -0.413908,
          0.563413,
          -0.0256704,
          -0.0857671,
          0.325806,
          -0.0686479,
          -0.00457364,
          0.131646,
          -0.0549271,
          0.0206485,
          -0.312701,
          -0.128724,
          0.0256232,
          0.0983446,
          -0.456021,
          0.00407114,
          0.0517029,
          0.225247,
          -0.163171,
          0.000868921,
          -0.00040746,
          -0.0478231,
          0.0193063,
          -0.0485491,
          0.0572922,
          0.15854,
          0.00808764,
          0.258661,
          0.0871123,
          0.0597271,
          0.179405,
          -0.102597,
          -0.00984021,
          -0.636119,
          0.190203,
          0.00897869,
          0.104085,
          0.163031,
          0.104948,
          -0.00102441,
          0.0302468,
          -0.0340166,
          -1.21337,
          -0.102606,
          -0.238902,
          -0.0825258,
          0.0157979,
          0.337858,
          -0.126569,
          0.0722855,
          0.0471864,
          0.0075141,
          0.275746,
          0.00888808,
          -0.602395,
          0.0355369,
          -0.230348,
          -0.150012,
          0.719283,
          -0.0169733,
          -0.00874154,
          0.0655265,
          -0.00139231,
          0.0822697,
          0.400612,
          0.167545,
          0.157083,
          0.0418814,
          0.384159,
          -0.0523899,
          -0.0248844,
          0.0138076,
          -0.0561128,
          0.0244716,
          -0.0593978,
          -0.00253059,
          0.0510079,
          -0.274557,
          -0.13476,
          -0.143553,
          -0.0998667,
          -0.0361802,
          0.104216,
          0.268015,
          -0.262698,
          -0.161712,
          0.0133882,
          -0.0166839,
          -0.286641,
          0.0525127,
          -0.0198391,
          0.0287347,
          1.90478,
          0.150928,
          0.0327538,
          0.774314,
          0.0686767,
          -0.0631348,
          -0.320692,
          0.0939722,
          -0.102603,
          -0.344997,
          -0.00397481,
          0.0977398,
          -0.271275,
          0.128519,
          -1.17768,
          0.114472,
          -0.219072,
          -0.105461,
          -0.0910187,
          0.0273968,
          -0.114087,
          0.0856175,
          -0.0579938,
          0.154061,
          0.147047,
          0.0628736,
          -0.0978306,
          -0.0509512,
          0.10191,
          0.298931,
          -0.210368,
          0.00356367,
          0.0856455,
          -0.0497086,
          0.118883,
          0.18307,
          -0.014717,
          -0.0441052,
          -0.118594,
          0.128278,
          -0.192218,
          0.123188,
          -0.155942,
          -0.237884,
          0.145818,
          0.175589,
          -0.0842542,
          0.0361129,
          0.110191,
          0.0268634,
          -0.120516,
          0.00874928,
          0.0134735,
          0.335858,
          -0.0136531,
          0.0566105,
          0.00252847,
          -0.00901739,
          0.068258,
          -0.0308819,
          0.00681065,
          0.00631511,
          -0.0208769,
          -0.0189959,
          0.0013336,
          0.0214609,
          0.163921,
          -0.095009,
          0.0417003,
          -0.243146,
          -0.0592433,
          -0.00412453,
          0.0170758,
          0.040777,
          -0.159177,
          0.580984,
          0.603277,
          0.421459,
          -0.026116,
          0.0364569,
          -0.0217186,
          0.106453,
          -0.281525,
          -0.0441078,
          0.0698089,
          0.0172046,
          -0.172265,
          -0.352012,
          -0.00137536,
          -0.0458043,
          0.239637,
          0.0760126,
          -0.000656248,
          0.168063,
          0.170804,
          0.117717,
          0.000192018,
          0.131229,
          -0.593001,
          -0.0261823,
          -0.540462,
          -0.643524,
          -0.0237352,
          -0.00894732,
          0.0483792,
          0.0203436,
          -0.00958842,
          -0.222299,
          -0.592266,
          0.699286,
          0.0638965,
          -0.0855276,
          0.0582301,
          0.0269297,
          -0.173079,
          -0.0546296,
          0.0693132,
          -0.201993,
          -0.0953953,
          0.00303998,
          -0.0284396,
          0.0119875,
          0.0128309,
          0.134686,
          -0.0359401,
          0.0428194,
          -0.0293435,
          0.233794,
          -0.0370849,
          0.119775,
          0.0456229,
          0.0705879,
          0.0232728,
          -0.26777,
          0.00153887,
          -0.0239517,
          0.0486585,
          -0.00397131,
          -0.0310157,
          0.0013641,
          -0.802419,
          -0.134446,
          -0.148007,
          -0.067177,
          -0.172021,
          -0.171189,
          -0.0912392,
          0.232678,
          0.175155,
          0.00949458,
          0.0929894,
          -0.047423,
          0.566494,
          0.00685058,
          -0.139742,
          0.0653526,
          -0.52812,
          0.0777982,
          0.824832,
          -0.0109771,
          -0.0164421,
          -0.0186534,
          0.0618813,
          -0.00270838,
          0.244253,
          -0.313861,
          0.00997633,
          0.00413667,
          -0.250473,
          0.00473636,
          0.040838,
          0.000882722,
          -0.154172,
          -0.0315135,
          0.0111547,
          0.00573913,
          0.028371,
          -0.136829,
          0.0754077,
          -0.0530621,
          -0.109292,
          -0.128925,
          0.0589544,
          -0.268599,
          0.0835921,
          -0.0523868,
          0.0138651,
          -0.0821851,
          0.12737,
          0.0506945,
          0.057236,
          -0.0585545,
          2.13257,
          0.153428,
          -0.0974369,
          -0.586988,
          0.0436938,
          -0.0527782,
          0.0958294,
          -0.0923083,
          -0.11736,
          0.234258,
          0.055342,
          0.095087,
          -0.179689,
          0.275888,
          -0.140316,
          -0.102377,
          -0.140912,
          -0.0563899,
          -0.033254,
          -0.0206791,
          0.134613,
          0.0975066,
          0.00340177,
          -0.093737,
          0.264252,
          -0.0175264,
          0.00607811,
          -0.0437287,
          0.131646,
          -0.128302,
          -0.469821,
          0.0158003,
          0.0325689,
          -0.258532,
          0.132662,
          -0.156868,
          -0.348375,
          0.382805,
          0.0145168,
          -0.0114711,
          0.233003,
          -0.0194632,
          -0.201697,
          -0.0180674,
          0.209339,
          0.0496914,
          0.0456158,
          -0.00431666,
          -0.0802962,
          0.00561278,
          -0.0822949,
          0.0951965,
          0.0843909,
          0.663689,
          -0.00679253,
          0.0587419,
          -0.0201904,
          -0.0504312,
          0.0508984,
          0.0293971,
          -0.0490795,
          -0.01389,
          0.0138808,
          -0.0258149,
          -0.00278974,
          -0.021292,
          -0.00911245,
          0.0512959,
          0.0247825,
          -0.237589,
          -0.0988346,
          -0.0119561,
          0.0068061,
          0.101915,
          -0.223863,
          0.59815,
          -0.248818,
          0.503844,
          0.148732,
          -0.056898,
          -0.0100185,
          0.0430561,
          0.287748,
          0.044607,
          0.0404035,
          -0.00331239,
          -0.255536,
          0.511091,
          0.00594159,
          -0.0592309,
          0.235392,
          0.00718501,
          0.0177547,
          0.122847,
          0.0395556,
          -0.102068,
          -0.0014542,
          0.30822,
          -0.586649,
          0.0503145,
          -0.363746,
          -0.453574,
          -0.0606676,
          -0.0698431,
          0.440875,
          -0.0237953,
          -0.054353,
          0.174172,
          -0.515579,
          -0.380386,
          -0.215315,
          -0.0798765,
          -0.00705101,
          0.0776533,
          -0.115228,
          0.0133994,
          -0.0790231,
          -0.248692,
          -0.11116,
          0.0490929,
          -0.032418,
          0.0262213,
          0.0103,
          -0.0861548,
          0.0942525,
          0.0960853,
          0.0237949,
          0.195892,
          -0.0267993,
          0.138637,
          0.177978,
          0.065953,
          0.00981966,
          -0.164364,
          -0.0316088,
          0.034954,
          0.0471467,
          0.143377,
          0.143711,
          0.0219304,
          -0.740622,
          -0.0429515,
          -0.162813,
          -0.146221,
          -0.123521,
          0.154406,
          -0.111261,
          0.184372,
          0.0450041,
          0.000496741,
          0.0704584,
          -0.0386029,
          0.573327,
          0.00140452,
          -0.18693,
          0.0177701,
          -0.523832,
          -0.240556,
          0.853639,
          -0.087152,
          0.000354498,
          0.00534085,
          0.0553098,
          -0.0364074,
          -0.0699207,
          -0.289804,
          0.0968432,
          0.0568415,
          0.134767,
          0.0478936,
          -0.00363133,
          0.00802476,
          -0.206263,
          -0.00138314,
          -0.0771896,
          -0.00232229,
          0.0228143,
          -0.167946,
          -0.124854,
          -0.0562291,
          0.121503,
          0.280558,
          0.0595825,
          -0.023222,
          0.0615295,
          -0.0817432,
          0.0258934,
          -0.118623,
          -0.25732,
          0.025726,
          -0.0912241,
          -0.079285,
          2.14712,
          0.145751,
          -0.0719169,
          -0.630108,
          0.0382639,
          -0.0088609,
          -0.00275426,
          -0.0441026,
          -0.0999258,
          -0.108484,
          -0.0550391,
          0.100082,
          -0.151829,
          0.18506,
          -0.107952,
          0.072615,
          -0.124536,
          -0.0785553,
          -0.0785427,
          -0.04325,
          0.0832821,
          0.108077,
          -0.0738554,
          -0.108155,
          0.260639,
          0.0707646,
          -0.0630038,
          -0.00112514,
          0.135379,
          0.305718,
          -0.525641,
          0.095852,
          0.0248475,
          -0.0461599,
          0.0671444,
          0.143687,
          -0.108802,
          -0.0878176,
          -0.0484053,
          0.0228744,
          -0.0765337,
          0.0403415,
          -0.324722,
          -0.115,
          0.332541,
          0.0372791,
          -0.0165257,
          0.013663,
          0.0293344,
          -0.00542815,
          -0.206444,
          0.0641428,
          0.114333,
          -0.0688909,
          -0.00955276,
          -0.0607095,
          0.0172647,
          -0.0162884,
          0.0214589,
          -0.0428386,
          0.0304495,
          0.0164577,
          -0.099602,
          0.000509526,
          -0.0400173,
          0.0133339,
          -0.0336569,
          -0.0257631,
          -0.0345127,
          0.0703603,
          -0.0555485,
          -0.0397644,
          0.00566283,
          0.0459578,
          -0.029684,
          0.601555,
          -0.0303777,
          0.716785,
          0.0244511,
          -0.0835344,
          -0.0476928,
          -0.0253349,
          -0.0943688,
          -0.0238879,
          0.0339097,
          0.0184742,
          -0.143649,
          -0.46434,
          0.00249615,
          -0.00292253,
          -0.109175,
          0.0546503,
          0.0182282,
          0.0398007,
          0.0493709,
          0.0284327,
          0.0602672,
          -0.125773,
          -0.58361,
          -0.120799,
          0.0858586,
          0.0820634,
          0.0838019,
          -0.00535542,
          0.0333776,
          0.0358717,
          0.0487588,
          -0.258299,
          -0.866002,
          0.926206,
          0.101789,
          -0.0433612,
          -0.0215614,
          -0.00852344,
          0.11464,
          0.0167509,
          0.0984842,
          0.0104956,
          0.0548967,
          -0.0248023,
          -0.0321537,
          0.0289811,
          -0.00872315,
          0.10619,
          -0.0211856,
          -0.0435477,
          -0.000221787,
          0.118601,
          -0.0315409,
          -0.0559282,
          -0.0589541,
          -0.0502209,
          0.00897974,
          0.0232722,
          0.0188878,
          -0.00387257,
          0.00386253,
          -0.0118096,
          -0.0788033,
          0.0520634,
          0.0427667,
          -0.0397335,
          0.443312,
          -0.128745,
          -0.0449213,
          -0.0500598,
          0.0100728,
          0.0230385,
          0.0413577,
          -0.0392826,
          0.0313642,
          0.0127601,
          0.877927,
          0.0116685,
          0.0715604,
          5.21555e-05,
          -0.77133,
          0.0499826,
          -0.172368,
          0.0684507,
          -0.0089141,
          0.0517048,
          -0.00274022,
          0.0471888,
          0.0931854,
          -0.0172623,
          -0.0662149,
          -0.0282667,
          -0.126356,
          -0.0531768,
          0.0408726,
          0.00868144,
          -0.0184856,
          -0.0176929,
          0.0773497,
          0.0237864,
          0.014023,
          0.0423022,
          0.0144832,
          0.0827614,
          0.02741,
          -0.159791,
          0.0863512,
          -0.404472,
          0.116191,
          0.12759,
          0.0353946,
          -0.0536069,
          0.0689974,
          0.0269257,
          -0.0168318,
          0.0355214,
          1.95041,
          -0.0743762,
          -0.0112624,
          -1.58973,
          -0.00642782,
          -0.055193,
          0.121881,
          -0.0325694,
          -0.0852812,
          0.19259,
          0.0881378,
          0.115804,
          -0.0507557,
          0.125631,
          -0.373872,
          0.126668,
          0.0195116,
          -0.0924281,
          -0.0022422,
          0.0296977,
          0.0258696,
          0.0186362,
          0.0303291,
          0.0320175,
          0.0974204,
          -0.0139876,
          -0.026837,
          -0.0761214,
          0.0682421,
          -0.163397,
          -0.400613,
          -0.00503832,
          0.00228523,
          -0.167041,
          0.115354,
          -0.0631811,
          -0.246405,
          0.3004,
          0.0279244,
          0.00738611,
          0.132784,
          -0.0527093,
          -0.352985,
          0.0532585,
          0.0573839,
          -0.0609163,
          -0.0229762,
          0.00240236,
          0.0119,
          -0.0388122,
          -0.0826556,
          0.0514991,
          0.0442197,
          -0.0882646,
          0.012373,
          0.00472667,
          -0.0152088,
          -0.0327258,
          0.00751513,
          0.00643448,
          -0.0159857,
          0.00899189,
          -0.0363545,
          -0.00960001,
          -0.032639,
          -0.0369839,
          0.00316907,
          0.0637359,
          -0.0545692,
          0.0817997,
          0.0878781,
          -0.00985099,
          -0.00959598,
          0.165172,
          0.0593854,
          0.617663,
          0.129336,
          0.778553,
          -0.00756842,
          -0.125358,
          -0.0193589,
          -0.048435,
          0.0485143,
          0.015134,
          0.0997823,
          -0.012605,
          -0.221782,
          0.678388,
          0.0115467,
          -0.00280095,
          -0.126458,
          -0.00271879,
          0.00694114,
          -0.129298,
          0.00179882,
          -0.045926,
          0.0445021,
          -0.0943136,
          -0.625025,
          -0.0541154,
          0.0765259,
          0.0487267,
          0.0995084,
          -0.035026,
          -0.0210242,
          -0.0731006,
          0.0129825,
          0.220894,
          -0.806911,
          -0.570595,
          -0.0689777,
          -0.0470275,
          0.030179,
          0.0148828,
          0.179036,
          0.0680586,
          0.0713575,
          -0.0215731,
          0.0390537,
          0.0538564,
          -0.0365582,
          0.0497904,
          -0.0140627,
          -0.0490521,
          0.0160466,
          -0.00409134,
          0.0558501,
          0.0951434,
          -0.0328869,
          -0.0349638,
          0.0901802,
          -0.0522524,
          -0.000195381,
          0.0899622,
          -0.00974552,
          0.0669536,
          0.00527767,
          0.147708,
          0.0401513,
          0.0719401,
          0.0367679,
          0.0177189,
          0.412165,
          -0.178954,
          -0.00630759,
          0.0312335,
          0.010524,
          -0.00317345,
          -0.101266,
          -0.0427837,
          -0.00197847,
          0.0168776,
          0.883192,
          -0.00519099,
          0.0340676,
          -0.0287473,
          -0.772236,
          -0.126367,
          -0.181436,
          0.00699707,
          0.000722058,
          0.0185924,
          -0.00884863,
          0.0332152,
          0.0614786,
          0.0191917,
          -0.000861302,
          0.0148781,
          -0.0217322,
          0.0051166,
          -0.0184247,
          0.0122369,
          -0.0519669,
          0.0153739,
          -0.00475543,
          0.0186919,
          0.0192562,
          0.0220107,
          -0.0137677,
          0.0621417,
          0.113569,
          0.216269,
          0.0891999,
          -0.267253,
          0.0997411,
          0.103246,
          0.0506568,
          -0.0679882,
          -0.1376,
          0.00311531,
          -0.12473,
          0.0307952,
          1.94951,
          -0.0839788,
          -0.00450346,
          -1.5986,
          -0.00601496,
          -0.0353025,
          0.0705105,
          -0.0312639,
          -0.0730567,
          -0.0666129,
          -0.0415593,
          0.101548,
          -0.0252503,
          0.0727829,
          -0.373152,
          0.258115,
          0.0323487,
          -0.115195,
          -0.0379358,
          0.0122052,
          0.0653386,
          0.0220689,
          0.0363609,
          0.0263927,
          0.092088,
          0.0450183,
          -0.069385,
          -0.00134346,
          0.0655721,
          0.167347,
          -0.451478,
          0.0552656,
          -0.00524545,
          0.0321271,
          0.0937686,
          0.134762,
          -0.0774443,
          -0.10333,
          -0.0193443,
          -0.0232199,
          -0.0596385,
          -0.0422543,
          -0.448366,
          -0.0206166,
          0.105484,
          -0.0658129,
          -0.069147,
          0.00928793,
          0.0476988,
          -0.0567883,
          -0.160205,
          0.0370286
        ],
        "bias": [
          0.864361,
          -0.819986,
          1.14509,
          0.984834,
          -1.04886,
          0.943964,
          0.694627,
          -1.03536,
          0.917031,
          1.00579,
          -1.00455,
          0.480542,
          0.492744,
          -0.968505,
          0.435286,
          1.08404,
          -0.16849,
          1.31272,
          0.377952,
          -0.129346,
          1.28174,
          1.04817,
          0.421117,
          0.639289,
          0.188981,
          0.52854,
          0.628757,
          0.824705,
          0.471332,
          0.421838,
          0.327627,
          0.391488,
          0.487297,
          0.89097,
          0.887751,
          0.436578,
          0.500105,
          0.909467,
          0.44979,
          0.810577,
          1.00224,
          -0.244432,
          0.410939,
          1.00282,
          -0.231404,
          0.685966,
          1.38169,
          -0.616134,
          0.379687,
          1.40109,
          -0.607859
        ],
        "factor_scale": [
          15360,
          15360,
          15360,
          15360,
          15360,
          15360,
          15360,
          15360,
          15360,
          15360,
          15360,
          15360,
          15360,
          15360,
          15360,
          15360,
          15360,
          15360,
          15360,
          15360,
          15360,
          15360,
          15360,
          15360,
          15360,
          15360,
          15360,
          15360,
          15360,
          15360,
          15360,
          15360,
          15360,
          15360,
          15360,
          15360,
          15360,
          15360,
          15360,
          15360,
          15360,
          15360,
          15360,
          15360,
          15360,
          15360,
          15360,
          15360,
          15360,
          15360,
          15360
        ],
        "coef_dtype": 1,
        "coef_acc": [5,10,15],
        "input_dtype": 1,
        "input_acc": [5,10,15],
        "output_dtype": 1,
        "output_acc": [5,10,15]
      }
    },
    {
      "param": {
        "num_channel": 51
      },
      "data": {
        "coef": [
          0.243642,
          0.251749,
          1.86923,
          0.241985,
          0.251009,
          1.93821,
          0.245694,
          0.250603,
          1.93934,
          0.269805,
          0.265044,
          1.97878,
          0.284748,
          0.265686,
          2.07218,
          0.297704,
          0.31153,
          1.77448,
          0.306399,
          0.317194,
          1.80621,
          0.349963,
          0.388176,
          1.71075,
          0.367174,
          0.376546,
          1.73651,
          0.442181,
          0.418182,
          1.55543,
          0.445676,
          0.452538,
          1.59503,
          0.345908,
          0.387746,
          1.68449,
          0.362047,
          0.385153,
          1.66098,
          0.410093,
          0.391349,
          1.75334,
          0.417874,
          0.395591,
          1.72099,
          0.500739,
          0.410466,
          2.07241,
          0.503203,
          0.410189,
          2.05346
        ],
        "bias": [
          0,
          0,
          0,
          0,
          0,
          0,
          0,
          0,
          0,
          0,
          0,
          0,
          0,
          0,
          0,
          0,
          0,
          0,
          0,
          0,
          0,
          0,
          0,
          0,
          0,
          0,
          0,
          0,
          0,
          0,
          0,
          0,
          0,
          0,
          0,
          0,
          0,
          0,
          0,
          0,
          0,
          0,
          0,
          0,
          0,
          0,
          0,
          0,
          0,
          0,
          0
        ],
        "coef_scale": [
          1,
          1,
          1,
          1,
          1,
          1,
          1,
          1,
          1,
          1,
          1,
          1,
          1,
          1,
          1,
          1,
          1,
          1,
          1,
          1,
          1,
          1,
          1,
          1,
          1,
          1,
          1,
          1,
          1,
          1,
          1,
          1,
          1,
          1,
          1,
          1,
          1,
          1,
          1,
          1,
          1,
          1,
          1,
          1,
          1,
          1,
          1,
          1,
          1,
          1,
          1
        ],
        "coef_zero_point": [
          0,
          0,
          0,
          0,
          0,
          0,
          0,
          0,
          0,
          0,
          0,
          0,
          0,
          0,
          0,
          0,
          0,
          0,
          0,
          0,
          0,
          0,
          0,
          0,
          0,
          0,
          0,
          0,
          0,
          0,
          0,
          0,
          0,
          0,
          0,
          0,
          0,
          0,
          0,
          0,
          0,
          0,
          0,
          0,
          0,
          0,
          0,
          0,
          0,
          0,
          0
        ],
        "bias_scale": [
          1,
          1,
          1,
          1,
          1,
          1,
          1,
          1,
          1,
          1,
          1,
          1,
          1,
          1,
          1,
          1,
          1,
          1,
          1,
          1,
          1,
          1,
          1,
          1,
          1,
          1,
          1,
          1,
          1,
          1,
          1,
          1,
          1,
          1,
          1,
          1,
          1,
          1,
          1,
          1,
          1,
          1,
          1,
          1,
          1,
          1,
          1,
          1,
          1,
          1,
          1
        ],
        "bias_zero_point": [
          0,
          0,
          0,
          0,
          0,
          0,
          0,
          0,
          0,
          0,
          0,
          0,
          0,
          0,
          0,
          0,
          0,
          0,
          0,
          0,
          0,
          0,
          0,
          0,
          0,
          0,
          0,
          0,
          0,
          0,
          0,
          0,
          0,
          0,
          0,
          0,
          0,
          0,
          0,
          0,
          0,
          0,
          0,
          0,
          0,
          0,
          0,
          0,
          0,
          0,
          0
        ],
        "input_scale": [
          1,
          1,
          1,
          1,
          1,
          1,
          1,
          1,
          1,
          1,
          1,
          1,
          1,
          1,
          1,
          1,
          1,
          1,
          1,
          1,
          1,
          1,
          1,
          1,
          1,
          1,
          1,
          1,
          1,
          1,
          1,
          1,
          1,
          1,
          1,
          1,
          1,
          1,
          1,
          1,
          1,
          1,
          1,
          1,
          1,
          1,
          1,
          1,
          1,
          1,
          1
        ],
        "input_zero_point": [
          0,
          0,
          0,
          0,
          0,
          0,
          0,
          0,
          0,
          0,
          0,
          0,
          0,
          0,
          0,
          0,
          0,
          0,
          0,
          0,
          0,
          0,
          0,
          0,
          0,
          0,
          0,
          0,
          0,
          0,
          0,
          0,
          0,
          0,
          0,
          0,
          0,
          0,
          0,
          0,
          0,
          0,
          0,
          0,
          0,
          0,
          0,
          0,
          0,
          0,
          0
        ],
        "output_scale": [
          1,
          1,
          1,
          1,
          1,
          1,
          1,
          1,
          1,
          1,
          1,
          1,
          1,
          1,
          1,
          1,
          1,
          1,
          1,
          1,
          1,
          1,
          1,
          1,
          1,
          1,
          1,
          1,
          1,
          1,
          1,
          1,
          1,
          1,
          1,
          1,
          1,
          1,
          1,
          1,
          1,
          1,
          1,
          1,
          1,
          1,
          1,
          1,
          1,
          1,
          1
        ],
        "output_zero_point": [
          0,
          0,
          0,
          0,
          0,
          0,
          0,
          0,
          0,
          0,
          0,
          0,
          0,
          0,
          0,
          0,
          0,
          0,
          0,
          0,
          0,
          0,
          0,
          0,
          0,
          0,
          0,
          0,
          0,
          0,
          0,
          0,
          0,
          0,
          0,
          0,
          0,
          0,
          0,
          0,
          0,
          0,
          0,
          0,
          0,
          0,
          0,
          0,
          0,
          0,
          0
        ],
        "input_dtype": 1,
        "input_acc": [5,10,15]
      },
      "inst_name": "/model/person/head_module/kpt_pred.2/kpt_pred.2.4/Mul",
      "type_name": "Bn",
      "bottom": [
        "2Fmodel2Fperson2Fhead_module2Fkpt_pred2E22Fkpt_pred2E22E32FConv_output_0"
      ],
      "top": [
        "2Fmodel2Fperson2Fhead_module2Fkpt_pred2E22Fkpt_pred2E22E42FMul_output_0"
      ],
      "hw": 1,
      "hw_acc": [5,10,15]
    }
  ]
}