{
  "name": "graph_aic",
  "input_tensor": [
    "2Fmodel2Fperson2Fhead_module2Fkpt_pred2E22Fkpt_pred2E22E02Fpointwise_conv2Fconv2FConv_output_0",
    "2Fmodel2Fperson2Fhead_module2Fkpt_pred2E22Fkpt_pred2E22E02Fpointwise_conv2Factivate2FSigmoid_output_0"
  ],
  "input_shape": [
    {
      "dim": [1,64,13,13],
      "dtype": "f16",
      "pack": 0
    },
    {
      "dim": [1,64,13,13],
      "dtype": "f16",
      "pack": 0
    }
  ],
  "output_tensor": [
    "2Fmodel2Fperson2Fhead_module2Fkpt_pred2E22Fkpt_pred2E22E12Fdepthwise_conv2Fconv2FConv_output_0"
  ],
  "output_shape": [
    {
      "dim": [1,64,13,13],
      "dtype": "f16",
      "pack": 0
    }
  ],
  "layer": [
    {
      "param": {
        "operation": 2,
        "num_channel": 64,
        "src_mode": "ONLINE",
        "brc_mode": "CHW"
      },
      "data": {
        "input0_dtype": 1,
        "input0_acc": [5,10,15],
        "input1_dtype": 1,
        "input1_acc": [5,10,15],
        "output_dtype": 1,
        "output_acc": [5,10,15],
        "coef": []
      },
      "inst_name": "/model/person/head_module/kpt_pred.2/kpt_pred.2.0/pointwise_conv/activate/Mul",
      "type_name": "Eltwise3",
      "bottom": [
        "2Fmodel2Fperson2Fhead_module2Fkpt_pred2E22Fkpt_pred2E22E02Fpointwise_conv2Fconv2FConv_output_0",
        "2Fmodel2Fperson2Fhead_module2Fkpt_pred2E22Fkpt_pred2E22E02Fpointwise_conv2Factivate2FSigmoid_output_0"
      ],
      "top": [
        "2Fmodel2Fperson2Fhead_module2Fkpt_pred2E22Fkpt_pred2E22E02Fpointwise_conv2Factivate2FMul_output_0"
      ],
      "hw": 1,
      "hw_acc": [5,10,15]
    },
    {
      "inst_name": "/model/person/head_module/kpt_pred.2/kpt_pred.2.1/depthwise_conv/conv/Conv_im_0",
      "type_name": "Wino2d",
      "bottom": [
        "2Fmodel2Fperson2Fhead_module2Fkpt_pred2E22Fkpt_pred2E22E02Fpointwise_conv2Factivate2FMul_output_0"
      ],
      "top": [
        "2Fmodel2Fperson2Fhead_module2Fkpt_pred2E22Fkpt_pred2E22E12Fdepthwise_conv2Fconv2FConv_output_0"
      ],
      "hw": 1,
      "hw_acc": [5,10,15],
      "param": {
        "num_output": 64,
        "bias_term": 1,
        "group": 64,
        "pad_h": 1,
        "pad_w": 1,
        "kernel_h": 3,
        "kernel_w": 3,
        "stride_h": 1,
        "stride_w": 1,
        "dilation_h": 1,
        "dilation_w": 1,
        "num_input": 64,
        "padding_mode": 0
      },
      "data": {
        "coef": [
          -0.160964,
          0.542743,
          0.920261,
          -0.00518088,
          4.77287,
          2.01953,
          -0.136664,
          1.23198,
          1.85938,
          -0.0708355,
          -0.107351,
          -0.144346,
          -0.134394,
          -0.675244,
          -0.296115,
          0.0438887,
          -1.66396,
          0.030449,
          -0.302026,
          -0.455019,
          -0.299783,
          -0.0909249,
          0.162116,
          -0.0761745,
          -0.281396,
          -0.431089,
          -0.252256,
          0.00304884,
          5.21737,
          -0.00199629,
          0.00263387,
          -1.34296,
          -0.0391773,
          -0.00220389,
          -0.366976,
          0.0288497,
          -0.123955,
          -0.13774,
          0.277402,
          -0.302258,
          3.77141,
          1.47959,
          -0.145082,
          0.541397,
          1.16969,
          -0.0293197,
          -0.0155608,
          -0.0275884,
          -0.0276881,
          -1.85537,
          -0.0237456,
          0.0336269,
          -0.0224147,
          0.00111495,
          0.10607,
          0.00172078,
          0.00278375,
          0.706406,
          -0.00221477,
          0.000561158,
          0.0514127,
          0.00223842,
          0.000453751,
          -0.371181,
          0.123804,
          0.000494024,
          -0.297371,
          -1.52032,
          0.00750278,
          -0.153988,
          0.00334144,
          -0.00659617,
          0.0232995,
          0.706358,
          0.0320964,
          -0.0189313,
          -0.4014,
          -0.0188299,
          -0.021334,
          -0.140911,
          -0.00521866,
          -0.119963,
          -1.02083,
          -3.52568,
          0.0641053,
          0.636741,
          1.47086,
          0.015709,
          1.15467,
          2.07727,
          0.252762,
          0.331115,
          0.239532,
          -0.0712275,
          1.11852,
          -0.0786778,
          -0.0443055,
          -0.0288346,
          -0.017932,
          -0.14278,
          -0.163511,
          -0.129186,
          -0.0390838,
          0.100497,
          -0.044044,
          -0.127016,
          -0.176191,
          -0.102965,
          -0.0118688,
          -0.113298,
          -0.0232175,
          -0.00801958,
          -0.121276,
          0.0116304,
          -0.0161459,
          -0.167063,
          -0.0300831,
          -0.0125562,
          -0.356565,
          0.75678,
          0.0364269,
          -2.86467,
          1.05775,
          0.0197611,
          -0.109419,
          0.224287,
          -0.179173,
          -0.284861,
          -0.207833,
          -0.0622575,
          0.0575895,
          -0.053013,
          -0.164434,
          -0.241976,
          -0.172139,
          0.0238502,
          -0.094107,
          0.0504994,
          0.0717759,
          5.84121,
          0.10798,
          -0.122866,
          0.0717632,
          0.0242135,
          -0.314798,
          -0.46511,
          -0.306491,
          -0.0767955,
          0.177427,
          -0.0783514,
          -0.288947,
          -0.446074,
          -0.264865,
          5.52455,
          -1.20629,
          -0.274362,
          8.77837,
          -12.9288,
          -0.89018,
          5.13076,
          -6.01843,
          -1.07736,
          0.308028,
          -0.926483,
          -0.319649,
          0.880559,
          -7.6378,
          -0.0734367,
          0.401288,
          -0.763236,
          -0.26545,
          0.135552,
          0.197463,
          0.147762,
          0.0371425,
          -0.120404,
          0.0908394,
          0.116949,
          0.204304,
          0.129579,
          -0.00685134,
          0.029299,
          -0.00755038,
          0.00168351,
          -1.09108,
          -0.00463281,
          -0.0424455,
          -1.17672,
          -0.0454588,
          -0.0559883,
          -0.0824441,
          -0.0458472,
          -0.0374429,
          0.0175271,
          -0.0335299,
          -0.0566819,
          -0.0798861,
          -0.040512,
          -0.00375531,
          1.27043,
          0.474425,
          -0.109629,
          -12.9276,
          0.300925,
          -0.0409436,
          -0.0326181,
          -0.155523,
          -0.0658818,
          -0.00238159,
          0.00953818,
          -0.105138,
          -1.07488,
          0.00609458,
          -0.0469451,
          0.146671,
          0.00575084,
          0.108764,
          -0.737534,
          -0.440635,
          0.645685,
          -10.3103,
          -0.208677,
          -0.0512355,
          -3.34507,
          0.479843,
          0.600606,
          1.15488,
          0.513937,
          0.250623,
          6.21473,
          0.0883435,
          0.76371,
          1.26638,
          0.609962,
          0.00657712,
          0.316191,
          0.0359706,
          0.0887157,
          16.5144,
          0.114452,
          -0.27985,
          -0.141615,
          -0.213577,
          0.323983,
          0.476712,
          0.331562,
          0.0776054,
          -0.191404,
          0.0731457,
          0.30261,
          0.444834,
          0.296167,
          -0.00490939,
          -0.459357,
          0.136139,
          -0.503323,
          12.9225,
          0.723731,
          0.548526,
          2.95013,
          1.1959,
          -0.221334,
          0.0244147,
          0.196752,
          -0.13198,
          9.79839,
          0.348963,
          -0.123386,
          0.635087,
          0.116245,
          -0.143995,
          -0.225862,
          -0.153998,
          -0.0212999,
          0.134758,
          -0.0129984,
          -0.168238,
          -0.241315,
          -0.174682,
          0.162527,
          0.241172,
          0.174366,
          0.0411769,
          -0.0664352,
          0.046619,
          0.173244,
          0.251034,
          0.170808,
          0.630991,
          -1.64841,
          -2.93186,
          0.497764,
          -8.2232,
          0.0991479,
          0.945666,
          -3.83303,
          -5.61793,
          -0.00372638,
          -0.831696,
          -0.010235,
          0.000943485,
          -0.867594,
          -0.00894644,
          0.0152847,
          -0.0928997,
          0.00480656,
          -0.294063,
          -0.405022,
          -0.274641,
          -0.086896,
          0.152839,
          -0.0863195,
          -0.290881,
          -0.406821,
          -0.24212,
          -0.197755,
          -0.0367169,
          -0.125506,
          0.0166587,
          -5.28721,
          0.149692,
          -0.306117,
          -1.30588,
          -0.112741,
          0.0271454,
          0.00023341,
          -0.00315943,
          0.190895,
          -0.0113096,
          -0.00272966,
          0.0498264,
          0.00142267,
          -0.00169112,
          -0.00648546,
          -0.182256,
          0.0219126,
          0.025299,
          0.823476,
          0.0047284,
          0.0622266,
          0.242164,
          0.0556013,
          0.0192359,
          -0.0755426,
          -0.00124343,
          -0.128819,
          -1.19822,
          -0.118593,
          0.370617,
          7.93801,
          0.119957,
          0.166622,
          -28.8131,
          -0.29914,
          0.106297,
          6.42451,
          0.104934,
          0.0692251,
          1.71152,
          -0.0964896,
          -0.00105946,
          9.4165,
          0.33912,
          0.0114382,
          -3.14072,
          -0.101509,
          -0.21134,
          -0.886417,
          -0.309105,
          -0.0474952,
          -0.0346938,
          -0.00826615,
          -0.0644926,
          -1.79639,
          -0.0584462,
          -0.0315465,
          -0.319553,
          -0.117948,
          -0.00164734,
          -0.0655654,
          -0.0020572,
          -0.00545984,
          -1.18975,
          -0.00263083,
          -0.00236836,
          -0.0116009,
          -0.0014432,
          -0.260313,
          -0.391228,
          -0.267328,
          -0.0621439,
          0.175067,
          -0.0503356,
          -0.236176,
          -0.367337,
          -0.222564,
          -0.00429648,
          -0.0312818,
          -0.0238874,
          0.0301102,
          -0.140368,
          0.0510601,
          0.0765393,
          3.99287,
          -0.00984604,
          0.00203064,
          0.00217421,
          0.00440634,
          0.00327826,
          -0.00861899,
          0.000585462,
          0.0025377,
          1.29667,
          -0.000868404,
          -0.00545494,
          -0.011882,
          -0.00344143,
          0.00907018,
          -0.0830569,
          0.0117346,
          0.114652,
          4.79185,
          0.10358,
          0.989727,
          4.47937,
          1.4504,
          0.0330801,
          15.7802,
          0.166554,
          -0.5062,
          -4.43977,
          0.0530871,
          0.0347932,
          0.195093,
          0.0489435,
          -0.0405425,
          -0.045098,
          0.0382544,
          0.0284469,
          0.234943,
          0.0387613,
          -1.2188,
          0.0606537,
          0.0728673,
          -21.4523,
          0.220305,
          0.115688,
          -2.25183,
          -0.228868,
          0.0229629,
          -0.21708,
          -0.361753,
          -0.245813,
          -0.0829603,
          0.164542,
          -0.0862484,
          -0.269791,
          -0.425126,
          -0.273582,
          -0.152083,
          0.280222,
          0.202621,
          -0.0576551,
          6.94503,
          0.720092,
          -0.0584951,
          0.624679,
          0.250891,
          -0.0289871,
          -0.290579,
          0.242875,
          -0.0274922,
          -0.64342,
          0.683961,
          -0.0238648,
          -0.187445,
          0.223532,
          -0.305745,
          -0.42976,
          -0.291072,
          -0.124892,
          0.108079,
          -0.102999,
          -0.299444,
          -0.429209,
          -0.260777,
          -0.0145568,
          -0.130285,
          -0.00244491,
          -0.0137897,
          -0.078651,
          -0.00290422,
          -0.0152469,
          -0.12043,
          -0.00544681,
          0.0705684,
          0.603621,
          6.74918,
          -0.00630738,
          1.60701,
          6.73004,
          0.0362349,
          -0.0492498,
          1.05627,
          -0.040332,
          0.800422,
          0.249586,
          0.427049,
          4.08737,
          0.578077,
          0.451892,
          2.21206,
          0.644584,
          0.497469,
          -0.0350389,
          0.0864174,
          5.79747,
          0.246525,
          0.036171,
          1.90146,
          -0.149427,
          0.0382465,
          0.123341,
          11.5599,
          0.302568,
          -0.0826794,
          -2.61485,
          -0.202443,
          -0.0238191,
          -0.517228,
          -0.0494658,
          -0.0113144,
          -0.076712,
          -0.0277547,
          0.00675853,
          -0.131615,
          -0.0111288,
          -0.000486907,
          -0.195661,
          -0.00212816,
          0.209671,
          -0.00942573,
          -0.00768593,
          2.889,
          -0.0318031,
          -0.00960748,
          0.579904,
          -0.0313605,
          -0.0068197,
          0.0279019,
          0.637254,
          0.0160341,
          0.00581197,
          -0.273478,
          0.00921801,
          -0.0275604,
          -0.115641,
          -0.0152533,
          -0.0504478,
          41.5954,
          -0.00179504,
          -0.151214,
          -2.23057,
          -0.207311,
          0.0355121,
          -0.269396,
          0.00319042,
          -0.785014,
          -16.9316,
          -0.386097,
          0.542191,
          10.6948,
          0.687126,
          0.296712,
          2.44823,
          -0.0783247
        ],
        "bias": [
          0.556357,
          1.10788,
          1.1934,
          -1.40739,
          -0.1565,
          0.0937455,
          -0.185282,
          0.0890261,
          -1.09258,
          -1.16351,
          -1.8292,
          1.18607,
          0.87198,
          0.952843,
          0.722956,
          0.674054,
          1.04051,
          -0.801188,
          -0.64539,
          3.7221,
          1.36241,
          0.903883,
          0.391331,
          -0.0689526,
          -0.663208,
          0.869558,
          -2.7033,
          3.25674,
          1.08283,
          0.784707,
          0.787182,
          3.32066,
          0.0277653,
          1.28002,
          0.939667,
          0.8375,
          -1.26182,
          -1.22793,
          -1.61005,
          -1.11908,
          -1.07914,
          1.54995,
          2.03211,
          1.08257,
          -0.822028,
          -2.09723,
          -1.03005,
          -0.873851,
          4.07972,
          -0.270952,
          0.662476,
          1.34607,
          -1.04052,
          0.750527,
          0.645278,
          0.355607,
          3.8779,
          -1.46294,
          -0.61243,
          0.415742,
          -0.260202,
          -0.931157,
          -0.646281,
          -1.02574
        ],
        "factor_scale": [
          15360,
          15360,
          15360,
          15360,
          15360,
          15360,
          15360,
          15360,
          15360,
          15360,
          15360,
          15360,
          15360,
          15360,
          15360,
          15360,
          15360,
          15360,
          15360,
          15360,
          15360,
          15360,
          15360,
          15360,
          15360,
          15360,
          15360,
          15360,
          15360,
          15360,
          15360,
          15360,
          15360,
          15360,
          15360,
          15360,
          15360,
          15360,
          15360,
          15360,
          15360,
          15360,
          15360,
          15360,
          15360,
          15360,
          15360,
          15360,
          15360,
          15360,
          15360,
          15360,
          15360,
          15360,
          15360,
          15360,
          15360,
          15360,
          15360,
          15360,
          15360,
          15360,
          15360,
          15360
        ],
        "coef_dtype": 1,
        "coef_acc": [5,10,15],
        "input_dtype": 1,
        "input_acc": [5,10,15],
        "output_dtype": 1,
        "output_acc": [5,10,15]
      }
    }
  ]
}