{
  "name": "graph_aic",
  "input_tensor": [
    "2Fmodel2Fneck2Fout_convs2E12Fcna2Factivate2FRelu_output_0"
  ],
  "input_shape": [
    {
      "dim": [1,64,26,26],
      "dtype": "f16",
      "pack": 0
    }
  ],
  "output_tensor": [
    "2Fmodel2Fface2Fhead_module2FExp_1_output_0"
  ],
  "output_shape": [
    {
      "dim": [1,4,26,26],
      "dtype": "f16",
      "pack": 0
    }
  ],
  "layer": [
    {
      "inst_name": "/model/face/head_module/bbox_pred.1/Conv_im_0",
      "type_name": "Conv2d",
      "bottom": [
        "2Fmodel2Fneck2Fout_convs2E12Fcna2Factivate2FRelu_output_0"
      ],
      "top": [
        "2Fmodel2Fface2Fhead_module2Fbbox_pred2E12FConv_output_0"
      ],
      "hw": 1,
      "hw_acc": [5,10,15],
      "param": {
        "num_output": 4,
        "bias_term": 1,
        "group": 1,
        "pad_h": 0,
        "pad_w": 0,
        "kernel_h": 1,
        "kernel_w": 1,
        "stride_h": 1,
        "stride_w": 1,
        "dilation_h": 1,
        "dilation_w": 1,
        "num_input": 64,
        "padding_mode": 0
      },
      "data": {
        "coef": [
          0.00349995,
          -0.324513,
          0.00738879,
          -0.0426306,
          0.0139935,
          0.0496937,
          0.171852,
          -0.0218483,
          -0.0605477,
          -0.536388,
          -0.0142954,
          0.0137659,
          -0.0159685,
          -0.0047028,
          0.188062,
          -0.0289283,
          -0.723168,
          -0.0764779,
          -0.0026737,
          0.251235,
          0.0253182,
          -0.00838986,
          0.149731,
          -0.00939083,
          0.0160026,
          0.0133949,
          0.00252918,
          -0.0173706,
          -0.00397085,
          0.0288068,
          0.103985,
          0.00389393,
          -0.124879,
          0.00427335,
          -0.0653454,
          0.0416642,
          -0.00522616,
          -0.476114,
          -0.0120944,
          0.00290697,
          0.00801037,
          0.0102723,
          0.344103,
          -0.021782,
          -0.0349656,
          -0.822976,
          0.0108457,
          -0.302004,
          -0.0103593,
          -0.0440451,
          -0.0121487,
          -0.0527785,
          0.0175298,
          -0.0105695,
          0.00597797,
          0.000702187,
          -0.00897193,
          -0.0138416,
          -0.0199668,
          0.0341922,
          -0.363714,
          -0.996259,
          0.00013543,
          -0.232003,
          0.000856574,
          0.00873274,
          0.00249578,
          -0.409115,
          0.00954661,
          -0.242378,
          0.14375,
          -0.601489,
          -0.0126889,
          -0.0177274,
          -0.00631826,
          -0.00201193,
          -0.33172,
          -0.0136516,
          0.0534157,
          -0.0094101,
          -0.0355224,
          0.0271347,
          -0.00139682,
          0.0108986,
          -0.0993622,
          0.00875134,
          -0.0783068,
          0.0568815,
          0.0072078,
          0.159673,
          -0.0114035,
          0.00782581,
          -0.00895585,
          0.0585833,
          -0.0206515,
          0.000655501,
          0.018,
          -0.0049875,
          -0.0035556,
          0.316403,
          -0.00612298,
          -0.00114688,
          -0.335015,
          0.00224317,
          0.0150666,
          0.0530695,
          0.477958,
          -0.0362506,
          -1.11258,
          0.00864768,
          0.00908077,
          -0.00775444,
          -0.338292,
          -0.314426,
          -0.0135558,
          0.00164559,
          0.00847337,
          -0.0418754,
          0.0498922,
          0.197396,
          -0.0050487,
          -0.0217007,
          -0.00923516,
          0.000834218,
          -0.0049004,
          -0.0269909,
          -0.618063,
          -0.0135794,
          0.0169274,
          -0.0109411,
          0.0469416,
          -0.0472883,
          0.00793134,
          0.00618247,
          0.26148,
          -0.0158484,
          -0.0653129,
          -0.0227948,
          -0.351085,
          -0.000253449,
          -0.0230182,
          -0.361694,
          -0.28114,
          -0.0313804,
          0.0431557,
          -0.370064,
          -0.000329578,
          0.00821211,
          -0.243204,
          -0.272641,
          -0.0269643,
          -0.00233576,
          0.285012,
          -0.00502263,
          0.00797003,
          0.130517,
          -0.00916933,
          0.0239211,
          0.215321,
          -0.283602,
          0.0321599,
          -0.00654736,
          -0.0130888,
          0.0498032,
          -0.00489708,
          -0.00805869,
          -0.0125832,
          0.00296316,
          0.0060144,
          -0.0991853,
          0.239615,
          0.0189356,
          -0.0360409,
          0.00909781,
          0.0151299,
          -0.00575892,
          -0.0116112,
          -0.0538012,
          -0.462842,
          0.206415,
          -0.017888,
          -1.01261,
          0.0113883,
          -0.00184191,
          -0.021682,
          -0.535466,
          -0.00315802,
          0.0407442,
          -0.000374778,
          -0.00999736,
          -0.000139622,
          -0.0176646,
          0.0027591,
          -0.00576283,
          0.00179006,
          -0.00987446,
          0.265202,
          0.0300732,
          0.0740295,
          -0.00215424,
          -0.883965,
          -0.0213494,
          -0.00309435,
          -0.0307733,
          -0.00759888,
          -0.00329293,
          -0.027504,
          -0.510839,
          -0.00254821,
          -0.13264,
          -0.00478171,
          0.0063562,
          -0.0351574,
          0.00683105,
          0.0383482,
          -0.0241794,
          0.00452392,
          0.00203803,
          0.00113882,
          0.0559497,
          -0.00586367,
          -0.00532259,
          -0.0846253,
          0.000673908,
          -0.0878172,
          -0.00241117,
          -0.437116,
          0.0103751,
          -0.00384199,
          -0.0831042,
          0.00629132,
          0.00108833,
          0.123233,
          -0.0813252,
          0.112906,
          -0.0559596,
          -0.00912496,
          -0.0018895,
          -0.100931,
          -0.0076768,
          -0.000475634,
          -0.0185873,
          -0.0303548,
          -0.0478838,
          -0.0128399,
          -0.0159141,
          0.0104572,
          0.0243873,
          -0.363059,
          -0.0120402,
          -0.000654463,
          -0.00898983,
          -0.00303706,
          -0.0131358,
          -0.00299169,
          -0.0478292
        ],
        "bias": [0.740517,0.887727,0.384193,0.839495],
        "factor_scale": [15360,15360,15360,15360],
        "coef_dtype": 1,
        "coef_acc": [5,10,15],
        "input_dtype": 1,
        "input_acc": [5,10,15],
        "output_dtype": 1,
        "output_acc": [5,10,15]
      }
    },
    {
      "inst_name": "/model/face/head_module/Exp_1",
      "type_name": "Activation4",
      "bottom": [
        "2Fmodel2Fface2Fhead_module2Fbbox_pred2E12FConv_output_0"
      ],
      "top": [
        "2Fmodel2Fface2Fhead_module2FExp_1_output_0"
      ],
      "hw": 1,
      "hw_acc": [5,10,15],
      "param": {
        "function": "exp_x",
        "coeff": 1,
        "coeff2": 1,
        "num_input": 4,
        "num_output": 4
      },
      "data": {
        "input_dtype": 1,
        "input_acc": [5,10,15],
        "output_dtype": 1,
        "output_acc": [5,10,15]
      }
    }
  ]
}