{
  "name": "graph_aic",
  "input_tensor": [
    "2Fmodel2Fneck2Fout_convs2E22Fcna2Factivate2FRelu_output_0"
  ],
  "input_shape": [
    {
      "dim": [1,64,13,13],
      "dtype": "f16",
      "pack": 0
    }
  ],
  "output_tensor": [
    "2Fmodel2Fperson2Fhead_module2FExp_2_output_0"
  ],
  "output_shape": [
    {
      "dim": [1,4,13,13],
      "dtype": "f16",
      "pack": 0
    }
  ],
  "layer": [
    {
      "inst_name": "/model/person/head_module/bbox_pred.2/Conv_im_0",
      "type_name": "Conv2d",
      "bottom": [
        "2Fmodel2Fneck2Fout_convs2E22Fcna2Factivate2FRelu_output_0"
      ],
      "top": [
        "2Fmodel2Fperson2Fhead_module2Fbbox_pred2E22FConv_output_0"
      ],
      "hw": 1,
      "hw_acc": [5,10,15],
      "param": {
        "num_output": 4,
        "bias_term": 1,
        "group": 1,
        "pad_h": 0,
        "pad_w": 0,
        "kernel_h": 1,
        "kernel_w": 1,
        "stride_h": 1,
        "stride_w": 1,
        "dilation_h": 1,
        "dilation_w": 1,
        "num_input": 64,
        "padding_mode": 0
      },
      "data": {
        "coef": [
          -0.0024549,
          0.00129759,
          0.00281776,
          0.000115828,
          -0.000635732,
          0.280156,
          -2.77165e-05,
          0.00724332,
          0.00117181,
          -0.649587,
          0.001351,
          -0.000158508,
          -0.000266302,
          0.00122572,
          -7.78571e-06,
          0.000315116,
          0.00934306,
          0.0098952,
          -0.00111766,
          0.000967936,
          0.00108048,
          -0.000191365,
          -0.461614,
          0.000957281,
          -0.000339357,
          -0.00215475,
          0.238995,
          0.00851347,
          0.00355091,
          -0.000160872,
          0.0125072,
          0.0001008,
          -0.000262221,
          -0.00262508,
          0.00140213,
          -0.00308441,
          -0.462311,
          0.00117067,
          0.00925878,
          0.000345881,
          0.000492426,
          0.00321468,
          0.00180645,
          0.00188025,
          -0.00445548,
          0.00658972,
          0.00055202,
          -0.00121408,
          0.310027,
          -0.00195014,
          -0.000622782,
          -0.00115033,
          -9.17298e-05,
          0.000916808,
          -6.4298e-05,
          0.00545883,
          -0.00380232,
          -0.000204642,
          0.00222323,
          -0.00470282,
          -7.5454e-05,
          -0.000388723,
          -0.000117042,
          0.00084191,
          0.000700354,
          0.00190052,
          0.000847985,
          -0.000561031,
          0.00115479,
          0.00120895,
          -0.00078664,
          0.00787724,
          -0.00337027,
          -2.05636e-05,
          0.00530013,
          0.00222823,
          -0.00167453,
          0.00542198,
          -0.00236764,
          0.000230243,
          0.0128695,
          0.00240534,
          -0.598605,
          0.00617165,
          0.000100937,
          0.294157,
          -0.00542727,
          -0.000276284,
          -0.00303403,
          -0.000692403,
          0.00109925,
          0.0296448,
          -0.0272747,
          -0.377225,
          0.01026,
          0.00478808,
          -0.00286976,
          -0.0243081,
          -0.0020274,
          0.00833677,
          -0.00251028,
          -0.000418239,
          -0.0193221,
          0.00245434,
          0.00063886,
          0.00250921,
          0.00612784,
          0.0209888,
          0.00633238,
          0.00452043,
          0.000879926,
          3.47283e-05,
          0.00498122,
          0.00279532,
          0.00372023,
          0.000647111,
          -0.00269403,
          -0.00126632,
          0.00187696,
          -0.00427904,
          -0.00186583,
          0.000146652,
          0.00743352,
          0.0214833,
          -0.00433037,
          -0.00198898,
          -0.000652296,
          -0.000836009,
          -0.00229272,
          0.00427865,
          0.00456491,
          -0.00102133,
          -0.00871187,
          0.00392791,
          -0.00256898,
          -0.00381472,
          0.000978318,
          -0.00142149,
          0.0069924,
          -0.000416687,
          -0.54944,
          -0.00903264,
          -0.00243624,
          0.000408548,
          0.0114956,
          0.0190391,
          -0.00502972,
          0.0107244,
          0.00417033,
          0.0092895,
          -0.00319553,
          0.00117409,
          -0.44403,
          0.00644943,
          0.00286944,
          0.0248875,
          -0.0187668,
          -0.00438079,
          0.0081519,
          0.306432,
          -0.362212,
          -0.00259964,
          0.0237614,
          0.0282471,
          -0.00300383,
          -0.00115818,
          -0.00965602,
          0.000305455,
          0.0382426,
          0.00610624,
          -0.00161175,
          0.00654451,
          0.0252127,
          0.00219888,
          -0.000763985,
          0.000439587,
          0.00943704,
          -0.000186837,
          0.283057,
          0.00230296,
          -0.000770736,
          -0.00528626,
          0.00354333,
          0.00411228,
          0.00482733,
          -0.00150866,
          -0.00131295,
          -0.0196167,
          -0.00152608,
          0.00280819,
          0.00118949,
          0.0130762,
          -0.00678353,
          0.00113419,
          0.0147466,
          -0.00319757,
          -0.00130316,
          -0.00133086,
          -0.00397762,
          -0.00505403,
          -0.00264098,
          -0.00289931,
          -0.000513862,
          -0.00148783,
          -0.000663786,
          0.00948241,
          -0.561776,
          -0.000596731,
          0.0181214,
          -0.0242495,
          -0.00501163,
          0.0101568,
          0.00446918,
          0.00321713,
          -0.00048569,
          -0.00225956,
          -0.000599271,
          -0.0177434,
          -0.00132489,
          0.0110841,
          0.0223823,
          -0.00339855,
          0.00477498,
          0.000166858,
          -0.000644829,
          0.011272,
          -0.000233738,
          -0.0154217,
          6.99343e-05,
          -0.000656849,
          -0.0198499,
          0.000800718,
          0.00834981,
          0.0265595,
          0.00163416,
          0.00685656,
          0.00446947,
          0.0144447,
          -0.000275722,
          -0.000861033,
          0.00388418,
          -0.00317588,
          0.00188963,
          -0.00746351,
          -0.409866,
          -0.000575669,
          0.289683,
          0.00541497,
          -0.00211862,
          -0.000714677,
          0.000437829,
          0.0120134,
          -0.012315,
          -0.00332118,
          9.02551e-07,
          -0.00292051
        ],
        "bias": [0.400794,1.05624,0.804345,0.789761],
        "factor_scale": [15360,15360,15360,15360],
        "coef_dtype": 1,
        "coef_acc": [5,10,15],
        "input_dtype": 1,
        "input_acc": [5,10,15],
        "output_dtype": 1,
        "output_acc": [5,10,15]
      }
    },
    {
      "inst_name": "/model/person/head_module/Exp_2",
      "type_name": "Activation4",
      "bottom": [
        "2Fmodel2Fperson2Fhead_module2Fbbox_pred2E22FConv_output_0"
      ],
      "top": [
        "2Fmodel2Fperson2Fhead_module2FExp_2_output_0"
      ],
      "hw": 1,
      "hw_acc": [5,10,15],
      "param": {
        "function": "exp_x",
        "coeff": 1,
        "coeff2": 1,
        "num_input": 4,
        "num_output": 4
      },
      "data": {
        "input_dtype": 1,
        "input_acc": [5,10,15],
        "output_dtype": 1,
        "output_acc": [5,10,15]
      }
    }
  ]
}