{
  "name": "graph_aic",
  "input_tensor": [
    "2Fmodel2Fneck2Fout_convs2E22Fcna2Factivate2FRelu_output_0"
  ],
  "input_shape": [
    {
      "dim": [1,64,13,13],
      "dtype": "f16",
      "pack": 0
    }
  ],
  "output_tensor": [
    "2Fmodel2Fhead2Fhead_module2FExp_2_output_0"
  ],
  "output_shape": [
    {
      "dim": [1,4,13,13],
      "dtype": "f16",
      "pack": 0
    }
  ],
  "layer": [
    {
      "inst_name": "/model/head/head_module/bbox_pred.2/Conv_im_0",
      "type_name": "Conv2d",
      "bottom": [
        "2Fmodel2Fneck2Fout_convs2E22Fcna2Factivate2FRelu_output_0"
      ],
      "top": [
        "2Fmodel2Fhead2Fhead_module2Fbbox_pred2E22FConv_output_0"
      ],
      "hw": 1,
      "hw_acc": [5,10,15],
      "param": {
        "num_output": 4,
        "bias_term": 1,
        "group": 1,
        "pad_h": 0,
        "pad_w": 0,
        "kernel_h": 1,
        "kernel_w": 1,
        "stride_h": 1,
        "stride_w": 1,
        "dilation_h": 1,
        "dilation_w": 1,
        "num_input": 64,
        "padding_mode": 0
      },
      "data": {
        "coef": [
          -0.00998007,
          0.00313336,
          -2.02181e-05,
          0.0131135,
          0.00447758,
          0.294378,
          -0.00137467,
          0.00722134,
          0.0169788,
          -0.64213,
          0.0195678,
          0.00346558,
          -0.000282953,
          -0.00454669,
          -0.00147117,
          7.68311e-05,
          -0.0213252,
          -0.00344689,
          2.43883e-05,
          -0.00448411,
          -0.000612735,
          0.00126463,
          -0.386709,
          0.0057201,
          -0.000376648,
          0.00830575,
          0.0628175,
          -0.0193859,
          0.00390345,
          -0.000334613,
          0.0562333,
          -9.43092e-06,
          -4.70164e-05,
          0.00653455,
          0.0105499,
          -0.0316222,
          -0.456115,
          -0.000224843,
          -0.0115101,
          -0.00477626,
          -0.0233223,
          -0.00933178,
          0.00533433,
          -0.00470217,
          0.0357482,
          -0.0248784,
          -0.000557089,
          -0.000206223,
          0.293088,
          -0.00301536,
          0.00222275,
          -0.00217253,
          -0.00205151,
          -0.0108666,
          0.00095182,
          -0.00318192,
          -0.0574748,
          0.000192217,
          -0.0105631,
          0.0355309,
          -0.0147506,
          -0.0620352,
          -0.000544886,
          -0.00463562,
          -0.0123793,
          -0.00161341,
          -0.00520454,
          -0.00586605,
          0.0113203,
          0.00548339,
          -0.00399356,
          0.0117039,
          0.000268862,
          0.00146749,
          0.00094444,
          0.00530163,
          -0.00154385,
          0.00242038,
          -0.00221337,
          -0.000151022,
          -0.00320786,
          0.0164282,
          -0.596106,
          0.00111519,
          -0.000280007,
          0.288847,
          -0.000249532,
          0.00140372,
          -0.00147643,
          0.0133522,
          0.00095383,
          0.0125349,
          -0.0342726,
          -0.377323,
          -0.00532064,
          0.00423565,
          -0.00170311,
          0.0144346,
          -0.0137352,
          -0.00258551,
          -0.00271612,
          5.54687e-05,
          -0.0202294,
          -0.00527682,
          -0.0118757,
          -0.00983068,
          0.0032917,
          0.0173183,
          0.011555,
          -0.00234109,
          0.00197721,
          -0.000151132,
          0.0029794,
          0.00386394,
          0.00218148,
          -0.00361794,
          -0.00326908,
          -0.00196223,
          0.00238627,
          -0.00173422,
          0.0164205,
          -0.000526851,
          0.00945157,
          0.0368631,
          -0.00130909,
          0.00412231,
          0.000284863,
          0.00450816,
          -0.0095245,
          0.0104361,
          -0.0204272,
          0.0104312,
          -0.00325196,
          0.00891348,
          -0.00508242,
          0.00672224,
          -0.0253167,
          -0.000967275,
          -0.0174423,
          0.00323226,
          -0.533785,
          -0.0102032,
          -0.00301203,
          0.000148895,
          0.0485318,
          -0.00690982,
          -0.00436071,
          -0.0116711,
          0.000393193,
          0.0112104,
          -0.0018707,
          -0.00500332,
          -0.447679,
          0.0109618,
          0.00223195,
          -0.00874556,
          0.0167372,
          -0.00510215,
          -0.0260695,
          0.30023,
          -0.359301,
          0.00301409,
          -0.0192454,
          0.0233957,
          -0.00370973,
          -0.00053626,
          0.0133344,
          -0.00187888,
          -0.00186323,
          0.00776933,
          -0.00242779,
          -0.00164455,
          -0.0144969,
          0.0221645,
          -0.00226097,
          0.00026878,
          0.00585778,
          -1.96567e-05,
          0.0569386,
          -0.00514909,
          -0.00245126,
          -0.00667709,
          0.00457574,
          -0.00105978,
          -0.0146225,
          -0.000290848,
          -0.00477908,
          0.0320785,
          -0.0112939,
          -0.0260675,
          -0.00133003,
          0.00717714,
          -0.0133877,
          -0.00198412,
          -0.0211577,
          -0.0488347,
          0.0106687,
          0.00646748,
          -0.0102499,
          0.0136954,
          -0.0186847,
          -0.00117918,
          0.00219695,
          -0.00828984,
          -0.00144356,
          0.00506471,
          -0.528146,
          0.000868249,
          -0.0401541,
          -0.0109984,
          -0.00523838,
          0.016064,
          4.79644e-05,
          0.00173659,
          -0.0170878,
          -0.00805645,
          -0.00130094,
          0.00185386,
          0.00453005,
          0.0167629,
          -0.0530027,
          -0.00237741,
          -0.0355389,
          0.00300875,
          -0.00205422,
          0.0155129,
          0.00301788,
          0.00366683,
          -7.71705e-05,
          -0.000258664,
          -0.03936,
          -0.0254438,
          -0.0262248,
          -0.0682591,
          -0.00070648,
          0.00554106,
          -0.0276596,
          -0.00226873,
          0.00356325,
          -0.00101184,
          0.00126579,
          -0.000364468,
          0.00309407,
          -0.0224606,
          -0.405125,
          -0.00932578,
          0.278668,
          -0.000378285,
          0.0399405,
          -0.000869043,
          0.00598559,
          0.060737,
          -0.000749142,
          -0.0756803,
          0.000421941,
          0.00618458
        ],
        "bias": [0.415041,1.05676,0.81843,0.823087],
        "factor_scale": [15360,15360,15360,15360],
        "coef_dtype": 1,
        "coef_acc": [5,10,15],
        "input_dtype": 1,
        "input_acc": [5,10,15],
        "output_dtype": 1,
        "output_acc": [5,10,15]
      }
    },
    {
      "inst_name": "/model/head/head_module/Exp_2",
      "type_name": "Activation4",
      "bottom": [
        "2Fmodel2Fhead2Fhead_module2Fbbox_pred2E22FConv_output_0"
      ],
      "top": [
        "2Fmodel2Fhead2Fhead_module2FExp_2_output_0"
      ],
      "hw": 1,
      "hw_acc": [5,10,15],
      "param": {
        "function": "exp_x",
        "coeff": 1,
        "coeff2": 1,
        "num_input": 4,
        "num_output": 4
      },
      "data": {
        "input_dtype": 1,
        "input_acc": [5,10,15],
        "output_dtype": 1,
        "output_acc": [5,10,15]
      }
    }
  ]
}