{
  "name": "graph_aic",
  "input_tensor": [
    "2Fmodel2Fperson2Fhead_module2Fkpt_pred2E12Fkpt_pred2E12E02Fpointwise_conv2Fconv2FConv_output_0",
    "2Fmodel2Fperson2Fhead_module2Fkpt_pred2E12Fkpt_pred2E12E02Fpointwise_conv2Factivate2FSigmoid_output_0"
  ],
  "input_shape": [
    {
      "dim": [1,64,26,26],
      "dtype": "f16",
      "pack": 0
    },
    {
      "dim": [1,64,26,26],
      "dtype": "f16",
      "pack": 0
    }
  ],
  "output_tensor": [
    "2Fmodel2Fperson2Fhead_module2Fkpt_pred2E12Fkpt_pred2E12E12Fdepthwise_conv2Fconv2FConv_output_0"
  ],
  "output_shape": [
    {
      "dim": [1,64,26,26],
      "dtype": "f16",
      "pack": 0
    }
  ],
  "layer": [
    {
      "param": {
        "operation": 2,
        "num_channel": 64,
        "src_mode": "ONLINE",
        "brc_mode": "CHW"
      },
      "data": {
        "input0_dtype": 1,
        "input0_acc": [5,10,15],
        "input1_dtype": 1,
        "input1_acc": [5,10,15],
        "output_dtype": 1,
        "output_acc": [5,10,15],
        "coef": []
      },
      "inst_name": "/model/person/head_module/kpt_pred.1/kpt_pred.1.0/pointwise_conv/activate/Mul",
      "type_name": "Eltwise3",
      "bottom": [
        "2Fmodel2Fperson2Fhead_module2Fkpt_pred2E12Fkpt_pred2E12E02Fpointwise_conv2Fconv2FConv_output_0",
        "2Fmodel2Fperson2Fhead_module2Fkpt_pred2E12Fkpt_pred2E12E02Fpointwise_conv2Factivate2FSigmoid_output_0"
      ],
      "top": [
        "2Fmodel2Fperson2Fhead_module2Fkpt_pred2E12Fkpt_pred2E12E02Fpointwise_conv2Factivate2FMul_output_0"
      ],
      "hw": 1,
      "hw_acc": [5,10,15]
    },
    {
      "inst_name": "/model/person/head_module/kpt_pred.1/kpt_pred.1.1/depthwise_conv/conv/Conv_im_0",
      "type_name": "Wino2d",
      "bottom": [
        "2Fmodel2Fperson2Fhead_module2Fkpt_pred2E12Fkpt_pred2E12E02Fpointwise_conv2Factivate2FMul_output_0"
      ],
      "top": [
        "2Fmodel2Fperson2Fhead_module2Fkpt_pred2E12Fkpt_pred2E12E12Fdepthwise_conv2Fconv2FConv_output_0"
      ],
      "hw": 1,
      "hw_acc": [5,10,15],
      "param": {
        "num_output": 64,
        "bias_term": 1,
        "group": 64,
        "pad_h": 1,
        "pad_w": 1,
        "kernel_h": 3,
        "kernel_w": 3,
        "stride_h": 1,
        "stride_w": 1,
        "dilation_h": 1,
        "dilation_w": 1,
        "num_input": 64,
        "padding_mode": 0
      },
      "data": {
        "coef": [
          -0.0147076,
          -0.0757329,
          -0.0102734,
          -0.00537022,
          -0.482751,
          -0.00241103,
          5.77274e-05,
          -0.0107216,
          0.00158926,
          0.183717,
          0.354903,
          0.192985,
          -0.275184,
          -0.682171,
          -0.250544,
          0.643787,
          11.3671,
          0.401774,
          0.153639,
          0.0841165,
          0.151905,
          0.125669,
          0.295404,
          0.109259,
          0.177038,
          0.377437,
          0.196759,
          0.0197006,
          0.0566568,
          0.0501243,
          0.00646383,
          0.344695,
          0.0782958,
          -0.0248204,
          0.116858,
          0.094315,
          -0.0205924,
          0.488789,
          0.189231,
          -0.0149239,
          9.36711,
          0.283611,
          0.0392864,
          1.18665,
          -0.0864754,
          -0.0641927,
          -0.0709487,
          -0.0430277,
          -0.0598091,
          -0.0411873,
          -0.0623042,
          -0.0601358,
          -0.109893,
          -0.0595524,
          -0.259687,
          -0.359059,
          0.0199701,
          -0.0235032,
          0.0108155,
          -0.0151004,
          -0.191463,
          -0.286328,
          0.0171001,
          -0.0616321,
          1.36402,
          -0.0104016,
          -0.022126,
          -0.879891,
          -0.039416,
          -0.0240979,
          0.170981,
          -0.00899208,
          -0.0174352,
          -0.381267,
          -0.0169482,
          -0.00977524,
          -0.64423,
          -0.00049096,
          0.000136107,
          -0.0137832,
          0.00133773,
          -0.112641,
          -0.890058,
          -0.0549421,
          -0.005548,
          -0.953988,
          -0.0627339,
          -0.17359,
          -0.753782,
          -0.111004,
          -0.711666,
          0.256233,
          0.0312706,
          -0.793831,
          0.186232,
          0.0160165,
          -0.390437,
          0.0191498,
          0.00759102,
          -2.30986,
          -2.70121,
          0.0474715,
          -1.98342,
          -4.22372,
          0.0496383,
          -4.20793,
          -3.64245,
          -0.213161,
          -0.0101808,
          -0.000439559,
          -0.0237071,
          -0.000763263,
          -0.232962,
          0.0079233,
          0.0246834,
          0.461296,
          -0.00163152,
          0.0784855,
          0.965523,
          -0.177923,
          0.0106238,
          6.59419,
          -0.140634,
          0.0698181,
          0.762435,
          -0.424592,
          -0.528113,
          -5.60293,
          -0.593037,
          -0.394749,
          -7.18355,
          -0.448206,
          -0.0782482,
          0.886819,
          0.0741315,
          0.00868115,
          0.265542,
          -0.00244204,
          -0.000979082,
          -0.935055,
          -0.0022882,
          -0.0104688,
          -0.263124,
          -0.0372812,
          -0.0180765,
          -0.112394,
          0.0093162,
          -0.00861758,
          -0.0394323,
          0.00347871,
          -0.016261,
          -0.101543,
          0.00472396,
          -0.556761,
          -0.796551,
          0.0409575,
          -0.335032,
          -0.339958,
          -0.0596048,
          -0.486426,
          -0.70285,
          0.0462808,
          0.0497512,
          0.353868,
          0.00585559,
          0.0541498,
          -1.66307,
          0.0196674,
          -0.0139843,
          -0.225475,
          0.00353092,
          0.329861,
          -0.306115,
          0.00837408,
          0.375603,
          -1.42928,
          0.0260849,
          0.127282,
          -0.015654,
          -0.00792063,
          -0.89009,
          -2.00992,
          -0.854502,
          -0.404709,
          0.0143814,
          -0.504624,
          -0.862941,
          -1.76877,
          -0.932977,
          -4.69957,
          -4.78684,
          -1.67582,
          -5.24832,
          -9.36463,
          -2.56426,
          -6.90074,
          -4.92395,
          -0.121276,
          -0.0213424,
          -0.0665147,
          0.00206553,
          -0.00965498,
          -0.202066,
          -0.0038493,
          -0.00466453,
          -0.0260306,
          -0.0010371,
          -0.350992,
          -0.465947,
          -0.0994693,
          -0.161422,
          -0.0822507,
          -0.109304,
          -0.355026,
          -0.492212,
          -0.104544,
          -0.0514704,
          -0.115487,
          -0.0642675,
          -0.0692513,
          -0.330191,
          -0.0640609,
          -0.108594,
          -0.23345,
          -0.12938,
          0.00979589,
          0.00342645,
          -0.000921461,
          0.00941223,
          -0.0498903,
          0.00992253,
          0.0215751,
          0.428378,
          0.0171613,
          -0.275958,
          -0.367142,
          0.0344415,
          -0.188992,
          -0.265273,
          -0.0368771,
          -0.246465,
          -0.350791,
          0.0396745,
          -0.0268667,
          0.0837983,
          0.00245894,
          -0.0175979,
          -1.02376,
          0.0145991,
          0.0105747,
          0.303328,
          0.03027,
          0.202743,
          -1.01118,
          -0.397916,
          0.125715,
          -2.61891,
          -0.29065,
          -0.0678526,
          -1.07053,
          -0.654161,
          0.173987,
          0.383092,
          0.14884,
          0.0913492,
          0.202775,
          0.0389282,
          0.199327,
          0.267929,
          0.129168,
          0.0296264,
          -1.05215,
          -0.0706933,
          0.0264788,
          -1.38713,
          -0.0921873,
          0.0270754,
          -0.154059,
          -0.0270795,
          -0.115759,
          -0.175444,
          0.00647325,
          -0.0390082,
          -0.0409678,
          -0.00713316,
          -0.0859142,
          -0.141166,
          0.00621297,
          -0.0725584,
          -0.258496,
          -0.138591,
          -0.0415114,
          -0.0301592,
          -0.0504281,
          -0.105996,
          -0.331134,
          -0.142436,
          -0.422529,
          -0.564709,
          -0.168238,
          -0.135632,
          -0.00843806,
          -0.127738,
          -0.346859,
          -0.471577,
          -0.174949,
          0.000254672,
          1.71563,
          -0.14864,
          -0.0457583,
          -2.73868,
          -0.119777,
          0.0319594,
          -0.30147,
          -0.0268593,
          -0.0459709,
          0.0235796,
          -0.0317653,
          -0.120155,
          -0.416794,
          -0.0727932,
          -0.138902,
          -1.24823,
          -0.100426,
          -5.25419,
          -0.654978,
          0.291997,
          -12.1106,
          1.34547,
          0.176995,
          -3.9729,
          -0.367715,
          0.118703,
          -0.046516,
          -0.0749097,
          -0.000841218,
          -0.0537119,
          -0.0567871,
          -0.00143481,
          -0.0576126,
          -0.0798159,
          -0.000974847,
          0.0597051,
          2.18462,
          0.485786,
          -0.0318034,
          -0.205431,
          -0.0443985,
          0.0125733,
          -0.00783267,
          0.0387166,
          0.0267936,
          0.631318,
          -0.634597,
          -0.00998169,
          3.58226,
          -1.30712,
          0.0203341,
          0.286389,
          -0.343539,
          -0.277975,
          -24.8848,
          -0.0369782,
          0.300833,
          -0.576901,
          0.126564,
          0.0400787,
          0.0386111,
          0.04355,
          0.545407,
          0.768281,
          0.283644,
          0.203945,
          0.0794482,
          0.194289,
          0.472403,
          0.616694,
          0.300255,
          -0.157575,
          -0.429342,
          -0.0172285,
          -0.0221686,
          -0.106228,
          -0.0415426,
          -0.175622,
          -0.430887,
          -0.0110348,
          -0.283861,
          -0.516158,
          -0.17975,
          -0.131753,
          -0.0685177,
          -0.13428,
          -0.258126,
          -0.51828,
          -0.175019,
          0.979216,
          7.46237,
          0.781011,
          0.52336,
          3.0204,
          -0.0779711,
          0.260783,
          -0.491913,
          -0.0457752,
          0.109472,
          -0.387797,
          0.195267,
          -0.676271,
          -5.80988,
          -0.0761938,
          -1.02194,
          -8.11862,
          -0.509471,
          0.121815,
          6.72858,
          0.320836,
          -0.171832,
          -0.220704,
          -0.21709,
          0.0156894,
          0.0322523,
          0.0182774,
          0.632142,
          4.96604,
          0.423673,
          -0.733525,
          16.5884,
          -0.450706,
          -0.449477,
          -4.05447,
          -0.246273,
          0.800737,
          0.951415,
          0.459428,
          0.1414,
          0.0203561,
          0.225329,
          0.957542,
          0.943652,
          0.494344,
          0.436922,
          0.591657,
          0.23553,
          0.131121,
          -0.0015077,
          0.13305,
          0.388392,
          0.491318,
          0.1893,
          0.0462279,
          0.651548,
          0.15212,
          0.0333833,
          2.19297,
          -0.01414,
          0.130366,
          0.597799,
          0.097217,
          -0.00053106,
          -0.00275926,
          0.00118248,
          0.024444,
          -0.000854953,
          0.0151323,
          0.136397,
          3.07216,
          0.13178,
          0.00545789,
          -0.0176283,
          -0.00078468,
          -0.00200813,
          -0.0102203,
          -0.0154657,
          0.0996466,
          0.36299,
          0.0852123,
          -0.250233,
          -0.43243,
          -0.171045,
          -0.13457,
          -0.0462145,
          -0.127999,
          -0.29216,
          -0.452849,
          -0.247226,
          -0.214473,
          -0.252454,
          -0.0750041,
          -0.038806,
          0.0679004,
          -0.0510457,
          -0.210711,
          -0.230313,
          -0.092497,
          -0.150655,
          0.708574,
          0.0109517,
          -0.179436,
          -2.16676,
          0.0469196,
          -0.0564796,
          -0.547573,
          0.0245838,
          -0.128229,
          -0.207769,
          -0.00795604,
          -0.0244701,
          -0.0246563,
          -0.0178559,
          -0.154479,
          -0.200384,
          -0.0177687,
          -0.262964,
          -0.442965,
          -0.0466499,
          -0.0930524,
          -0.0771011,
          -0.0341129,
          -0.327331,
          -0.535049,
          -0.0912408,
          0.675967,
          0.780629,
          0.307473,
          0.189146,
          0.0125944,
          0.133029,
          0.673625,
          0.741594,
          0.506222,
          -0.00499187,
          -0.0465307,
          0.00356749,
          -0.00675039,
          0.222856,
          0.0154669,
          0.0166072,
          0.166914,
          0.0129665,
          0.195914,
          1.01047,
          0.0379908,
          0.389024,
          10.5503,
          -0.0346627,
          0.105447,
          1.7999,
          0.0471624,
          0.0134414,
          -1.12356,
          -0.0737273,
          -0.125638,
          -8.45307,
          -0.26917,
          0.0485536,
          2.57773,
          0.0310261,
          -0.0109757,
          -0.104291,
          0.00502751,
          0.0375733,
          0.873907,
          0.0242823,
          -0.0077623,
          -0.0708215,
          -0.0170743,
          0.375421,
          -0.0386553,
          0.00673064,
          0.669059,
          0.280068,
          -0.0210198,
          0.156225,
          -0.0779641,
          0.00169148
        ],
        "bias": [
          1.55496,
          -0.187588,
          -1.30711,
          -1.68027,
          2.60047,
          1.54407,
          0.262381,
          -0.337062,
          1.71551,
          1.60582,
          0.729094,
          0.272328,
          -0.823738,
          0.32121,
          1.1398,
          1.12478,
          0.832321,
          0.668561,
          0.495695,
          1.52067,
          2.09497,
          -1.33158,
          0.981387,
          0.320917,
          2.07519,
          1.81592,
          -1.51695,
          0.743632,
          1.07692,
          1.53482,
          3.28828,
          1.10754,
          1.07955,
          1.34458,
          0.342717,
          1.18889,
          -0.42092,
          1.14578,
          -0.506044,
          -4.18743,
          -0.525146,
          3.49089,
          1.31391,
          0.398643,
          -0.440463,
          0.564749,
          -0.202257,
          -0.0683804,
          4.33963,
          3.45142,
          -3.43017,
          -0.0687173,
          -1.26911,
          0.464813,
          1.50453,
          0.377052,
          1.66742,
          0.462441,
          4.23434,
          -0.180137,
          3.2127,
          0.150124,
          -2.19186,
          -2.37486
        ],
        "factor_scale": [
          15360,
          15360,
          15360,
          15360,
          15360,
          15360,
          15360,
          15360,
          15360,
          15360,
          15360,
          15360,
          15360,
          15360,
          15360,
          15360,
          15360,
          15360,
          15360,
          15360,
          15360,
          15360,
          15360,
          15360,
          15360,
          15360,
          15360,
          15360,
          15360,
          15360,
          15360,
          15360,
          15360,
          15360,
          15360,
          15360,
          15360,
          15360,
          15360,
          15360,
          15360,
          15360,
          15360,
          15360,
          15360,
          15360,
          15360,
          15360,
          15360,
          15360,
          15360,
          15360,
          15360,
          15360,
          15360,
          15360,
          15360,
          15360,
          15360,
          15360,
          15360,
          15360,
          15360,
          15360
        ],
        "coef_dtype": 1,
        "coef_acc": [5,10,15],
        "input_dtype": 1,
        "input_acc": [5,10,15],
        "output_dtype": 1,
        "output_acc": [5,10,15]
      }
    }
  ]
}