{
  "name": "graph_aic",
  "input_tensor": [
    "2Fmodel2Fneck2Fout_convs2E02Fcna2Factivate2FRelu_output_0"
  ],
  "input_shape": [
    {
      "dim": [1,64,52,52],
      "dtype": "f16",
      "pack": 0
    }
  ],
  "output_tensor": [
    "2Fmodel2Fpet2Fhead_module2FExp_output_0"
  ],
  "output_shape": [
    {
      "dim": [1,4,52,52],
      "dtype": "f16",
      "pack": 0
    }
  ],
  "layer": [
    {
      "inst_name": "/model/pet/head_module/bbox_pred.0/Conv_im_0",
      "type_name": "Conv2d",
      "bottom": [
        "2Fmodel2Fneck2Fout_convs2E02Fcna2Factivate2FRelu_output_0"
      ],
      "top": [
        "2Fmodel2Fpet2Fhead_module2Fbbox_pred2E02FConv_output_0"
      ],
      "hw": 1,
      "hw_acc": [5,10,15],
      "param": {
        "num_output": 4,
        "bias_term": 1,
        "group": 1,
        "pad_h": 0,
        "pad_w": 0,
        "kernel_h": 1,
        "kernel_w": 1,
        "stride_h": 1,
        "stride_w": 1,
        "dilation_h": 1,
        "dilation_w": 1,
        "num_input": 64,
        "padding_mode": 0
      },
      "data": {
        "coef": [
          0.32986,
          0.0044882,
          0.0467264,
          0.00310957,
          -0.0265594,
          -0.022078,
          -0.00753636,
          -0.344159,
          0.00906798,
          -0.486822,
          0.0179253,
          -0.0212912,
          -0.00512597,
          -0.0600601,
          -0.00868887,
          -0.489242,
          -0.00954933,
          -0.00333801,
          0.00724008,
          -0.00524558,
          0.0880667,
          -0.0209793,
          0.069752,
          -0.0811995,
          0.387531,
          -0.00501566,
          0.0144694,
          -0.00166209,
          -0.0313444,
          -0.00739461,
          0.0161252,
          -0.297951,
          -0.019567,
          0.0533231,
          0.00398081,
          -0.0485783,
          -0.0725154,
          0.018873,
          -0.0281443,
          -0.0414056,
          0.0190502,
          -0.0163484,
          -0.00634693,
          -0.160183,
          0.265246,
          0.00106131,
          -0.0396728,
          0.0322975,
          -0.00476327,
          -0.154965,
          0.0258071,
          0.113108,
          0.173507,
          -0.00250176,
          -0.014916,
          0.0741835,
          0.00567232,
          -0.0156744,
          -0.0575213,
          0.0129502,
          0.0458015,
          0.00855171,
          -0.038483,
          0.00928631,
          0.0808547,
          -0.00556397,
          -0.00785498,
          0.00146681,
          -0.488255,
          -0.000224463,
          0.0169966,
          0.011601,
          -0.243821,
          -0.0336053,
          -0.0403546,
          0.0208767,
          -0.00281844,
          -0.609938,
          0.0201081,
          -0.023507,
          0.00779348,
          0.0304207,
          -0.0291771,
          -0.0129977,
          -0.0833189,
          -0.0355498,
          -0.0131719,
          -0.0337385,
          0.0444749,
          -0.0633115,
          -0.00428708,
          -0.00234139,
          -0.0325016,
          0.102416,
          0.0138027,
          0.0205765,
          -0.0188708,
          -0.0183305,
          -0.0262116,
          -0.0104588,
          -0.126232,
          -0.00360982,
          -0.0328611,
          -0.0225578,
          -0.0046654,
          0.0416084,
          -0.0322341,
          -0.0238539,
          -0.0125445,
          -0.0500852,
          0.0681372,
          -0.0221408,
          0.0273508,
          -0.0574851,
          -0.025655,
          -0.329375,
          0.24003,
          0.0451239,
          -0.00509309,
          -0.198494,
          -0.037614,
          0.0690756,
          -0.126324,
          0.239664,
          0.00207176,
          0.136227,
          -0.00288702,
          -0.00914519,
          0.0380899,
          0.0126221,
          -0.129028,
          -0.00918613,
          -0.0413079,
          0.0027175,
          -0.0158772,
          -0.0270075,
          -0.0287174,
          0.00454993,
          -0.0230259,
          -0.00439185,
          -0.369246,
          -0.0437265,
          0.0181954,
          -0.0117064,
          -0.011104,
          0.391157,
          0.0187422,
          -0.569581,
          0.187861,
          0.355437,
          -0.00746084,
          -0.0862069,
          0.638306,
          -0.0394546,
          -0.0411963,
          0.00627989,
          0.0250484,
          -0.027169,
          0.0109022,
          -0.0123738,
          0.00719795,
          0.0386932,
          -0.371367,
          -0.0494873,
          -0.0403036,
          -0.00800586,
          -0.0152471,
          -0.0502523,
          0.0637425,
          -0.254573,
          0.123461,
          -0.00239122,
          0.0212064,
          -0.0510441,
          0.0108942,
          0.133663,
          0.000977545,
          -0.155184,
          -0.0379343,
          -0.0127566,
          0.0564801,
          0.0218965,
          -0.00749643,
          0.102636,
          -0.028758,
          -0.00897371,
          0.0181185,
          0.0184973,
          0.023704,
          -0.0163782,
          -0.024023,
          0.00396979,
          0.0375356,
          -0.00784412,
          -0.0254943,
          0.00139613,
          -0.00390455,
          -0.00453609,
          -0.055416,
          -0.016723,
          -0.022175,
          -0.00558182,
          -0.0188224,
          0.166883,
          -0.0197848,
          -0.0130546,
          -0.002876,
          -0.0107236,
          -0.0737403,
          0.0202044,
          0.00519539,
          -0.022611,
          0.0176905,
          0.0103749,
          -0.0124161,
          0.0139118,
          -0.0493254,
          0.000506431,
          0.00373294,
          0.00470342,
          0.024444,
          0.0177259,
          0.0140033,
          0.0628022,
          -0.0323383,
          -0.0469612,
          -0.00846282,
          -0.00363155,
          -0.0273357,
          0.0101896,
          -0.00648171,
          -0.47992,
          0.0398062,
          0.0626444,
          -0.018194,
          0.00314846,
          0.0259629,
          -0.0311567,
          0.0255109,
          0.003264,
          0.0188524,
          -0.139767,
          -0.243584,
          0.049446,
          0.051529,
          -0.44808,
          -0.00901542,
          0.00764852,
          -0.0256898,
          0.0201537,
          -0.0142444,
          0.092605,
          0.385933,
          0.00751949,
          -0.682899,
          0.00175037
        ],
        "bias": [0.692263,0.928813,0.483521,0.979788],
        "factor_scale": [15360,15360,15360,15360],
        "coef_dtype": 1,
        "coef_acc": [5,10,15],
        "input_dtype": 1,
        "input_acc": [5,10,15],
        "output_dtype": 1,
        "output_acc": [5,10,15]
      }
    },
    {
      "inst_name": "/model/pet/head_module/Exp",
      "type_name": "Activation4",
      "bottom": [
        "2Fmodel2Fpet2Fhead_module2Fbbox_pred2E02FConv_output_0"
      ],
      "top": [
        "2Fmodel2Fpet2Fhead_module2FExp_output_0"
      ],
      "hw": 1,
      "hw_acc": [5,10,15],
      "param": {
        "function": "exp_x",
        "coeff": 1,
        "coeff2": 1,
        "num_input": 4,
        "num_output": 4
      },
      "data": {
        "input_dtype": 1,
        "input_acc": [5,10,15],
        "output_dtype": 1,
        "output_acc": [5,10,15]
      }
    }
  ]
}