{
  "name": "graph_aic",
  "input_tensor": [
    "2Fmodel2Fneck2Fout_convs2E12Fcna2Factivate2FRelu_output_0"
  ],
  "input_shape": [
    {
      "dim": [1,64,26,26],
      "dtype": "f16",
      "pack": 0
    }
  ],
  "output_tensor": [
    "2Fmodel2Fpet2Fhead_module2FExp_1_output_0"
  ],
  "output_shape": [
    {
      "dim": [1,4,26,26],
      "dtype": "f16",
      "pack": 0
    }
  ],
  "layer": [
    {
      "inst_name": "/model/pet/head_module/bbox_pred.1/Conv_im_0",
      "type_name": "Conv2d",
      "bottom": [
        "2Fmodel2Fneck2Fout_convs2E12Fcna2Factivate2FRelu_output_0"
      ],
      "top": [
        "2Fmodel2Fpet2Fhead_module2Fbbox_pred2E12FConv_output_0"
      ],
      "hw": 1,
      "hw_acc": [5,10,15],
      "param": {
        "num_output": 4,
        "bias_term": 1,
        "group": 1,
        "pad_h": 0,
        "pad_w": 0,
        "kernel_h": 1,
        "kernel_w": 1,
        "stride_h": 1,
        "stride_w": 1,
        "dilation_h": 1,
        "dilation_w": 1,
        "num_input": 64,
        "padding_mode": 0
      },
      "data": {
        "coef": [
          -3.29111e-05,
          0.0200371,
          -0.00401536,
          -0.0127955,
          0.00177504,
          0.0284877,
          -0.000141119,
          -0.00115396,
          0.00115976,
          0.0616324,
          0.000143229,
          -0.0138748,
          0.00863729,
          -0.00769794,
          -0.0485901,
          0.00606218,
          -0.0265813,
          0.029397,
          -0.00376694,
          0.347807,
          -0.0144974,
          0.040231,
          -0.0540657,
          0.0136892,
          0.0143805,
          0.0367951,
          0.011597,
          -0.0488127,
          -0.00264113,
          -0.00327513,
          0.00257887,
          -0.00732403,
          -0.0074427,
          0.26005,
          0.0422193,
          0.0058518,
          -0.002617,
          0.021717,
          0.0441536,
          -0.00197597,
          0.017827,
          -0.0143368,
          -0.010412,
          -0.0155633,
          0.00321914,
          -0.0167845,
          -0.0116585,
          -0.371806,
          -0.0169524,
          -0.00619821,
          -0.00711307,
          0.00265642,
          -0.0111844,
          0.00346794,
          -0.0066043,
          -0.00414511,
          -0.000141749,
          0.00456289,
          -0.00175528,
          0.0189386,
          -0.525918,
          -0.0111419,
          -0.010463,
          -0.555357,
          -0.00393926,
          0.00482392,
          -0.0116772,
          -0.487249,
          0.0054604,
          -0.199937,
          0.0272693,
          0.00982762,
          0.00355064,
          0.00244907,
          -0.0109944,
          -0.0153245,
          0.0389586,
          -0.00972415,
          -0.00275545,
          -0.00164731,
          -0.0204796,
          0.0142082,
          -0.000834031,
          0.0115092,
          0.0491265,
          0.00941503,
          0.0256711,
          -0.0590594,
          0.00742932,
          0.329276,
          -0.00344983,
          -0.0219147,
          0.000498314,
          -0.0039202,
          0.00439091,
          -0.00240004,
          0.0130916,
          0.016312,
          0.00539998,
          0.224124,
          -0.00415952,
          -0.00532539,
          0.153874,
          -0.00227702,
          0.00865454,
          -0.0221698,
          -0.0008999,
          0.028419,
          0.0039304,
          -0.0124499,
          -0.0054389,
          -0.00937184,
          -0.436,
          -0.330447,
          -0.00456438,
          0.0458812,
          -0.00785104,
          -0.0200703,
          0.000832851,
          0.217449,
          -0.00263231,
          -0.00760177,
          0.00238358,
          -0.0227161,
          -0.00599568,
          -0.00216413,
          -0.639748,
          -0.00349414,
          -0.00116459,
          -0.00270822,
          0.00728329,
          -0.0183015,
          0.0028015,
          0.0108553,
          0.0201253,
          0.00687009,
          -0.00792107,
          0.00781606,
          -0.350991,
          0.00341328,
          -0.00452577,
          -0.488464,
          -0.0234122,
          -4.18174e-05,
          0.0271718,
          0.0429306,
          -0.00803547,
          0.00599484,
          -0.00772166,
          0.684199,
          0.0150811,
          -0.0387417,
          0.350509,
          0.0123072,
          -0.0072086,
          -0.0657071,
          -0.00205205,
          0.00174871,
          0.0448512,
          -0.601844,
          0.0123811,
          0.186379,
          0.0381073,
          0.0137927,
          -0.0040927,
          -0.00482582,
          0.0195792,
          0.00241348,
          0.0059203,
          -0.0405485,
          0.00330516,
          0.0490026,
          -0.00981313,
          0.00186459,
          -0.0105462,
          -0.00945066,
          -0.0118656,
          -0.0271474,
          0.040159,
          -0.0277478,
          -0.00816612,
          0.00126847,
          0.000238288,
          0.00415947,
          -0.0144641,
          -0.00138407,
          -0.00511196,
          0.0158532,
          -0.00164213,
          0.00585973,
          -0.0129509,
          -0.00512249,
          0.00313578,
          0.00198824,
          -0.00552283,
          -0.0023582,
          0.362027,
          0.0182611,
          0.0092607,
          0.0174556,
          -0.0199976,
          0.0111297,
          0.00307397,
          -0.00698497,
          0.00188409,
          -0.0104038,
          -0.0241819,
          0.0855749,
          -0.0127847,
          -0.045103,
          -0.00459495,
          0.00295961,
          -0.0334842,
          0.0124462,
          -0.0239289,
          0.0258628,
          0.00439283,
          0.0141096,
          -0.00758735,
          -0.05403,
          -0.00346309,
          0.00581319,
          0.00240607,
          -0.003323,
          -0.017356,
          -0.00828761,
          -0.0153151,
          0.00519314,
          -0.000156104,
          -0.00631152,
          0.00410226,
          -0.00633276,
          0.359065,
          0.0748621,
          -0.00833129,
          0.0597639,
          -0.00636187,
          -0.000815384,
          -0.734416,
          -0.00309926,
          -0.00410389,
          0.00735528,
          -0.00339746,
          0.0174293,
          -0.0120888,
          -0.00493186,
          -0.000510859,
          -0.00830782,
          -0.398268,
          0.00149786,
          0.00684598,
          0.0106652,
          -0.00187213,
          -0.00360673,
          -0.00258467,
          -0.00487701
        ],
        "bias": [0.79548,0.86782,0.370301,0.74003],
        "factor_scale": [15360,15360,15360,15360],
        "coef_dtype": 1,
        "coef_acc": [5,10,15],
        "input_dtype": 1,
        "input_acc": [5,10,15],
        "output_dtype": 1,
        "output_acc": [5,10,15]
      }
    },
    {
      "inst_name": "/model/pet/head_module/Exp_1",
      "type_name": "Activation4",
      "bottom": [
        "2Fmodel2Fpet2Fhead_module2Fbbox_pred2E12FConv_output_0"
      ],
      "top": [
        "2Fmodel2Fpet2Fhead_module2FExp_1_output_0"
      ],
      "hw": 1,
      "hw_acc": [5,10,15],
      "param": {
        "function": "exp_x",
        "coeff": 1,
        "coeff2": 1,
        "num_input": 4,
        "num_output": 4
      },
      "data": {
        "input_dtype": 1,
        "input_acc": [5,10,15],
        "output_dtype": 1,
        "output_acc": [5,10,15]
      }
    }
  ]
}