{
  "name": "graph_aic",
  "input_tensor": [
    "2Fmodel2Fneck2Fout_convs2E02Fcna2Factivate2FRelu_output_0"
  ],
  "input_shape": [
    {
      "dim": [1,64,52,52],
      "dtype": "f16",
      "pack": 0
    }
  ],
  "output_tensor": [
    "2Fmodel2Fface2Fhead_module2FExp_output_0"
  ],
  "output_shape": [
    {
      "dim": [1,4,52,52],
      "dtype": "f16",
      "pack": 0
    }
  ],
  "layer": [
    {
      "inst_name": "/model/face/head_module/bbox_pred.0/Conv_im_0",
      "type_name": "Conv2d",
      "bottom": [
        "2Fmodel2Fneck2Fout_convs2E02Fcna2Factivate2FRelu_output_0"
      ],
      "top": [
        "2Fmodel2Fface2Fhead_module2Fbbox_pred2E02FConv_output_0"
      ],
      "hw": 1,
      "hw_acc": [5,10,15],
      "param": {
        "num_output": 4,
        "bias_term": 1,
        "group": 1,
        "pad_h": 0,
        "pad_w": 0,
        "kernel_h": 1,
        "kernel_w": 1,
        "stride_h": 1,
        "stride_w": 1,
        "dilation_h": 1,
        "dilation_w": 1,
        "num_input": 64,
        "padding_mode": 0
      },
      "data": {
        "coef": [
          0.217689,
          -0.0571535,
          0.0269344,
          -0.000657763,
          -0.0311727,
          0.00739088,
          0.0226084,
          -0.207905,
          0.0122413,
          -0.332116,
          0.0739133,
          -0.0315498,
          0.0043871,
          0.0195955,
          0.0935758,
          -0.302892,
          -0.0288608,
          0.00840336,
          -0.877671,
          -0.0091175,
          0.120686,
          0.00821777,
          0.0341702,
          0.0154716,
          0.000999872,
          -0.0598853,
          0.0620552,
          0.00178129,
          -0.036732,
          -0.0387675,
          0.0139135,
          -0.240187,
          -0.0080621,
          -0.381801,
          0.0059615,
          -0.004426,
          -0.0642802,
          -0.0459173,
          -0.0291186,
          -0.0289163,
          -0.0320462,
          -0.00587497,
          0.00700572,
          -0.335065,
          -0.171915,
          0.0241921,
          0.0187684,
          -0.0128192,
          -0.00269338,
          0.0480486,
          0.0231439,
          0.0896369,
          0.109683,
          -0.00566262,
          -0.0154998,
          -0.0747177,
          0.010734,
          -0.531069,
          0.139616,
          -0.00980266,
          0.0183239,
          -0.00472535,
          -0.0121183,
          -0.640398,
          0.0355685,
          -0.00491048,
          0.0363098,
          -0.0677452,
          -0.309457,
          -0.00175469,
          -0.068071,
          -0.016731,
          -0.406522,
          -0.0279665,
          0.0439188,
          -0.0229054,
          -0.0155594,
          -0.437628,
          0.11644,
          0.0074261,
          -0.0155404,
          0.0237819,
          -0.0127165,
          0.00893016,
          -0.164212,
          -0.0113359,
          -0.00325604,
          0.0257784,
          0.000836076,
          0.0416879,
          0.0471537,
          -0.00239656,
          0.055822,
          0.0301225,
          0.00491856,
          0.0542418,
          -0.00817218,
          0.00117257,
          -0.0236886,
          -0.0184113,
          -0.0546957,
          -1.17722,
          -0.0333617,
          -0.00191657,
          -0.597903,
          0.0795522,
          -0.0261292,
          -0.0225208,
          -0.0178337,
          -0.00227731,
          0.178906,
          -0.0807932,
          0.0321746,
          0.0185875,
          0.0412483,
          -0.0482953,
          0.100443,
          0.000871281,
          -0.0267561,
          0.119051,
          0.0198676,
          -0.0918836,
          -0.047674,
          0.177467,
          0.00999739,
          0.296791,
          -0.00087851,
          -0.0319729,
          0.00471166,
          -0.0769948,
          -0.21612,
          -0.0502141,
          -0.0354341,
          -0.0203936,
          0.0358792,
          0.00302291,
          0.0251737,
          0.0030176,
          -0.084674,
          -0.0582571,
          -0.0928055,
          -0.00290157,
          0.121839,
          -0.0136587,
          -0.0352508,
          0.254902,
          0.0327789,
          0.0287722,
          0.186306,
          -0.809822,
          0.00410272,
          -0.00130511,
          0.0029159,
          0.0231175,
          0.0424594,
          0.0136712,
          0.0688259,
          0.0108819,
          -0.0458993,
          -0.00762444,
          -0.0306363,
          0.10738,
          -0.359373,
          0.012716,
          -0.123513,
          -0.0327981,
          -0.0226888,
          -0.0436874,
          -0.0475549,
          -0.280881,
          -0.37774,
          0.00795515,
          0.00333205,
          -0.00742347,
          0.00251834,
          -0.464063,
          -0.440233,
          0.0948624,
          0.0641539,
          0.0011435,
          0.0603695,
          -0.0375715,
          -0.0173822,
          -0.0254105,
          0.0386705,
          0.0218354,
          -0.314511,
          0.000691215,
          0.0277609,
          -0.00446498,
          0.00575455,
          0.00159918,
          0.0400935,
          -0.752662,
          -0.0052626,
          -0.0678604,
          0.00390105,
          0.00348446,
          0.0344053,
          -0.0142278,
          0.0073174,
          -0.0122145,
          -0.0332423,
          -0.427894,
          -0.00442987,
          0.0134306,
          0.0446352,
          -0.00254987,
          0.0289129,
          0.0250014,
          -0.01449,
          0.00308859,
          0.0177134,
          -0.0145668,
          0.00587584,
          0.0543498,
          0.00209258,
          -0.00968988,
          0.0278754,
          0.00433675,
          0.0459954,
          -0.322133,
          -0.00124638,
          0.0674811,
          0.0185244,
          0.00980913,
          -0.0195271,
          -0.0562005,
          -0.109503,
          0.00403067,
          -0.0207217,
          -0.32164,
          0.00449135,
          0.0732185,
          -0.0450647,
          -0.0285542,
          -0.0655044,
          -0.00658188,
          -0.133897,
          -0.0405492,
          -0.0158198,
          -0.0631737,
          -0.326025,
          -0.0119543,
          0.0198161,
          -0.29074,
          -0.00668823,
          -0.189564,
          -0.0157118,
          -0.0466485,
          0.00496296,
          0.130624,
          0.261898,
          0.00607779,
          -0.338117,
          -0.0365166
        ],
        "bias": [0.526151,0.704266,0.276578,0.827492],
        "factor_scale": [15360,15360,15360,15360],
        "coef_dtype": 1,
        "coef_acc": [5,10,15],
        "input_dtype": 1,
        "input_acc": [5,10,15],
        "output_dtype": 1,
        "output_acc": [5,10,15]
      }
    },
    {
      "inst_name": "/model/face/head_module/Exp",
      "type_name": "Activation4",
      "bottom": [
        "2Fmodel2Fface2Fhead_module2Fbbox_pred2E02FConv_output_0"
      ],
      "top": [
        "2Fmodel2Fface2Fhead_module2FExp_output_0"
      ],
      "hw": 1,
      "hw_acc": [5,10,15],
      "param": {
        "function": "exp_x",
        "coeff": 1,
        "coeff2": 1,
        "num_input": 4,
        "num_output": 4
      },
      "data": {
        "input_dtype": 1,
        "input_acc": [5,10,15],
        "output_dtype": 1,
        "output_acc": [5,10,15]
      }
    }
  ]
}