{
  "name": "graph_aic",
  "input_tensor": [
    "2Fmodel2Fperson2Fhead_module2Fkpt_pred2E02Fkpt_pred2E02E02Fpointwise_conv2Fconv2FConv_output_0",
    "2Fmodel2Fperson2Fhead_module2Fkpt_pred2E02Fkpt_pred2E02E02Fpointwise_conv2Factivate2FSigmoid_output_0"
  ],
  "input_shape": [
    {
      "dim": [1,64,52,52],
      "dtype": "f16",
      "pack": 0
    },
    {
      "dim": [1,64,52,52],
      "dtype": "f16",
      "pack": 0
    }
  ],
  "output_tensor": [
    "2Fmodel2Fperson2Fhead_module2Fkpt_pred2E02Fkpt_pred2E02E12Fdepthwise_conv2Fconv2FConv_output_0"
  ],
  "output_shape": [
    {
      "dim": [1,64,52,52],
      "dtype": "f16",
      "pack": 0
    }
  ],
  "layer": [
    {
      "param": {
        "operation": 2,
        "num_channel": 64,
        "src_mode": "ONLINE",
        "brc_mode": "CHW"
      },
      "data": {
        "input0_dtype": 1,
        "input0_acc": [5,10,15],
        "input1_dtype": 1,
        "input1_acc": [5,10,15],
        "output_dtype": 1,
        "output_acc": [5,10,15],
        "coef": []
      },
      "inst_name": "/model/person/head_module/kpt_pred.0/kpt_pred.0.0/pointwise_conv/activate/Mul",
      "type_name": "Eltwise3",
      "bottom": [
        "2Fmodel2Fperson2Fhead_module2Fkpt_pred2E02Fkpt_pred2E02E02Fpointwise_conv2Fconv2FConv_output_0",
        "2Fmodel2Fperson2Fhead_module2Fkpt_pred2E02Fkpt_pred2E02E02Fpointwise_conv2Factivate2FSigmoid_output_0"
      ],
      "top": [
        "2Fmodel2Fperson2Fhead_module2Fkpt_pred2E02Fkpt_pred2E02E02Fpointwise_conv2Factivate2FMul_output_0"
      ],
      "hw": 1,
      "hw_acc": [5,10,15]
    },
    {
      "inst_name": "/model/person/head_module/kpt_pred.0/kpt_pred.0.1/depthwise_conv/conv/Conv_im_0",
      "type_name": "Wino2d",
      "bottom": [
        "2Fmodel2Fperson2Fhead_module2Fkpt_pred2E02Fkpt_pred2E02E02Fpointwise_conv2Factivate2FMul_output_0"
      ],
      "top": [
        "2Fmodel2Fperson2Fhead_module2Fkpt_pred2E02Fkpt_pred2E02E12Fdepthwise_conv2Fconv2FConv_output_0"
      ],
      "hw": 1,
      "hw_acc": [5,10,15],
      "param": {
        "num_output": 64,
        "bias_term": 1,
        "group": 64,
        "pad_h": 1,
        "pad_w": 1,
        "kernel_h": 3,
        "kernel_w": 3,
        "stride_h": 1,
        "stride_w": 1,
        "dilation_h": 1,
        "dilation_w": 1,
        "num_input": 64,
        "padding_mode": 0
      },
      "data": {
        "coef": [
          -0.0842039,
          4.63513,
          0.215402,
          -0.0820583,
          -0.755576,
          -0.0793034,
          0.0828615,
          0.122768,
          0.128865,
          -0.101835,
          -1.61216,
          -0.133746,
          -0.0768286,
          -0.277118,
          -0.052607,
          -0.0014951,
          0.140813,
          0.0193714,
          0.00903233,
          0.102501,
          0.0710161,
          0.0035517,
          0.0358897,
          0.0353622,
          0.00203254,
          0.0847028,
          0.066164,
          -0.0333413,
          0.680723,
          0.0442786,
          -0.132172,
          0.307498,
          0.0117425,
          -0.0333475,
          0.0153436,
          -0.00792566,
          -0.0204345,
          -0.14312,
          0.213719,
          0.0159248,
          -0.135956,
          0.209025,
          -0.00667584,
          -0.00334774,
          0.0708824,
          -0.00138809,
          -0.213713,
          -0.00969111,
          0.056529,
          0.447684,
          0.00310162,
          0.0283323,
          0.253964,
          0.00257564,
          0.0409279,
          2.52559,
          0.0925352,
          -0.0176708,
          -0.229969,
          -0.0329418,
          -0.0213073,
          -0.0178836,
          -0.0168973,
          -0.0193761,
          -0.153205,
          -0.0623469,
          -0.102725,
          -0.419534,
          -0.042161,
          -0.103683,
          -0.914345,
          -0.0725301,
          0.147359,
          0.335958,
          0.431743,
          0.114417,
          0.121981,
          0.20139,
          0.155927,
          0.506474,
          0.467173,
          0.289365,
          0.421341,
          0.383291,
          0.206766,
          0.181247,
          0.279958,
          0.235456,
          0.334929,
          0.26154,
          0.144602,
          -1.23329,
          -0.822092,
          0.215053,
          -1.54262,
          -0.594784,
          0.0349724,
          -1.14625,
          -0.737998,
          -0.0239713,
          0.370923,
          -0.144459,
          0.0189181,
          -1.28962,
          -0.069827,
          0.00903523,
          -0.00827161,
          -0.068773,
          0.217108,
          0.318057,
          0.293453,
          0.134351,
          0.166597,
          0.17265,
          0.167279,
          0.227521,
          0.161962,
          0.243747,
          -0.107045,
          0.00561029,
          0.157749,
          -0.0142116,
          0.0122438,
          0.0591665,
          0.0067123,
          -0.00807109,
          -0.0306946,
          -0.0866821,
          1.3062,
          -0.0526432,
          1.19468,
          1.49412,
          -0.0801514,
          0.14304,
          0.682319,
          -0.360352,
          1.88195,
          1.0222,
          0.114438,
          -0.0858609,
          0.0298606,
          -0.0192275,
          0.0607808,
          -0.304078,
          0.0561263,
          0.0291079,
          0.012795,
          -0.0624805,
          -0.239122,
          0.0223945,
          0.191189,
          1.3995,
          0.102736,
          -3.39785,
          -8.89233,
          -0.3894,
          -0.574979,
          -0.431415,
          0.677233,
          0.493612,
          2.16678,
          0.462577,
          -0.280023,
          0.188319,
          0.171475,
          -0.289609,
          -0.685651,
          0.0560506,
          -0.176864,
          -0.423017,
          -0.0710807,
          -0.0246134,
          0.659495,
          0.160185,
          0.0119076,
          -0.440789,
          -0.0299388,
          -0.0270694,
          -0.143324,
          0.0164806,
          -0.495913,
          -0.314167,
          0.52359,
          -0.820754,
          -4.188,
          0.438066,
          0.0149543,
          -2.23746,
          -0.279315,
          0.0894225,
          0.681261,
          0.0549617,
          0.0316263,
          0.41947,
          0.0265304,
          0.00738168,
          0.007684,
          0.012138,
          0.0335079,
          -0.0788875,
          0.0830362,
          -0.0219247,
          0.0319862,
          0.276861,
          -0.018623,
          -0.0130793,
          0.162507,
          0.569351,
          0.78403,
          0.754843,
          0.0658705,
          0.147473,
          -0.0555524,
          0.483977,
          0.686805,
          0.622689,
          -0.0079258,
          -0.00751598,
          0.142166,
          0.0227025,
          1.56223,
          0.152672,
          -0.00854161,
          0.000632435,
          0.140862,
          0.15205,
          0.794786,
          0.280777,
          0.141217,
          0.631003,
          0.225698,
          -0.0182376,
          0.10764,
          0.0627878,
          0.065387,
          0.864887,
          0.00826845,
          -0.105862,
          -0.280606,
          -0.0581885,
          0.0661456,
          0.0321728,
          0.0749875,
          -0.120082,
          -0.650457,
          -0.0668537,
          0.107321,
          -1.39868,
          0.121377,
          -0.00823371,
          0.24719,
          -0.0139595,
          0.237922,
          0.352872,
          0.401877,
          0.12895,
          0.0577726,
          0.135519,
          0.198813,
          0.272215,
          0.255382,
          -0.0612954,
          -0.175305,
          -0.150299,
          -0.0485668,
          -0.0988325,
          -0.118572,
          -0.091751,
          -0.303849,
          -0.176743,
          0.29879,
          2.20561,
          -0.283114,
          -0.065274,
          0.689138,
          -0.129049,
          -0.0597807,
          -0.0135887,
          -0.00785106,
          -0.197312,
          -1.38876,
          -0.194716,
          0.549995,
          -7.06606,
          -0.16583,
          0.149658,
          5.21936,
          -1.15157,
          -0.0018186,
          -0.802682,
          -0.381406,
          -0.0301208,
          -0.567025,
          -0.331029,
          -0.0123617,
          -0.569887,
          -0.235314,
          -0.585249,
          0.309931,
          -0.106113,
          -0.215264,
          -1.67464,
          0.326301,
          -1.61094,
          -9.14696,
          -1.55272,
          0.274902,
          -0.684064,
          0.10652,
          0.23062,
          -0.671931,
          0.149815,
          0.0454539,
          -0.28874,
          0.087231,
          -0.313649,
          -0.610531,
          0.042458,
          -0.0852409,
          -0.720801,
          -0.0108103,
          -0.00828864,
          -0.0336536,
          -0.000649626,
          0.108847,
          -0.135679,
          -0.00325404,
          0.156712,
          2.38434,
          -0.0721689,
          0.0535909,
          0.479182,
          0.0136595,
          0.419984,
          0.425755,
          0.204418,
          0.14943,
          0.215218,
          0.121444,
          0.446753,
          0.455351,
          0.332839,
          -0.411749,
          -0.538652,
          -0.0425348,
          -0.200799,
          -0.237438,
          -0.0624714,
          -0.410161,
          -0.411761,
          -0.0375721,
          0.10896,
          -0.0914684,
          0.0824192,
          -0.178462,
          -1.5001,
          -0.327558,
          0.669873,
          4.5214,
          0.840723,
          0.0317948,
          0.143257,
          0.0502587,
          -0.0249227,
          -0.182362,
          -0.0789822,
          -0.00284258,
          6.35378,
          0.606092,
          0.503383,
          0.678765,
          0.312108,
          0.597818,
          1.8089,
          0.881344,
          0.62576,
          1.56252,
          1.1936,
          0.0225465,
          -0.0356042,
          0.023821,
          0.0462035,
          0.346288,
          0.0429278,
          0.0021656,
          0.359221,
          0.0165812,
          -0.242326,
          -2.27569,
          -0.0366754,
          0.0816592,
          -7.8858,
          0.180247,
          -0.047978,
          -0.660031,
          -0.0486947,
          0.025708,
          0.532162,
          0.13968,
          -0.0176848,
          0.408746,
          0.0804846,
          0.0051539,
          0.156305,
          0.00879433,
          0.570206,
          2.41296,
          0.565562,
          -0.131942,
          2.45662,
          0.634075,
          -0.0429686,
          1.83863,
          0.481988,
          0.0101557,
          -0.162774,
          -0.00646586,
          -0.0761492,
          -0.469572,
          0.00591848,
          -0.0270756,
          0.0389921,
          -0.00398028,
          -0.0637869,
          -0.134652,
          -0.0795542,
          -0.100594,
          -0.153163,
          -0.0953879,
          -0.242293,
          -0.340934,
          -0.1983,
          -0.0122723,
          -0.00501074,
          0.000511198,
          -0.00320006,
          -0.71614,
          0.000968184,
          -0.00899103,
          0.0029641,
          -0.000315543,
          -0.0114171,
          -0.181373,
          0.0255537,
          -0.0170466,
          0.500324,
          0.0299145,
          -0.00446117,
          0.211741,
          -0.00463613,
          -2.1356,
          -2.66827,
          -0.991214,
          -2.00899,
          -4.91389,
          -2.30196,
          -2.25863,
          -3.87606,
          -1.96369,
          -0.167263,
          -1.00367,
          -0.00379197,
          -0.177074,
          -0.417236,
          0.0537491,
          -0.00286526,
          0.049888,
          0.247172,
          -0.169826,
          -3.43034,
          -0.187704,
          -0.197312,
          -12.1561,
          -0.894309,
          -0.275287,
          8.45243,
          0.430332,
          0.0409758,
          0.278267,
          0.147064,
          -0.0195776,
          0.284266,
          0.119823,
          0.00209749,
          0.0960766,
          0.0685828,
          0.283557,
          0.55289,
          0.199145,
          0.0608929,
          0.0143398,
          0.0520316,
          0.187263,
          0.634058,
          0.310129,
          0.0215557,
          -0.343286,
          -0.0787459,
          -0.00908488,
          -0.158559,
          -0.0489799,
          -0.00749088,
          0.00803683,
          -0.0408701,
          0.0476112,
          0.747371,
          0.00793687,
          -0.00162642,
          -2.65178,
          0.0265674,
          -0.027864,
          -0.181556,
          -0.0776483,
          -0.0113242,
          -0.226608,
          0.02524,
          0.0184172,
          -0.618101,
          -0.004173,
          -0.0361188,
          -1.18863,
          -0.00552875,
          0.152277,
          0.863819,
          0.228843,
          -0.0839969,
          0.103619,
          0.161066,
          -0.0998996,
          -0.169396,
          0.086819,
          0.124004,
          -0.13296,
          -0.173141,
          0.0467773,
          0.463854,
          0.00113245,
          -0.0164872,
          0.442977,
          0.143032,
          -0.0373133,
          -0.658015,
          -0.183084,
          -0.11493,
          -1.61282,
          -0.171167,
          -0.0304811,
          -0.639042,
          -0.149492,
          -0.0094828,
          -0.249488,
          -0.00959719,
          0.0196468,
          -1.98921,
          0.0188678,
          0.00777244,
          0.17061,
          0.00923183,
          -0.033405,
          -0.275348,
          0.00223845,
          0.0417615,
          1.35699,
          0.0760591,
          0.0385214,
          -0.615322,
          -0.0449497,
          -0.000503338,
          0.0608666,
          0.00186606,
          0.00737339,
          -0.360595,
          -0.00239953,
          -0.0132016,
          -0.14143,
          -0.0285214
        ],
        "bias": [
          0.481562,
          3.20099,
          2.55277,
          -0.203683,
          1.2708,
          -0.890967,
          0.358656,
          2.73578,
          2.35869,
          3.22935,
          0.0106055,
          1.44142,
          2.7987,
          2.72591,
          -2.31284,
          -1.18541,
          -0.0948657,
          0.425098,
          1.64019,
          -0.668813,
          1.3249,
          2.70297,
          -0.196602,
          3.9252,
          -3.08857,
          3.90761,
          -0.624468,
          1.36817,
          3.04851,
          1.71691,
          -1.75923,
          -0.00723219,
          -1.59865,
          0.26136,
          1.94824,
          0.94861,
          0.00309908,
          3.47624,
          1.10759,
          -0.0983372,
          -0.709932,
          1.76616,
          2.37421,
          0.15676,
          -2.557,
          0.808126,
          1.43267,
          2.15733,
          2.41993,
          -0.72407,
          2.6925,
          1.99641,
          0.519222,
          -2.72346,
          3.2648,
          2.04453,
          1.8371,
          1.9923,
          -1.33894,
          -0.976858,
          5.50937,
          2.72204,
          -0.32368,
          1.65848
        ],
        "factor_scale": [
          15360,
          15360,
          15360,
          15360,
          15360,
          15360,
          15360,
          15360,
          15360,
          15360,
          15360,
          15360,
          15360,
          15360,
          15360,
          15360,
          15360,
          15360,
          15360,
          15360,
          15360,
          15360,
          15360,
          15360,
          15360,
          15360,
          15360,
          15360,
          15360,
          15360,
          15360,
          15360,
          15360,
          15360,
          15360,
          15360,
          15360,
          15360,
          15360,
          15360,
          15360,
          15360,
          15360,
          15360,
          15360,
          15360,
          15360,
          15360,
          15360,
          15360,
          15360,
          15360,
          15360,
          15360,
          15360,
          15360,
          15360,
          15360,
          15360,
          15360,
          15360,
          15360,
          15360,
          15360
        ],
        "coef_dtype": 1,
        "coef_acc": [5,10,15],
        "input_dtype": 1,
        "input_acc": [5,10,15],
        "output_dtype": 1,
        "output_acc": [5,10,15]
      }
    }
  ]
}